0;1;2;3;4;5;6;7;8;9;10;11;12;13;14;15;16;17;18;19;20;21;22;23;24;25;26;27;28;29;30;31;32;33;34;35;36;37;38;39;40;41;42;43;44;45;46;47;48;49;50;51;52;53;54;55;56;57;58;59;60;61;62;63;64;65;66;67;68;69;70;71;72;73;74;75;76;77;78;79;80;81;82;83;84;85;86;87;88;89;90;91;92;93;94;95;96;97;98;99;100;101;102;103;104;105;106;107;108;109;110;111;112;113;114;115;116;117;118;119;120;121;122;123;124;125;126;127;128;129;130;131;132;133;134;135;136;137;138;139;140;141;142;143;144;145;146;147;148;149;150;151;152;153;154;155;156;157;158;159;160;161;162;163;164;165;166;167;168;169;170;171;172;173;174;175;176;177;178;179;180;181;182;183;184;185;186;187;188;189;190;191;192;193;194;195;196;197;198;199;200;201;202;203;204;205;206;207;208;209;210;211;212;213;214;215;216;217;218;219;220;221;222;223;224;225;226;227;228;229;230;231;232;233;234;235;236;237;238;239;240;241;242;243;244;245;246;247;248;249;250;251;252;253;254;255;256;257;258;259;260;261;262;263;264;265;266;267;268;269;270;271;272;273;274;275;276;277;278;279;280;281;282;283;284;285;286;287;288;289;290;291;292;293;294;295;296;297;298;299;300;301;302;303;304;305;306;307;308;309;310;311;312;313;314;315;316;317;318;319;320;321;322;323;324;325;326;327;328;329;330;331;332;333;334;335;336;337;338;339;340;341;342;343;344;345;346;347;348;349;350;351;352;353;354;355;356;357;358;359;360;361;362;363;364;365;366;367;368;369;370;371;372;373;374;375;376;377;378;379;380;381;382;383;384;385;386;387;388;389;390;391;392;393;394;395;396;397;398;399;400;401;402;403;404;405;406;407;408;409;410;411;412;413;414;415;416;417;418;419;420;421;422;423;424;425;426;427;428;429;430;431;432;433;434;435;436;437;438;439;440;441;442;443;444;445;446;447;448;449;450;451;452;453;454;455;456;457;458;459;460;461;462;463;464;465;466;467;468;469;470;471;472;473;474;475;476;477;478;479;480;481;482;483;484;485;486;487;488;489;490;491;492;493;494;495;496;497;498;499;500;501;502;503;504;505;506;507;508;509;510;511
0,0098553635;-0,020955434;-0,023964606;0,0411409;0,02469198;-0,014867473;-0,03620093;-0,04380577;-0,027338253;0,016291955;-0,01227805;0,02116647;0,044001583;0,041908834;-0,019878473;-0,016308812;0,018759636;0,00012073838;-0,0064619374;-0,03443812;0,0051694666;0,03641629;-0,00059509213;-0,0003561518;-0,03295907;0,032670688;0,032585677;0,011112659;-0,01905386;0,030465033;0,03964938;-0,024477858;0,008230282;0,039941274;0,0020142116;0,012084603;0,017632432;-0,017051104;0,01485018;0,021023883;0,0024984404;-0,03174536;-0,0088579245;-0,03620255;-0,009021341;0,043079343;-0,034223065;0,017596405;0,041244976;-0,032570373;-0,032006003;-0,04119774;-0,037641034;0,030847272;-0,01984008;-0,024447886;0,0063695284;0,010208314;0,020321334;0,028544415;0,029237164;0,027318377;-0,020093404;-0,013398151;-0,03453615;0,037509225;0,005909023;-0,010990947;-0,017938882;0,042983923;-0,020353602;0,016474737;-0,039800756;0,020673878;-0,00982845;0,03513399;-0,020255242;0,001807814;0,04167776;-0,040900175;-0,025754696;0,025655879;-0,025656562;0,028493809;0,015957227;-0,03653568;0,039163943;-0,014360704;-0,03857598;-0,018203799;0,012657472;-0,018565146;-0,015899403;-0,012257077;-0,03836665;-0,038106017;-0,035477377;-0,0421757;0,021625495;-0,015209055;-0,042936962;-0,0047541214;-0,03008116;-0,024297094;0,02261298;0,02977213;-0,03541074;0,02699095;-0,033087965;0,016007697;-0,0075441636;0,020154051;0,018556118;-0,025669666;0,011642843;0,028363941;-0,04373175;0,0148973;-0,010693947;-0,04087134;-0,0060970383;-0,015751693;0,011344825;-0,01960481;0,018126456;-0,017917715;-0,0018356927;0,04388723;-0,006938122;-0,04215971;-0,02599211;0,012977896;-0,039858237;-0,0018236581;-0,01683277;0,0059549976;0,029785074;-0,0040779044;-0,0339529;0,015954467;0,025010375;-0,02084481;0,0011115273;-0,0036501922;0,027673708;0,005064784;-0,003126001;-0,006503058;-0,012564423;0,031711057;0,03583001;-0,029746523;0,0008143019;-0,0008127658;-0,032524392;0,020152112;-0,04015028;-0,040457744;-0,02278191;-0,0344549;0,03888543;0,041477356;0,0125146;-0,0031072358;-0,015316906;-0,0012082132;-0,0028146661;0,01648084;-0,02293992;0,019402478;0,039269045;-0,017916016;0,004362221;0,024433892;0,026396777;-0,029728904;0,03545992;-0,015603723;-0,028491877;0,011741432;-0,008630444;-0,039608512;-0,0106014935;-0,0421563;-0,016776482;-0,01950524;0,0019590375;0,033009768;0,025052948;0,018337736;-0,030501211;-0,009496505;-0,03621336;-0,004468485;-0,02840647;0,0005710675;-0,0034563472;-0,030817186;-0,010083614;-0,030599086;0,01995271;0,0051447507;-0,01821156;-0,028067863;-0,024469655;-0,0363802;0,00748929;0,00854542;0,0070840507;0,010840328;0,0074484088;-0,040848408;0,021507485;0,042709038;0,021239985;-0,026781749;0,035599243;-0,032030396;-0,030320989;-0,013179063;-0,043292984;0,015237987;-0,024028083;0,03319807;0,022866102;0,004743793;0,010016371;-0,024420751;-0,011415057;-0,018937875;0,034599777;-0,024969602;-0,0149218105;0,018667484;-0,02248535;-0,0059876456;-0,032877564;-0,024258928;-0,026227564;0,042600233;0,0017180268;-0,038698055;-0,043392684;-0,03663881;0,026656417;-0,040799767;0,03292839;-0,0040140785;0,024562271;-0,042083304;-0,036750924;0,0037902659;-0,011990736;0,028040355;-0,014277113;0,0363876;-0,00032441862;0,02459936;-0,037665028;-0,0023141142;-0,025713393;-0,01656223;-0,039474033;0,0327921;-0,03791959;0,04246282;0,0075152745;-0,029387817;0,033089783;0,0031873696;-0,0045872936;-0,00370712;-0,0053915814;0,028970066;0,043705918;0,03344674;0,041233134;-0,015508564;-0,039364744;-0,011221382;0,039360907;-0,0075400798;-0,04135652;-0,022787046;0,01487934;0,03480839;0,0121709565;-0,021373406;0,0066964994;-0,0074738283;-0,022580273;0,022521999;-0,027713498;-0,03990562;0,012216997;0,041952707;-0,010064769;-0,01236544;0,037899587;0,016964074;0,027927412;0,035894305;-0,042661387;-0,0067418786;0,037602212;0,012003809;0,02142978;-0,01281127;-0,023300102;-0,030256117;0,007933508;-0,018279046;-0,023628518;0,031926993;0,025123278;-0,012976205;-0,00013300696;0,01980858;-0,0034194922;-0,025854107;0,031032525;-0,024783662;-0,041141197;0,028643895;0,01583684;-0,011964784;-0,031429004;0,043014355;0,02984097;0,010347795;-0,008164487;-0,029388571;0,042558305;0,0060022543;0,043373663;0,017269077;-0,021793973;-0,0024801681;-0,03933147;-0,021527834;-0,037934255;-0,012889867;0,03445379;-0,0019912429;-0,011850403;0,038085733;0,02443456;-0,025170017;0,032174617;-0,041687805;0,04241891;-0,033125505;-0,0050927615;0,011067343;-0,012463362;-0,016593002;-0,022165805;-0,010724712;-0,02520321;-0,031133685;0,011088817;0,037630703;-0,03439207;-0,041793246;0,01151307;-0,014636643;0,023158766;-0,008342159;0,024433693;0,0075226785;0,02275755;-0,023863489;-0,037836894;0,03660969;-0,03631155;-0,009905985;0,03286982;0,025659123;-0,021573246;0,023873111;0,002786461;0,02704145;-0,026407015;0,014654558;0,01024557;0,007695306;0,043712106;0,031281944;-0,031711254;0,009483408;-0,026890336;0,022941235;0,043566227;-0,035096433;0,02844873;-0,0014737847;-0,030446533;0,032871608;-0,043120064;0,015502666;-0,010375095;-0,022452354;0,0075251064;-0,013948377;-0,012308141;0,03128211;-0,028846966;0,035318907;-0,026716676;-0,040534697;0,016393665;0,0049657715;0,04368581;-0,016228467;0,027211165;0,0073439223;0,0028481048;0,016608166;0,032360192;-0,036340874;-0,02502402;-0,010361602;-0,027338764;-0,0018671154;0,0013267621;-0,013986149;0,01890603;-0,04135972;0,034371026;-0,017532915;0,00205434;-0,028110389;0,026412342;0,0050312392;-0,041407;0,020986287;-0,01477042;0,043540407;0,030862771;0,010051792;0,016452637;0,011884063;0,027545452;0,009565086;0,03393147;0,009487892;-0,008544247;-0,014839529;0,027235871;-0,029600061;-0,026822751;0,033987727;-0,011896283;-0,032687925;0,024617717;-0,01946491;0,018666312;0,04090603;-0,019275151;-0,03324829;0,014391088;-0,010498727;0,033429734;0,032305546;0,018323181;-0,039316107;-0,0163448;-0,008269134;0,030630428;-0,02068874;0,035179798;-0,010160927;0,03031771;-0,026109934;0,003879604;-0,015476787;-0,003845158;-0,017084572;0,0015265171;0,004966365;-0,037720542;-0,013531929;-0,01573216;0,036524717;-0,039962266;0,030934049;0,03478565;0,027554832;0,020917425;-0,027605308;-0,008361518;-0,0045039644;0,01741742;0,012882193;-0,038371425;0,039705336;0,0147092985;-0,009552168;-0,0013967076;0,023876006;0,02035835;-0,03201474;-0,036486793;-0,04107244;0,005759805;-0,04142949;-0,018746344;-0,006322986;-0,0061465325;-0,03609445;0,0018823006;-0,007896036
0,0019187103;0,025019348;0,014048243;-0,03734613;-0,027882844;0,040843084;-0,030148331;-7,2364564e-05;0,00249792;0,02942331;0,02993715;-0,037596926;-0,0030275933;0,013124934;0,031808544;-0,006773431;-0,039298017;0,0031288858;-0,013439283;-0,020092806;-0,023173288;-0,03115087;-0,015492629;-0,038205907;0,026857732;0,034800705;-0,03843056;-0,011838925;0,025552254;-0,035447266;0,0405641;-0,0276735;-0,012006281;-0,03322109;-0,024540652;-0,021351619;-0,021128895;-0,0089369435;0,029456561;-0,04278954;-0,009733111;0,04573434;0,021994606;0,03250361;-0,006703932;-0,028179664;0,02108316;0,034997635;0,018641256;-0,032826502;0,032810915;0,029428786;-0,016399635;-0,030169502;-0,029203739;-0,030818027;0,01812437;0,028907418;0,032287583;0,019391017;-0,033591583;0,0021859345;-0,00020212765;0,03237935;-0,042118803;-0,018148553;0,037177496;0,029702663;-0,011042526;-0,007415595;0,007368449;-0,029141845;0,025806015;0,02833356;0,039029602;-0,032152925;-0,028510004;0,04291542;-0,039849173;0,02547234;0,013816242;-0,040460967;-0,0046762777;0,03461153;-0,038960375;-0,033577185;0,038624816;-0,03319645;0,003739568;0,00031560467;-0,04510883;0,051339146;0,03227436;0,0023822451;-0,00659169;-0,021388322;0,0049205567;0,033361822;0,017263994;0,010963605;-0,0030300524;0,027413227;-0,01730835;-0,039871365;-0,03348217;-0,03769132;0,032181524;-0,038399465;0,0272299;0,0049149725;0,04779862;-0,024638733;-0,023970053;0,020386243;-0,036994983;0,02617045;-0,01424775;-0,026112836;0,0033376152;0,016586468;-0,02617351;-0,03769243;-0,041701112;-0,03662864;0,013437337;-0,03842946;0,024497835;0,018631335;0,00080265827;-0,020864138;0,02864943;-0,0040023546;-0,011310616;-0,025704758;0,04272898;-0,035408277;0,03834216;0,03409657;-0,01841106;0,011949151;0,012537026;0,035732467;0,04157083;0,03708997;0,039566055;0,010826759;-0,014372947;-0,018870734;0,0068092765;0,02433274;-0,042962678;-0,04189278;0,00026644103;0,003797204;-0,029591981;-0,0073643005;-0,033456866;-0,0051585995;-0,0052740457;0,03855924;0,031161534;0,029874306;0,0004356391;-0,018793376;-0,033880636;-0,010474314;-0,025825553;0,044071894;-0,002491092;0,008614042;-0,042081464;-0,029900584;-0,0040683197;0,007764345;0,0306089;0,029855167;0,005442001;-0,021436423;0,030950155;0,029735003;0,028820312;0,00885673;0,024478631;0,0050529228;-0,035282645;0,03936917;0,012482639;-0,014390178;0,0024475164;0,04858188;-0,019777935;0,033657134;0,047837798;0,017080648;-0,0029083723;-0,013945434;0,033894964;-0,031881046;0,03342649;-0,03144663;0,010296044;0,04266937;0,033985835;-0,030991739;-0,0347417;-0,019249897;-0,020105444;-0,032361135;0,017209372;0,0049281185;0,039270964;-0,018667778;0,022214692;0,02815009;0,031935953;-0,010197479;0,042196326;-0,008239338;0,035868775;-0,0367221;0,034510344;-0,013840491;0,043932572;0,0015922806;0,0051459195;0,043587673;-0,008145038;0,01185707;-0,0116170915;-0,004782597;0,026165178;0,007982909;-0,011632586;-0,00816032;-0,03421799;-0,039252292;-0,009939433;0,005268517;0,025367163;0,0031788575;0,036190007;0,005017005;0,044087682;-0,0020065971;0,010070335;0,042210195;0,016001645;0,003987239;0,040247217;0,031512395;-0,01819906;0,03873409;0,004798337;-0,021889528;0,040805615;0,034254026;0,030858101;0,04038254;-0,03286845;-0,025663694;0,007943502;-0,026561894;0,018835867;-0,03042263;0,0037342494;-0,01816814;-0,0038970606;-0,016135141;-0,03862974;-0,041781582;0,029462125;0,00080883823;0,0081919925;0,010291;0,02079427;-0,019050676;-0,02204793;-0,01099407;0,048143826;-0,035956725;-0,013824941;0,034549028;-0,035397604;0,017765962;0,03946486;-0,032623302;-0,015011604;-0,0047013583;-0,0021654502;0,036321767;-0,017949656;0,022433938;-0,026272446;-0,010546209;0,034884777;-0,037782405;-0,0076913163;-0,039859317;0,000699699;0,006479073;0,0059904633;-0,027855283;0,00048187588;0,03611293;0,023132322;-0,011019993;0,0032718156;0,008018032;-0,030966515;-0,004260562;0,040215585;0,034448363;-0,00858123;0,040815547;0,044846535;-0,035434615;0,028939152;0,02329038;0,03564104;-0,028520413;-0,02237429;0,008483159;0,038664367;-0,03526246;0,022240905;0,04203151;-0,037424434;0,0391428;0,042969383;-0,014071526;0,038135123;0,03948314;0,03265139;-0,010589607;-0,029144665;-0,028885137;-0,0028239728;-0,024399508;0,012269962;0,011169472;0,027699906;0,014228407;-0,038634356;0,045189068;-0,008012467;-0,022375885;-0,0022263566;-0,0022201447;-0,0375295;0,00011918941;0,023382738;0,02756479;0,020665653;0,01712306;-0,004001074;-0,024585128;0,008640855;-0,009651525;0,0064372863;-0,02694553;0,022916889;0,038441975;0,028204618;-0,013703965;0,03478925;0,0073942738;0,018697059;-0,008132391;-0,019881142;-0,0162081;-0,022610325;0,023061546;0,044018578;0,0014170553;0,029576013;0,03344637;-0,034181245;-0,03362644;-0,032929305;0,0183285;-0,022212042;0,02263253;0,008913289;-0,033367705;-0,011576688;-0,0102263605;-0,00095982035;0,04380887;-0,024527572;0,015679918;-0,01792984;0,04094932;0,011119427;0,009785513;-0,03159979;0,046556693;0,0145067945;-0,033971995;-0,040684626;0,0008543348;0,017543806;-0,0066101165;0,03301657;0,027164944;-0,0036759265;-0,00759026;0,048637245;0,029545192;0,017836878;-0,0066138175;-0,0015768413;0,028952073;0,030685702;-0,0266114;0,002091584;-0,0018463063;0,012940951;0,03853319;0,02486049;-0,04708641;0,04079341;-0,019263826;-0,025191393;0,010577413;-0,02660564;0,029362751;-0,028841954;-0,015546665;0,03652684;0,023941634;-0,03841888;-0,039588377;-0,025240632;-0,0069187344;-0,0008202102;0,04039066;0,030796308;-0,021323321;-0,04490862;0,020282418;-0,027242566;-0,00979251;0,010632633;0,039739773;-0,009391893;-0,02664494;-0,009800976;-0,017353907;-0,0022542363;0,03499005;-0,038737018;-0,010586387;0,0022135465;0,019480214;0,03666432;0,007883003;-0,030855227;0,000655474;-0,04072723;0,024989357;0,009870788;0,0051777186;-0,036811955;-6,0686878e-05;0,039936878;-0,0073675364;-0,0026748113;0,011015702;0,033396233;-0,035127338;0,040112108;-0,011420943;0,0042917007;0,021756914;0,024653964;-0,024290971;-0,034118745;0,024563061;0,0024522399;0,026260333;-0,03268762;-0,030698592;-0,025361728;-0,0022647856;-0,030639915;-0,033861805;-0,031613514;0,021342257;0,002914688;0,044657357;-0,021720877;0,01239429;-0,031417135;-0,0072620586;0,0035072258;0,018893087;-0,0064614126;0,010971319;-0,020342013;-0,021773092;-0,042857233;0,037325;0,02463074;0,03481899;-0,028715355;0,0102056675;-0,02663201;-0,007536234;-0,018271739;0,038499553;-0,03590271;0,0025736892
0,039097786;-0,021344014;-0,03465346;-0,03670448;-0,0039910725;0,036039732;0,0244437;0,030820545;-0,039688;0,004869988;-0,025714658;-0,03543633;-0,010491606;0,013121732;-0,04396745;-0,03958795;0,00934878;-0,017649876;0,035239045;-0,03052321;-0,025667297;0,044972252;-0,0060268575;-0,008538862;-0,02809222;-0,009001155;0,030559927;0,039667398;0,01726829;-0,004023305;-0,019042399;-0,011514046;0,03811513;0,008519489;0,036875717;-0,04514747;0,003093757;0,028812714;0,004281123;-0,01613513;-0,0042932024;-0,022945523;0,0452868;-0,0009988626;0,026051853;0,0038011365;-0,042709846;-0,026044853;0,03831782;-0,035325833;-0,02888628;0,004914069;-0,041494213;0,020263417;0,029152771;0,043306407;-0,034579005;-0,016378075;-0,037322223;0,015472011;0,036481332;-0,0099924775;0,011274397;-0,008775783;0,04308218;-0,0039715;-0,01619797;-0,009236653;0,03958902;-0,027542382;0,030346971;0,031121936;0,04112745;-0,010109426;-0,01928772;0,026356157;-0,024552777;-0,03556315;-0,0011778482;0,029962521;0,01032157;0,008096247;0,0017094627;-0,007622313;0,029195325;0,041618735;0,028423075;-0,020792726;0,030165398;-0,033446252;-0,015813226;0,00011249464;0,028111987;0,003392897;-0,022378854;-0,016743917;-0,04100822;0,043338075;0,030494763;0,042492133;-0,0014776668;0,04116168;-0,008138095;-0,027219297;-0,01443836;0,018767545;0,0144552635;-0,040915757;0,013034919;-0,037148695;0,018281601;0,008984181;0,028481126;0,02858362;0,022772713;0,020967552;0,017135104;-0,0018500204;0,0008158665;0,011584083;-0,0018339582;0,011687525;0,030258277;0,029346865;0,032209963;0,040660735;-0,020467594;0,02861029;-0,028846025;0,03598265;0,017127933;-9,257684e-05;-0,03579673;0,039823435;0,022595266;-0,03711291;0,005036358;-0,03914284;-0,008513014;-0,0107427165;-0,022275832;0,04874572;-0,03224697;0,045039818;0,022549223;-0,033368092;0,050012983;-0,021457063;0,026151134;-0,02028174;-0,035250492;-0,03306563;0,01066888;-0,034921583;0,0073290975;0,03387586;-0,009884369;0,003932526;0,02450935;0,029103834;0,028983852;-0,03897383;0,021457942;-0,008032889;0,034603417;-0,010240735;-0,030620817;-0,014799975;0,0022300887;-0,017764783;-0,018903913;-0,032894596;-0,006352907;0,023900492;0,042021632;0,047146928;-0,003170808;-0,03715729;0,03537291;0,028588407;0,014866701;0,008060352;-0,021272404;-0,043140948;0,0056948815;-0,030364988;0,013682808;0,0052075135;-0,03407935;-0,021853913;-0,01496738;0,033060763;0,022554891;-0,010392932;-0,013530595;-0,02731783;0,028630886;-0,0074308137;0,010157044;0,040315423;-0,015205642;-0,02283675;-0,011879932;-0,040227134;-0,019032829;0,038547322;0,04128959;-0,045040075;-0,032783493;-0,035969287;0,023106173;-0,0119451415;-0,0032933229;-0,024457164;0,024558865;0,018429894;0,026502682;-0,039949242;-0,018270621;0,0325196;0,019634455;-0,035314333;-0,006635528;-0,012571984;0,044856317;-0,042593602;0,04596219;-0,004522206;0,018866686;-0,004862006;-0,025573412;-0,042223927;0,010261119;-0,032989614;0,014742808;-0,0025834485;0,00035513836;-0,03959987;0,02148824;0,010674368;-0,020747054;0,028171511;0,0020008003;-0,044686466;0,01496213;0,008755011;0,011928473;-0,02987709;0,013827171;-0,03679014;-0,04043181;-0,006211674;0,0043388563;0,00039998122;-0,016170159;-0,022066012;0,008028985;0,060183797;0,004755222;-0,035535708;0,03004596;-0,02053104;0,012795838;0,016084393;0,008025984;-0,032477897;0,023551565;-0,03655581;-0,04345351;0,01918;0,03966909;0,04207553;-0,012262718;0,04562052;-0,0014847029;0,0058390154;0,018138345;0,03618014;-0,026798612;0,030117149;-0,041606102;0,019546662;-0,008456728;0,021788534;-0,028155347;2,3427017e-05;-0,029202593;-0,040701758;0,051500786;-0,0002093766;-0,028036583;-0,03670495;0,040302206;0,043609653;-0,0054513062;0,006732201;0,039702266;0,03250692;0,030003477;0,0215857;-0,006349171;-0,038275436;0,033312228;0,012151995;0,0017471792;0,04332766;0,0011317092;-0,026841868;0,004353743;0,013959066;0,011822234;0,030057115;-0,014544311;0,05111071;0,0024680917;-0,009121793;0,0065997657;0,048299268;0,0436587;0,042402003;-0,012930884;0,017362913;0,055085115;0,018919853;0,0070153084;-0,041650336;0,02582481;0,040953267;-0,03258456;-0,025674706;-0,03725269;-0,02505273;-0,00088320574;-0,030431071;-0,011588017;-0,035533383;0,024568636;-0,01740586;-0,0137160905;0,0058389767;-0,02454681;0,018036846;-0,0023984683;0,01172158;0,02479624;0,016741103;0,002923841;0,042600542;0,035786357;0,03534024;0,034449026;-0,0057122773;-0,010077841;0,020920249;0,027230803;0,039736304;-0,041560046;0,01828515;-0,021794917;0,023507481;0,00057653664;-0,036883384;-0,0073864167;0,035814717;0,034723774;-0,00614729;-0,0053834734;0,014158512;0,0012359881;-0,03685954;0,015403252;0,005983723;-0,011419822;-0,030194374;0,014771552;-0,0026016126;0,019032482;0,017039428;-0,03556186;-0,00043580768;0,05265867;-0,046101633;0,015120655;0,0102549875;-0,027237186;-0,0023549227;-0,02283656;0,019895189;0,0061372626;-0,02994906;0,029399764;0,024566248;0,011170653;0,04010584;0,038400576;0,030548662;0,041157596;-0,024119716;-0,032617737;-0,02208395;-0,035925627;0,0025908798;-0,0153333135;0,028973388;-0,01150503;0,029436717;-0,016197082;-0,041531846;0,031309668;-0,04849806;-0,031530283;-0,026386712;-0,028238002;0,013078288;-0,02768986;-0,023246128;0,01816093;0,033524185;-0,025809538;0,033963013;0,027886627;0,040994216;0,039752666;0,0315726;-0,041233275;-0,029386701;-0,025117457;0,027843347;0,013503584;0,04036836;-0,0044487882;0,015779875;-0,037007928;-0,03328844;0,019401252;0,025106607;-0,010374003;-0,017283974;0,01925531;0,008473731;0,010256029;0,042492274;-0,026918858;0,03714038;0,028993618;0,03395872;0,04116844;-0,030853895;0,016441401;-0,010361868;-0,0011582269;-0,036469925;-0,027029019;-0,006166914;0,019681638;0,014922682;0,0242945;-0,0014769131;0,0027373098;0,013335844;0,011778062;-0,026240006;-0,0078125065;-0,010712425;-0,018129671;0,024409436;-0,019951914;0,022042131;-0,014841244;-0,030073734;0,030112945;0,006730177;0,016677499;-0,017371716;0,03419028;0,027402872;-0,04405323;-0,0091341045;0,014492244;-0,016956134;0,02872076;-0,017879128;0,030557554;-0,02287627;-0,021000303;0,026437683;0,037219923;0,015939837;0,046255324;-0,020664588;-0,02780001;0,0209788;0,026304187;0,023007846;-0,051610816;0,00041233565;-0,009467385;0,01550713;-0,014471142;-0,026051052;0,015372515;0,011429145;0,006779956;0,016607698;0,038877875;-0,01569833;0,02617898;-0,02755988;-0,014488878;0,019689549;0,03523039;0,034673594
0,0048988597;-0,031476576;0,035478067;-0,0070402576;-0,011281588;0,027937992;0,008060256;-0,035971187;0,017490363;0,03754991;0,016816832;-0,013101418;0,022301715;0,0143251065;-0,025288936;-0,016460579;-0,012816491;-0,016388956;0,009004954;0,018165607;0,023830904;-0,0030364466;-0,0115022445;-0,024868086;0,027447753;-0,008051758;-0,03320116;-0,029731773;0,026955642;0,028573219;-0,0038897095;-0,020848343;0,03635197;-0,03416812;-0,03697577;0,03605587;0,04616984;0,012767053;0,0026185014;-0,012691411;0,048513982;-0,025727633;0,009252995;-0,033843208;-0,027170753;0,0049573975;0,019561151;-0,0031952665;0,03151213;0,0193518;-0,015068504;0,037630577;-0,024783337;-0,009257852;-0,037252728;-0,0086573465;-0,030452374;-0,012544468;-0,009716296;-0,003128207;0,03486469;-0,018714754;-0,020629453;-0,027782654;0,02904376;0,033760827;0,02517491;-0,0033159638;0,0013837074;-0,033563305;0,013319891;0,023366481;-0,003039426;0,024471892;-0,0023037535;-0,04705823;-0,04408297;-0,0124745;0,001021186;-0,0080639515;-0,0031935591;0,009934448;-0,042129323;-0,0066001057;0,028671063;0,009819702;-0,0138894105;-0,010040888;-0,028328106;0,030939845;0,021307003;-0,031559177;-0,04314171;-0,016787289;-0,0034302538;-0,034686014;-0,033649486;-0,016050769;-0,021704162;0,019164693;-0,032503348;0,0055779596;-0,024250226;-0,025533171;0,030570647;-0,013448234;-0,013946215;-0,032723315;0,009126968;-0,022881886;-0,028234448;0,01614037;-0,03744275;0,03682347;-0,02748993;0,0029589059;0,043710392;0,016066514;-0,009428333;0,021172093;-0,004407196;-0,031925865;-0,016340207;-0,036415383;0,039879862;0,045180604;0,039952464;-0,011643892;0,01973854;-0,0058341306;-0,03589662;0,018094784;0,00834291;-0,012937948;-0,025684843;-0,024517227;-0,035946958;-0,006072202;-0,03808255;-0,024980338;0,031300273;0,019537488;0,0023925763;-0,012409191;-0,028657427;-0,030600216;0,015539949;-0,021869803;0,0140022915;0,036837798;-0,042840634;0,005418095;0,037379075;-0,014773329;0,042398836;-0,0066407598;0,037514936;-0,026460601;0,031828813;0,05142199;0,033535536;-0,013984129;-0,038947638;0,013416862;-0,029404264;0,019757632;0,02388314;0,0021406843;0,009955827;0,006880728;0,012189303;-0,03537607;-0,028454358;0,032558303;0,013070173;0,02626093;0,0339182;-0,010031821;-0,026583968;-0,005465379;0,013125153;0,020960575;-0,02578987;0,048670936;-0,03755049;0,0068984916;0,00571746;0,0308189;-0,04437143;-0,0075111995;0,030170236;0,00021757114;0,038421977;0,029501483;0,018384216;-0,012664363;-0,024949258;-0,039930563;0,037415523;0,034242872;-0,017625192;0,023148714;-0,034488942;-0,011856221;0,03543984;0,011030897;0,03969506;-0,023185117;0,03318632;-0,0023119138;0,025239658;0,04060448;0,045132913;-0,009336289;-0,0077295024;0,013984447;0,043021023;-0,0064606676;0,027542425;0,009160293;0,045878645;-0,028969733;0,03405354;-0,037056074;0,013545619;-0,034350105;-0,025832716;-0,024797332;-0,016920045;-0,008054514;0,009097665;0,03939296;0,016273014;-0,034410823;-0,030418247;0,029737048;0,014111314;0,042687047;0,00018473968;-0,040139977;0,029747466;0,04362312;-0,004725019;-0,024122553;0,038266387;0,012122295;-0,022167495;-0,0072961394;-0,010012889;0,044790227;0,004795553;0,032467514;-0,03918173;-0,0045355973;0,032106668;0,01577735;-0,0019653174;-0,016515536;-0,041595977;-0,03560228;-0,0049209297;0,01853386;0,016856536;0,018312205;0,0052598887;-0,03575106;-0,01627744;0,01603739;-0,027206855;-0,03251591;0,009309464;-0,009659183;0,01217988;0,0032611408;0,013257333;-0,0070380904;0,03337665;-0,035083264;-0,026675204;-0,008201202;0,018586121;0,027381191;0,03858339;-0,011203328;-0,032964837;-0,03649525;0,0048462814;0,017362634;-0,036295768;-0,018604117;-0,021573605;-0,01808816;0,019025967;-0,022469018;-0,043707512;-0,026076857;-0,017429177;0,0035023317;0,034061614;-0,008294742;-0,04252906;-0,030940313;0,04564826;-0,026874028;-0,04449541;0,03823614;0,020361172;-0,020894783;-0,02077656;0,018592803;0,041266184;0,036838546;-0,037793152;0,0047856187;0,030560192;-0,032904375;-0,029580384;0,006000849;-0,011760203;0,037416376;0,048219696;-0,0027373296;0,007868232;-0,0023588631;0,042242292;-0,039013818;-0,0285191;0,038526583;0,036759622;0,03839696;0,0046095243;-0,04360193;0,03308605;-0,009138761;-0,027484367;-0,036168046;-0,014402822;0,041505404;0,04406542;-0,032477003;0,029056525;0,0065008877;0,03636243;0,021331897;-0,0034905274;0,0404951;-0,03509668;0,02372055;-0,026880462;0,024911372;-0,019892575;-0,03930161;0,038118124;-0,011825109;0,014940093;0,012626642;-0,0021881456;-0,017487269;0,031095203;-0,011601477;-0,032809265;-0,025453344;0,010663892;0,026498469;-0,007198199;-0,008307296;-0,0039004346;-0,02309688;-0,034215644;-0,020182997;-0,047760572;-0,035406467;0,044233527;0,030760331;-0,0062199547;0,01299736;-0,015530997;-0,022936024;0,02753221;0,02857521;0,032720484;-0,020681595;0,030339645;0,032635096;0,03523006;-0,019876417;0,027966142;-0,013168983;-0,023127016;0,012587792;0,0025294747;0,042729624;0,008292824;-0,039278075;0,03807245;0,038234185;-0,033002507;-0,028261311;0,04501273;-0,0011181643;0,016570762;0,04631778;0,03768319;-0,004659594;-0,027274305;-0,004601664;-0,009624147;-0,022631524;-0,0010457562;-0,014880489;-0,03967111;-0,037419017;0,051637497;0,025493706;-0,022965496;-0,01718517;-0,041134916;0,014549192;-0,034792054;0,013286869;-0,045613907;-0,039700672;0,026652807;-0,04291685;0,005602216;-0,0038750195;-0,0391393;-0,036725197;0,033344347;0,028315539;0,037409674;-0,000744132;-0,015580343;0,016067218;-0,0037855098;-0,017488126;-0,030989442;0,0022381549;-0,04290832;-0,022191973;-0,0033917038;-0,004611257;-0,0027588706;0,026746573;-0,010983424;0,038823016;0,004102952;0,016697902;-0,0025734536;0,038895816;-0,017248662;0,032068953;-0,00013031127;-0,008981827;-0,042108085;0,04121378;0,040178783;-0,026000598;0,0017481968;0,002383726;0,03325141;0,008769933;-0,015039326;0,0008551137;-0,012010404;0,0242332;-0,018458672;0,033259716;-0,01598962;-0,013702529;0,0061176224;-0,00026993657;0,016203143;-0,04142227;-0,022196641;-0,021415276;-0,029879913;-0,030003771;-0,026167113;0,03933673;-0,01757191;0,017644322;-0,03937432;0,0049819523;0,023850664;-0,03625995;-0,017181301;0,022305349;0,03480205;-0,04317534;-0,018136721;-0,02459177;-0,033465832;-0,011875011;-0,03416127;0,0021419642;-0,00936649;-0,03807014;-0,0010502586;0,022668889;-0,022403646;0,024943959;-0,042649515;-0,030517638;-0,0101427995;-0,013562514;-0,0012361893;-0,026230058;0,0028797395;0,028064586;-0,017786242;0,0064045466
-0,05449392;0,019429527;0,00022846814;0,01487388;-0,042467117;0,0008809784;0,04221519;-0,017999116;0,031026058;0,029502511;0,0420705;0,049224794;0,028088758;-0,016235974;-0,034839083;0,054589454;-0,015719244;0,048132226;-0,018608704;0,038356546;-0,0030616648;-0,00922285;0,012446202;-0,005700772;0,053271983;-0,011411532;-0,038692;0,03658401;-0,0144030815;0,007258754;0,032912392;0,019890592;0,030853018;0,018672919;0,020001581;0,027428664;0,022612987;-0,0022695938;-0,009747811;0,028293919;0,024206161;0,015223079;-0,0021322062;0,038865317;0,04579491;0,030742524;-0,009391504;0,02197225;0,006723522;0,046034597;-0,030652815;-0,017306376;0,04675222;-0,03922315;-0,009219293;-0,03370881;0,011601501;0,043681163;0,006486621;0,040512484;0,011760801;-0,008245878;0,02901183;-0,0024631515;-0,022447225;0,0069765705;0,029334387;0,037877563;0,028065313;-0,0065650893;0,007620594;0,014643813;0,019199744;-0,016800655;-0,0088236295;-0,00044023574;0,0077333967;0,0351463;-0,035302024;0,030055858;0,0117321545;0,025680982;0,009716696;-0,005599944;-0,027642425;0,04215156;-0,008155132;-0,022379987;0,016454885;0,012196428;0,05084392;0,03564683;0,02842516;-0,005581615;0,03234137;-0,018931935;-0,039939865;-0,010554417;-0,026296582;-0,016790789;-0,036643237;0,032633446;0,0010901414;-0,00604832;0,01672652;0,044658728;-0,026335532;0,029973561;0,008754834;0,003520847;-0,022264544;-0,009289417;-0,030623468;-0,001624367;0,03378692;-0,013820796;-0,027259994;0,028548842;-0,04035002;0,022534234;-0,03497262;0,030635858;-0,003457783;0,0051302463;0,039742257;-0,025782576;-0,03609862;-0,01910246;0,005614617;0,031032123;0,0035407427;0,0036565827;0,031447764;0,0076597645;-0,021584418;-0,016434997;-0,02917522;0,048782285;-0,02986035;-0,0013171152;0,014845327;-0,04970257;0,022215165;0,00290551;-0,0069941343;-0,0043309;-0,046699803;0,020922258;0,00066524534;0,031740963;-0,019975165;-0,032983057;-0,013428362;0,035160087;-0,018688919;0,05016072;0,046194173;0,02499965;-0,03924852;0,0059446194;0,023065805;-0,028036768;-0,03980302;0,035395883;-0,013088821;-0,031234521;-0,0054487945;0,010591293;0,024993308;-0,0193007;-0,0024556462;-0,005189478;-0,024481146;0,035794254;-0,00040034467;-0,010950366;-0,028686084;-0,03930752;0,018761897;0,009215122;-0,0047292886;-0,044177014;-0,0257186;0,0066689835;0,03543746;0,024129082;0,018865712;-0,0024158456;0,011409533;0,037033685;-0,003365225;0,029316073;-0,027324455;-0,04155286;-0,027585024;0,04605983;0,0016921107;0,029692493;-0,042200193;0,029333392;-0,0044656335;0,014494241;0,03926892;0,01853302;-0,03583508;-0,013593537;0,00095448195;-0,030450707;0,0145757785;0,02286177;-0,043574832;0,032140538;-0,00051429006;0,02788842;-0,012980855;0,0052352534;-0,030838378;-0,022328388;-0,03238707;-0,035659038;0,037075516;-0,025023626;0,0133189;0,028684705;-0,03141485;-0,016122814;0,023772113;0,017967843;-0,014348505;0,018936511;-0,033524584;-0,031375892;0,046672247;-0,035221733;0,008226392;0,0229755;0,00017094235;-0,023908893;-0,024587741;0,009913981;-0,03625688;0,008221142;-0,03497785;0,020837178;-0,008599038;0,0036948766;-0,03384404;0,04057906;-0,01689388;-0,029603086;-0,036274176;0,0066510187;0,011719692;-0,033558212;-0,012919074;-0,03224266;-0,013260019;0,0015652273;-0,0336732;0,037647326;-0,028416052;-0,012924382;0,017195642;0,03274717;-0,009370484;0,019915504;-0,030133918;0,034486737;0,042445175;-0,020742035;0,0043875803;-0,02341714;-0,028622853;0,0017312393;-0,03625594;0,03052266;0,0039792256;0,0029693348;-0,024569977;0,02431059;-0,03861905;-0,024958806;0,020932727;-0,036961414;-0,03588286;-0,018216511;0,050431423;0,018738022;-0,040308084;0,03900499;-0,0063069914;0,006752912;0,0034533436;-0,0132712275;0,05278433;0,0011597732;-0,046505895;-0,017938454;0,036057074;-0,043193024;0,015009609;0,003984547;0,04526362;0,007556514;0,016472412;-0,0012976319;0,02773718;0,012602324;0,03619496;-0,0069510015;0,029243559;0,028731056;-0,037513364;-0,02549518;-0,017102955;0,048471756;0,008711929;0,039681766;-0,038597707;0,008719771;0,015959183;0,0055879913;0,030337619;0,03644669;0,022629902;0,04304491;0,031114893;0,015098811;-0,016899459;0,024431173;-0,042381052;-0,019009674;-0,0024837337;0,028905902;-0,04684709;0,041267086;-0,03159429;-0,010904526;-0,024130106;-0,035390504;-0,024959046;-0,022236321;0,004153573;-0,012095012;0,0053583425;-0,02788007;0,034948017;-0,044471912;0,044073;0,013308529;-0,030280847;-0,022240693;-0,0100115575;0,03275833;0,0100521;0,021160584;0,03820771;0,011097538;0,026577292;0,022279434;-0,035741713;0,04234597;0,028566716;0,009873912;-0,024637742;0,038246736;0,04108683;0,007619714;0,0015695019;-0,018747138;0,014682809;0,00544789;0,017735736;0,004941255;-0,022477202;0,014577013;0,0015645962;0,0382543;0,019337606;0,016162872;-0,02907559;0,020640485;-0,024350734;-0,04583699;-0,023660652;0,04132992;0,01730497;-0,036316548;-6,2081686e-05;-0,0453221;0,0007418837;-0,018632539;0,0190894;0,010789386;0,0038707457;-0,044719744;-0,03856606;-0,024443306;0,0031145753;0,026254164;0,031754684;0,042236716;0,004006142;0,042979144;0,041564513;0,036279995;0,0060750893;0,025031256;0,042223748;-0,0009563363;0,0023996003;-0,032674447;-0,049451463;0,0056364853;-0,033547528;0,030421142;9,300936e-05;0,01958529;-0,020217577;0,065774485;0,008664792;0,014423657;-0,034989126;0,051584903;0,033940982;-0,038979772;-0,008595485;0,02269529;0,00025889825;0,008094654;-0,042157985;0,014963978;0,04141818;0,011976525;-0,014046053;0,03081082;0,02987887;0,001356567;0,036438227;0,03127199;0,041854978;-0,03534372;0,04737522;0,0017453941;-0,033695683;0,02966377;-0,0060795425;-0,02014959;0,061302084;-0,009084973;-0,008671517;0,04097232;0,006633784;0,040360592;0,024112822;-0,011649061;-0,042524334;-0,04138519;-0,00659476;-0,04074167;0,041817747;-0,029088372;-0,0019862878;0,0025564202;-0,024694702;0,029930497;0,020839509;-0,0041946005;0,011417988;-0,010925655;0,042073168;0,0062237103;0,015023333;-0,03385843;0,008983602;0,041916452;0,03403031;0,0024371073;-0,017690623;0,042213824;0,027621191;0,024656631;-0,019906739;-0,04175464;-0,0037918694;-0,012758752;-0,030941213;0,013712241;-0,031320993;0,000700825;-0,03708932;-0,006214035;-0,017935239;0,012956914;0,029337708;-0,031942613;0,029455792;-0,038992193;0,057332966;-0,0250127;0,009014603;-0,025705578;0,030005092;0,047627337;-0,037838377;-0,0044693025;-0,008422641;-0,041579407;-0,019291652;-0,014136459;-0,012768111;-0,019175649
0,037062924;0,028601632;-0,033386722;0,026483798;-0,0035030441;-0,030241964;0,021906406;-0,034674704;0,046993073;0,012905654;-0,0027384043;-0,042140596;0,03956484;0,04649567;-0,038369894;-0,0102007445;-0,018114744;0,02298384;-0,022143468;0,04374393;0,047569443;-0,0321874;-0,018302444;0,04601334;-0,024041172;-0,013319902;-0,0028149274;0,04229013;0,032034446;0,019050999;0,013308681;0,013298927;0,009119484;-0,0027152388;-0,01476257;-0,025244039;-0,0029849473;0,032197706;-0,018253773;0,009396812;-0,040196907;-0,032921243;0,0058058286;0,0038012909;0,046158865;0,042718798;-0,03029045;0,012528974;-0,022953223;-0,02691292;0,031775538;-0,014127268;0,021382838;-0,006430547;-0,017194195;0,04242495;0,04400381;-0,011130903;0,03644963;-0,039355546;0,007430227;-0,034152456;-0,00018673793;0,027531007;0,0013182808;-0,0029718676;0,024543807;0,027181748;-0,017149555;0,019001529;0,018659826;-0,001749733;0,0426955;-0,02430305;-0,033481535;-0,0005721729;-0,042984836;-0,018239498;0,014060986;-0,014851027;0,01893609;0,042723533;-0,019042017;0,009835706;-0,04549329;0,0068082316;0,017916782;0,009732749;-0,044186354;-0,015344504;-0,021811526;-0,0055906847;0,036764268;-0,016592758;-0,034911722;0,00023614518;0,030701125;-0,031414192;0,027149573;-0,006388124;0,025457505;0,030780295;0,03614086;0,02436941;-0,0052025877;-0,0034734148;0,02313956;-0,021777991;-0,02232935;0,016873097;0,024033675;0,004678548;0,011144537;-0,004238932;-0,008605872;-0,0036126776;-0,00043729195;0,012347124;0,037685476;-0,010508968;0,034253675;0,03656151;-0,018132197;-0,017369423;0,012646344;-0,03282441;-0,044735216;-0,00019694066;0,03165801;-0,0018326469;-0,0036642205;0,045617063;-0,0058355248;0,009708347;-0,041445382;-0,043270074;-0,002258435;0,013734659;0,019196788;0,037694845;-0,011811436;-0,012901256;-0,035851236;0,04386179;0,0066137156;-0,021598702;0,02926393;-0,014425784;-0,02159232;0,04418199;0,024066037;0,030845296;0,03156956;0,012723532;-0,0047222856;0,030378686;0,01842849;0,01133032;0,014811153;-0,041707046;0,025099207;0,023303717;-0,022918513;0,03531237;-0,0013518329;-0,011765752;0,01593668;-0,03930762;-0,036736324;-0,032818776;0,04102388;-0,018594546;0,013750964;-0,00039921197;-0,034386043;-0,028737256;-0,0097916;-0,014583282;-0,0019478195;0,028002389;-0,0020152258;0,002024497;0,007198426;-0,00862611;0,029426016;-0,0054996754;-0,006199075;0,04684876;-0,0061932104;-0,004754511;0,0255462;-0,0095000295;-0,00923939;-0,027200442;-0,009070277;0,016942654;-0,03236119;-0,034407645;-0,021139462;-0,0035379757;-0,025251126;0,034108978;-0,02707697;-0,011074101;-0,017897569;-0,00726905;-0,010485352;0,032132745;0,03966757;0,04018429;0,0051737786;0,020540299;-0,043207873;0,031161621;-0,012392756;0,014610962;0,029695997;0,036726493;-0,024827313;-0,03005818;0,030426048;-0,00769846;0,0044718394;-0,025233736;-0,02795402;0,04096487;-0,012905194;0,012882316;-0,025106717;0,0096984785;-0,0069374028;-0,0085962;-0,030644657;-0,027115088;0,01988832;0,01627419;-0,0022565897;0,01322779;0,017124925;0,032715306;0,011582486;-0,017120665;0,0036486115;0,029243944;0,009117292;0,0004011886;0,014794516;0,023545405;0,0075821807;-0,0034511334;0,03437651;0,036911443;0,034901526;-0,037247147;0,03878532;0,03216928;-0,039337963;-0,034217324;0,039560076;0,024704337;-0,027002823;-0,027372863;0,0001063912;-0,033682723;0,03155006;-0,023052072;0,03178363;-0,01984929;-0,03424506;0,030654838;-0,01541593;0,029301988;0,010254095;-0,00081592216;-0,011236903;0,0049821935;0,017970989;0,019093867;-0,035758264;0,020593384;0,026873564;0,022786744;-0,03879035;0,023993883;0,012386666;-0,021198759;-0,013349661;-0,0231016;0,03633918;0,018202819;-0,0012322009;0,03797209;0,023969747;0,0036935091;-0,022102032;0,022131382;0,002935325;-0,0033440702;0,026684674;-0,04114951;0,035440385;-0,028602116;-0,02020796;0,0009616493;0,022271419;0,002629367;-0,038228467;-0,0028711737;0,019819727;-0,028986251;0,037672825;0,005248745;-0,00535948;0,014899871;-0,0069191307;0,008376239;0,04290909;-0,017132733;-0,012179643;-0,023905566;0,016123606;-0,0292873;0,00671171;0,029009862;0,0034599835;-0,026357567;-0,008456688;-0,029553428;-0,00046547866;0,010470991;0,03022885;0,014965964;0,024326487;0,04242928;-0,017921323;-0,027509395;-0,038738973;0,032883666;0,037680652;0,007167226;-0,02690917;0,034583047;-0,03151183;-0,004430109;0,0017084313;0,034255397;0,022982376;0,02330741;-0,019790944;0,003730121;-0,043170605;0,025160117;-0,0021975888;-0,031304844;-0,031912744;-0,025477514;-0,0285801;-0,04154221;0,014162012;0,021904474;0,026674813;0,0045692977;-0,03037597;-0,038377494;-0,04354673;0,03436118;0,0010994296;-0,0016198783;-0,02042391;0,008289984;0,017440597;0,009417011;0,0384253;0,0029381097;-0,0038296576;0,030823277;0,011446695;-0,02482872;0,005611711;-0,047244266;0,027819518;-0,011055748;-0,010083633;-0,03055487;0,01972677;0,012139091;0,030028226;0,007109325;-0,00059684133;-0,031423345;-0,040482074;0,02920648;0,0108486395;-0,017828401;0,020226682;-0,0005678482;-0,020741995;0,042520743;0,03042097;-0,024004588;-0,032843992;-0,035162225;-0,0029760706;0,019026395;0,0063025546;-0,009798004;0,039146047;-0,023551734;0,01710799;-0,00422342;-0,021324832;0,006954083;0,023925537;0,037656527;0,028581208;-0,0038023281;0,03077489;-0,010959787;0,014254392;0,013705773;0,034746032;-0,0019500911;-0,031770576;-0,040532846;-0,020026777;0,039682113;0,044053294;0,0233971;-0,030975083;0,005936389;-0,029532082;0,009241871;-0,04208005;-0,00010649754;-0,033067163;0,031696018;0,021152185;-0,049712095;0,04036829;-0,0029440813;-0,031409904;-0,0060737277;-0,020630855;0,027278962;-0,046175558;0,014332332;-0,0053707394;-0,0017575672;0,014351805;-0,037745044;-0,021472083;-0,00014425963;-0,04703579;0,047796812;-0,035448495;0,0129434215;-0,008426963;0,0017253364;-0,023573244;-0,007562692;0,0051210397;0,027014641;0,001752937;-0,016341478;-0,015496808;0,0075299595;-0,0031736044;0,037874773;0,0385884;0,014678605;-0,039004005;-0,028258892;0,019565366;0,040751874;-0,011953898;0,037578702;-0,023141276;0,016006753;-0,031061267;-0,0144727165;0,02052266;0,041026365;0,013251875;0,03448428;0,0068752263;-0,03512243;0,003256572;-0,03651945;0,028878918;0,04528289;-0,0065631205;0,03694433;0,02643963;-0,020311987;-0,002529684;-0,021954067;0,034618743;-0,038068604;-0,027147008;0,027594551;0,027558692;0,046266556;-0,028858952;-0,0012787012;0,035024073;-0,029670894;0,0023241858;0,008604078;-0,004203019;0,0076152394;-0,023360671;0,046369348
0,039991856;-0,022620244;-0,027227143;-0,027086258;-0,022483792;0,009023297;-0,012232656;0,0026668713;0,031917524;-0,007038154;-0,021480633;0,026577326;0,034051403;0,0027987703;0,044709917;0,017531497;-0,039372187;-0,032899454;-0,0100748865;0,023127204;0,014916948;-0,0036144457;-0,008264321;-0,0039960463;0,010205096;-0,02466554;0,026834821;0,026528908;0,030031208;-0,005340838;0,025908913;0,018339006;0,02411024;-0,0043197516;0,017075276;0,032126337;-0,0364149;0,0030480344;0,020627668;-0,0034898245;0,019984199;-0,03753683;0,0110212155;-0,022137128;0,02327598;0,0020422488;-0,038483787;-0,018362144;0,03780319;0,027507674;-0,027811054;0,017886007;0,022592312;-0,03587717;-0,024602963;0,04178641;-0,035781667;-0,0075975056;0,021681715;-0,014692216;0,023173133;0,029026411;0,04176135;-0,018767739;-0,025409095;0,012668267;0,04730068;0,011741959;-0,023123058;0,016557107;-0,035887655;-0,025179451;-0,015540707;-0,018293515;0,039209865;-0,039936915;-0,029974217;-0,026758907;-0,0077826874;-0,01924233;0,01189759;0,042843338;-0,012194038;-0,010452211;0,023433907;-0,025953637;0,038054846;-0,013961921;-0,034890372;-0,042939123;-0,03546748;0,03577758;-0,0019473763;-0,0355592;-0,008795364;0,029110383;-0,041050978;-0,011626348;0,00010405339;0,012368062;0,012250997;0,018535782;-0,0041129207;-0,03103992;-0,02437516;-0,043531433;-0,04668464;-0,010930102;-0,037532903;0,022899171;-0,020831443;-0,016239528;0,03898958;-0,0067110863;0,023131281;-0,011568426;0,020984171;0,003371929;-0,03839485;0,03328613;0,017375983;-0,038725533;0,01780324;-0,026789794;0,02032115;-0,01100703;-0,00895642;-0,027773973;0,029724358;-0,010033953;-0,016953783;-0,033188675;0,03739113;0,014433691;0,040899582;-0,042672157;0,031890366;-0,04330907;0,0055920873;0,018839497;0,03521489;0,026865846;0,029214643;-0,0025855722;0,028528735;-0,021766396;0,020139957;0,010704752;-0,03964336;0,003968178;-0,0003912184;-0,04045648;0,026412295;-0,042880688;-0,017954912;0,01498545;0,0051136566;0,00262082;0,008948838;-0,03672703;0,017282058;-0,02368368;-0,023781534;0,01941811;-0,03585002;-0,03514669;0,0107242605;0,04163794;-0,032404047;0,04322939;-0,0018071661;0,017422594;-0,001835805;-0,031295884;0,042839658;0,040221326;-0,036430165;-0,024406195;0,020075614;-0,042777713;0,03450235;0,022203535;-0,017350389;0,0006938617;-0,017518507;0,0090327775;-0,023084128;-0,014948748;-0,035264514;-0,023725167;0,01191041;0,029103708;-0,035212044;0,02855267;-0,020292616;0,015840223;0,004843561;-0,01116957;-0,022221647;-0,008451778;0,028018847;0,022029942;-0,029389748;-0,008877337;-0,0026748504;0,009996837;0,024892773;0,018983297;0,042084333;-0,025215432;0,002721555;0,01918616;-0,042034674;0,040818233;0,02221144;0,025233194;-0,032475762;-0,030106433;0,0014271265;0,0024628516;-0,018011194;0,022641117;-0,027079245;0,011578437;-0,016147751;-0,01713053;0,042447202;0,02074946;-0,04029605;0,01462043;0,010019319;-0,0085535245;-0,016131015;-0,0063016703;0,036596842;0,011461086;0,030534804;-0,009447886;-0,0030012333;0,041463833;-0,025703164;0,046220012;-0,04259605;-0,001924469;0,0049480903;-0,015190197;0,014971874;0,006495198;0,009692099;0,024838222;0,002846372;0,004300534;0,036798175;0,043629453;0,017295536;0,030569775;0,045811765;-0,043548096;0,023152865;-0,009564397;0,03143514;0,037124522;0,016921025;-0,021102075;-0,03446742;-0,04129331;0,0123496335;0,043183856;-0,03231961;-0,042586375;-0,003459745;-0,004202395;0,003396023;-0,008260668;0,018793644;0,016319484;-0,014404003;-0,020059418;0,04234926;0,036400836;0,031974386;-0,009147789;0,029575668;-0,018418584;-0,0065759365;-0,02289752;0,035029534;-0,014474227;0,0121267;-0,03702773;0,023210987;0,0032030393;-0,004122176;-0,019947369;0,000915566;-0,036613066;0,030830704;0,028212277;0,03857487;-0,030656917;0,0020574254;-0,041954562;-0,0048515825;0,01869549;-0,04001519;-0,021838337;-0,0020102025;0,03831784;0,008218218;-0,0038602694;0,020491812;0,019276138;-0,021935206;0,002203521;0,008220819;-0,02150667;-0,024224319;-0,034421805;0,027216926;0,027673412;-0,03442419;0,042199552;0,002719086;-0,007531123;0,025727076;-0,041065168;0,042084664;-0,005541064;-0,009438217;0,03575492;0,01277487;-0,0050449446;0,02025973;-0,037747376;0,027508233;0,04070873;-0,021144694;0,028440384;0,0042345775;-0,020220645;-0,022696912;0,0015091426;0,011496462;-0,020629136;0,041212134;0,043829367;0,045285538;0,020629525;0,03889724;-0,009984246;-0,0014077656;0,02654342;-0,022667998;-0,01865318;-0,017372148;0,01564521;-0,018745318;-0,022710565;-0,0073718783;-0,03645055;-0,011781348;-0,00103338;-0,036124345;0,036123414;-0,033338968;-0,0022477182;-0,0080672745;0,032521307;-0,039546687;0,020338949;-0,040559564;0,03543646;0,012352065;-0,012956541;-0,03699165;-0,020712094;0,010147426;-0,021228196;0,0443782;0,009730973;0,018665893;0,044581488;0,0044814455;-0,026443984;0,02023561;0,017329745;0,042199444;-0,004123036;-0,0076899473;0,014456705;-0,025410773;-0,033113316;-0,043788187;0,0032315585;-0,011432679;-1,995636e-05;0,04070392;-0,02554121;-0,0012180767;-0,033796415;-0,038646806;-0,034202334;-0,011236509;-0,04146648;0,007459771;-0,020061444;0,03579919;0,026408533;-0,0003255251;0,0010495658;-0,03637792;-0,024039706;0,021061288;-0,010938399;-0,027719794;-0,015125987;-0,023875741;-0,032123957;0,03176314;0,03287474;-0,01618533;0,024674125;-0,037398636;0,033123497;0,0066049127;0,004587954;0,01482492;-0,0011212656;-0,0056364923;-0,01889102;-0,02172372;0,04387409;-0,0264472;0,027574562;0,016299482;0,037541922;0,0041714967;-0,016093707;-0,024915861;0,0039535975;0,04070014;0,03938366;0,043942392;-0,00057552906;-0,0057622506;-0,014541887;-0,040799532;0,02271149;-0,018914761;0,03810919;0,032436073;-0,024141153;-0,0408769;0,038290985;0,015020609;0,019920742;0,013665894;-0,007319205;0,0019198343;-0,033767562;0,041673522;-0,00063430506;-0,025774913;0,017069519;-0,0029339038;0,0036529733;-0,01965773;-0,024507668;-0,013930801;-0,014485163;-0,012574568;0,014347175;0,039981555;-0,04058452;-0,032259747;0,036517024;-0,02283073;0,0024885153;0,012996591;0,00077926717;0,013655832;0,03169514;-0,028338445;-0,0014681394;0,0005441403;-0,031471167;-0,001552926;-0,04377861;-0,014677755;0,01724692;0,0221505;-0,04354107;-0,02408378;0,005634081;-0,02245226;-0,002212449;-0,028606044;0,021501958;0,0373172;0,01904843;0,02205947;0,021884996;-0,009965638;0,001222596;-0,027799493;-0,018779548;-0,023994384;0,032523014;0,0077111223;0,029250659;-0,039505087;0,0010476727
-0,02397702;0,04229051;0,00205116;0,035495598;0,02981186;0,027000554;-0,034431826;-0,017325701;-0,006459427;-0,038768288;0,040171918;-0,016679773;0,0028737744;-0,0089129815;0,023411935;-0,042476255;-0,011644572;-0,0030644815;7,3493866e-05;0,030837994;0,0083119925;0,01956769;-0,029198177;-0,035177715;0,016987206;-0,043732755;0,034267664;-0,017331678;-0,03365955;-0,012200924;0,026590621;-0,00054782094;-0,032772027;-0,032978244;0,026141591;0,03249141;0,0046643354;-0,013210177;-0,03839439;-0,040727183;0,028019072;-0,0197108;0,021898858;0,03613481;-0,009636456;0,015099932;0,023292348;0,02194109;0,024844823;0,01712177;-0,011364947;0,03587627;0,01828294;-0,02820227;0,01743504;0,029332096;-0,0062563224;-0,04257308;0,0129609015;-0,035149284;-0,024993805;-0,02879484;-0,0012458188;-0,0027476288;0,0030899865;0,01168697;0,02360664;0,02160131;-0,0059597953;0,028210105;0,029430307;-0,015697349;-0,042827435;-0,03408578;0,020702323;-0,006850392;0,03386816;-0,034791794;0,0015482258;0,0065399525;-0,02510818;0,02728848;-0,0058193933;-0,034324918;-0,03290616;-0,023253193;-0,03328039;0,0242372;-0,018258482;0,01601041;0,04212715;0,040771708;0,030419447;0,03269962;0,03961039;0,046986118;-0,040620748;0,046466652;-0,011332851;0,041351706;0,007030968;0,033365753;0,015791375;0,011594299;-0,014603301;0,016161554;0,007052516;0,016904306;0,04432538;-0,022058671;0,022042423;-0,044068795;0,0028251144;-0,0021082864;-0,035790205;-0,02931879;-0,035938267;0,01917658;0,0030821916;0,016347436;-0,019813383;0,034443162;-0,030045874;-0,05169345;-0,034047537;0,035780046;-0,016312744;-0,037067562;-0,01753303;0,0424619;-0,03846428;-0,008281548;-0,026289908;-0,0053614923;-0,024082633;0,039432287;0,03921473;0,016629895;0,008389867;0,0018843637;-0,029167753;0,022137022;-0,0031418717;-0,024867233;0,00837433;-0,012355054;0,045662884;0,0149909435;0,035969056;0,01617035;-0,014718047;0,012299263;-0,016820883;-0,039078444;0,02399898;-0,017448923;-0,00044982723;-0,040384524;0,0109784175;-0,009006223;-0,03185563;-0,014710391;0,046009034;-0,009292462;0,021889862;0,04311645;0,037975274;0,01910952;-0,009587032;-0,022804089;-0,040410668;-0,0064142128;0,0042385166;0,026643155;0,026840458;-0,03382819;0,02163757;0,027576499;0,03678278;0,011476477;0,02905822;0,035458103;-0,02365313;0,034028303;-0,044933815;-0,022692775;0,030813267;0,028653381;0,038265157;-0,0030781787;0,039503824;-0,024018748;-0,021881813;-0,023759894;-0,02293295;0,0010321029;-0,034044575;0,03412899;-0,033345524;0,03474635;-0,028604375;0,010068327;-0,021554813;-0,015028308;0,02869983;-0,00011618345;-0,003643507;0,028619386;0,0016838742;0,006507266;0,004772185;-0,022042075;0,011439891;0,0039635254;-0,00578256;0,037172306;-0,00095777307;-0,030094;-0,041580528;-0,013214028;-0,0069637964;0,0322224;0,035486564;0,041655585;0,0012628705;-0,015846685;0,01613086;0,04453074;-0,0150288455;0,03175206;0,035818286;0,025540752;0,0114456825;-0,026655726;-0,011633785;-0,034324564;-0,014833404;-0,027942512;-0,033409003;-0,030922646;0,028131537;-0,0005935776;0,03034342;-0,03441201;-0,039491028;0,025835112;0,0093350485;0,04095144;-0,019952497;0,039868567;0,011630695;0,025363125;0,026909376;-0,03757158;0,015276364;0,0024971287;0,017337881;0,01293591;0,04058903;0,015635014;-0,005099298;-0,025613638;0,036335655;0,037560493;-0,039853603;-0,014937334;0,0425527;0,036563914;0,002948978;-0,02396749;-0,012309463;0,04529271;0,0050992724;-0,013609241;-0,019019509;-0,0073947674;-0,041076973;0,00028913666;-0,031628937;-0,006069992;-0,028926115;-0,020375203;-0,01410774;-0,0072744796;0,02259148;0,04454933;-0,038426176;0,024322568;-0,022304026;-0,027019843;-0,034927335;-0,020036932;-0,0018128749;-0,035852343;-0,016102945;0,0185456;0,002358447;-0,03939231;-0,01038637;-0,028545812;-0,044816945;0,011277904;-0,039651427;0,017276559;-0,045807738;-0,012817582;-0,015518929;-0,023795065;0,0013155994;-0,008444738;-0,043427363;0,013119408;-0,024846632;0,022342177;0,014280203;-0,021111993;-0,011466969;-0,0041975686;0,01771155;0,008785636;0,010835138;0,029444447;-0,012734138;0,019557022;-0,008925287;-0,010353705;0,044096343;0,036345348;0,011941006;0,041071087;0,04496085;0,009285746;0,022300484;-0,032749858;0,021018695;-0,003839262;0,01809115;0,002793514;-0,034845524;-0,028898448;0,014790156;-0,004532353;0,005040026;0,037882168;0,041628696;0,03741987;-0,03591054;-0,025912425;-0,00859509;0,025319306;-0,042936523;0,008179808;-0,0054396805;0,02122181;0,03311077;0,014926633;0,018040683;-0,002524176;-0,041494943;0,008858133;0,00030968722;-0,017391;0,004832912;-0,012227668;-0,011306693;-0,0023539872;-0,0029915175;-0,01712165;0,014568061;0,03964606;0,03016531;0,021560313;-0,037194476;0,022415632;0,010832894;0,040476546;-0,026989209;-0,040965572;0,035315316;0,040104557;-0,014605911;-0,029503195;-0,015965117;-0,03163862;-0,037514318;-0,038621597;0,022498952;0,044215266;-0,040712312;0,040491015;-0,03515853;-0,040498197;-0,031362426;0,03131667;0,011501617;-0,034995165;-0,008300526;0,002908213;0,009087849;0,035145205;-0,03743153;0,043021437;0,029925374;-0,025731029;0,011425948;0,01602324;0,04543223;-0,010192582;-0,022561833;0,024445627;0,03687456;0,02630961;-0,027729621;0,03641029;-0,018771818;0,017545892;-0,032143164;-0,031989735;0,020755162;0,045057952;0,00019045516;-0,027303176;0,0120904865;-0,024184305;-0,03748104;-0,008158477;-0,0010986223;0,029422242;-0,0011709295;-0,043919094;-0,032195915;-0,009169182;-0,023879778;0,017548142;0,0054387953;-0,03952298;-0,0041793603;-0,042809565;0,020797972;-0,03311818;-0,0029441894;-0,029503142;-0,019472057;0,030210009;-0,018987868;0,0065618674;-0,008722663;0,0011897236;0,03811158;-0,00562381;-0,03208588;-0,038258612;0,007965302;0,036805592;-0,011331941;-0,032661688;-0,031566653;-0,030805556;-0,0010168871;0,017015371;-0,0063061714;-0,018849365;-0,03231496;-0,03820661;0,026286498;-0,02440447;0,033970915;-0,035293296;0,0083015;-0,010734166;-0,04610444;0,008642907;-0,0012310093;-0,008038081;0,03769468;0,01592148;-0,038846925;0,03473651;-0,036766455;-0,04028188;-0,033312365;0,03331857;0,036906578;0,02597264;-0,01914869;-0,010186803;-0,005045653;-0,017848838;-0,008099594;-0,03590362;-0,027441116;0,00923551;-0,008803552;0,019828828;-0,0021521389;0,01721758;0,022556419;0,039651144;-0,004934827;-0,029383162;0,017333223;0,04119455;-0,03423483;-0,01012599;-0,037742816;0,016655866;0,012711792;-0,038068082;-0,016943779;0,039951965;0,044579037;-0,015549172
0,009932499;-0,0199309;0,003673825;0,0056742853;-0,009186639;-0,046377204;-0,019727904;0,049177956;-0,037889164;-0,035208683;0,033828977;0,009892151;0,031963244;-0,03284783;-0,0027445417;0,022627717;-0,025698492;0,0125233345;0,03921384;-0,026843391;-0,024890086;0,001864376;-0,03921147;0,03509861;0,011665952;-0,017562352;0,014962714;0,042187903;-0,042648345;-0,035414584;-0,026263766;-0,02650332;0,013103589;0,032825727;-0,021214679;-0,021164944;-0,035066284;-0,010430406;0,019236058;0,016810963;0,025599454;0,01741091;0,022944521;0,0066039907;0,029291278;-0,031328093;-0,04356462;0,025762903;0,039486565;-0,0037943495;0,021633042;-0,042417392;0,023990361;0,024064135;0,050565302;-0,008682412;0,012613547;-0,04908362;-0,0021111416;-0,027164528;-0,011201115;-0,00951111;-0,0330778;-0,032548387;-0,016228536;0,00074046326;0,044230167;-0,029682638;-0,0031437753;-0,03926908;-0,0013570308;0,033425033;-0,016966967;-0,0103824185;-0,00851695;0,010518656;0,042026225;-0,042075105;0,029376198;-0,03152827;-0,03144857;0,03696066;0,035275098;0,0023498556;-0,0048529836;0,028383933;-0,029968439;-0,015763097;-0,041993342;-0,038058106;-0,0003268478;0,034382448;0,01939068;-0,03449202;0,011480961;0,04271662;0,028794942;-0,020590836;-0,04231111;-0,019526303;0,012424526;-0,0022317301;-0,0063221906;0,018273532;0,030483015;0,019085377;-0,02898068;0,03690979;0,01699146;0,009115886;0,024070201;0,009466455;-0,027711509;0,020186115;0,027946958;-0,029179407;0,04677588;0,0022758036;0,0075974674;0,023730766;-0,027861234;0,026194535;-0,044167817;0,04764527;0,0047361553;-0,029032746;0,021226276;0,016115868;-0,00841153;0,01580455;0,013422015;-0,019727554;0,028417459;-0,029018907;-0,014817291;-0,012392679;0,031979986;0,0066506327;-0,020134816;0,002149858;0,026614053;0,038800914;-0,035305746;0,006721151;-0,005176516;0,018434882;0,014500024;-0,015201427;-0,015612093;-0,0041770902;-0,011952107;0,038334265;0,029068345;0,03964797;0,022927446;-0,017134905;0,018638652;-0,024906771;0,0044754166;-0,03438798;-0,038694076;0,0070638326;-0,014878402;-0,03734659;0,036995884;0,008328285;0,019807057;-0,020862907;-0,025082119;0,006617178;0,006472198;-0,0073314584;-0,03410251;-0,03461273;0,013180344;-0,03549615;-0,037819825;0,028470077;-0,03970518;0,026495306;0,038872663;-0,006855813;-0,0024651187;-0,02198408;0,03688787;-0,022935187;-0,011777857;0,04283029;0,00082134514;0,020540798;0,008910294;0,049171347;0,03304272;-0,016376154;-0,0015347252;0,036783226;0,015555489;-0,03503745;0,019268151;0,017655268;-0,009310584;-0,026106806;-0,0028554837;-0,0056973062;-0,043971073;0,017984727;0,0024964537;0,02319798;0,03780875;-0,04795753;-0,0409296;0,0034757755;0,032241475;0,03918707;0,010858792;-0,022706915;0,020257417;0,023715017;-0,017296435;-0,01140177;0,03863803;0,014115781;0,024878249;0,009875129;-0,003581799;0,025960296;-0,032092564;-0,03627059;0,03271593;-0,024499834;-0,03463021;-0,04305016;0,02459096;-0,012534993;0,0073768655;0,015518486;-0,029343737;0,008279542;-0,042971443;0,03836121;0,018335931;0,018088907;-0,007848648;0,002096355;-0,008119423;-0,030205242;-0,0051831086;0,03357105;-0,026104862;-0,025652582;-0,026120989;0,036374703;0,025718898;0,037675574;-0,003617705;-0,018727185;-0,044651493;0,06116228;0,0524928;0,0063869217;-0,03660837;-0,015935615;-0,006563921;-0,0007024772;0,025632005;0,017529193;-0,012597264;-0,0061347736;0,028709218;0,020089421;0,03836811;0,020621048;-0,032913655;-0,01341181;-0,001082182;0,04112617;-0,010769806;-0,012941163;0,03985386;-0,030347316;0,027437678;-0,0075233565;-0,006552578;-0,040118374;-0,0142493015;0,028076783;0,02212112;0,037555728;-0,012975316;0,0057168156;0,020987673;0,016919691;0,036272906;-0,028416805;0,034713857;0,022192558;0,010391088;-0,026463477;0,03093298;0,019851664;-0,030299746;-0,015432521;0,025981093;0,041396156;0,024636142;0,007032762;0,040962413;0,026287913;-0,006993741;0,0154643925;-0,013907345;-0,027392868;-0,0014112795;0,01478573;-0,046222806;-0,0074881;0,010985193;-0,012979173;-0,022691771;0,036716666;-0,007415609;0,038695365;0,008611671;-0,010589223;-0,0009070173;-0,015956106;0,021557968;0,0028299545;0,0048640575;0,035421472;-0,000551709;0,031237608;-0,029215517;0,051464725;0,056328136;-0,045298774;0,034648515;-0,0010734609;-0,026503282;0,006916641;-0,041132174;0,019349586;0,047788404;-0,0028387948;-0,0063325227;0,002575222;0,012187025;-0,002233733;-0,016472261;0,017213244;-0,011536538;0,015366167;-0,044631436;0,013588887;0,027469616;-0,0059256186;-0,033917002;-0,009768057;-0,031968556;-0,019219087;-0,006911995;0,004765183;-0,040037468;-0,014608867;-0,0016879232;0,035717007;0,0368695;0,01827103;0,027361361;0,012614573;0,007383372;-0,012077263;-0,03331614;-0,020701258;-0,011012843;-0,005067468;0,035662085;-0,007026636;-0,005545515;0,008588087;0,0432261;-0,02631974;-0,03790983;0,045691114;-0,01153717;0,032620367;-0,004986461;0,020731196;0,033759344;-0,022853779;-0,034037348;-0,02827168;-0,048236232;0,0055227582;0,039571837;0,029719116;-0,009856165;0,0072984304;8,518671e-05;0,013952588;0,042367928;0,016538458;0,0103314305;0,022753013;-0,060402848;0,0038285742;0,054168973;-0,021545831;-0,03403531;0,034065273;-0,011942794;-0,0039754533;0,04656466;0,044166394;0,015152751;0,003616524;-0,011873425;0,0012031359;0,027076025;0,026501654;-0,033964872;0,03423053;-0,01079302;0,008529022;0,014796732;0,03194361;0,048602946;-0,023067767;-0,022698263;0,009177779;0,018832078;-0,04178409;0,0013824496;0,049699605;0,031121632;-0,010474209;-0,00803837;-0,041464653;0,039321996;-0,011739687;0,021288939;0,0022139212;-0,017326957;-0,0321871;0,0045214514;-0,024770668;-0,03998627;-0,009882793;-0,014300073;0,0442573;0,024567006;-0,048332997;-0,0051848623;0,026282268;-0,031058813;0,015124965;0,024017604;0,034026943;0,039113592;-0,020425832;-0,036674634;-0,004248225;-0,009387209;0,046087287;0,010716524;-0,031080352;0,014811599;0,033232078;-0,0021515484;-0,009986328;0,015305819;0,024491198;0,012365803;-0,04426228;-0,0270697;-0,0005144228;0,033509776;0,039705593;-0,016741555;0,013550207;-0,012590627;-0,019756787;-0,02020961;-0,030800683;0,0025646973;-0,0090944925;-0,023384932;0,022758001;0,04188932;-0,018050356;0,015550287;0,005264468;-0,03704627;-0,03035519;0,020215763;0,014487879;0,03942159;0,025610156;-0,04447349;0,060269844;-0,0037399952;0,00978005;0,036291435;-0,04075828;0,03231029;-0,010155848;-0,0053755273;0,016653689;-0,0066338615;-0,038723964;0,043303307;0,03618044
0,0032223237;0,013152733;-0,012838748;-0,032830637;0,031030865;0,001747832;0,030299565;-0,039114874;0,031189783;-0,042767283;-0,004081134;-0,0029589194;-0,018941713;-0,039824817;0,0040249815;0,029055398;0,004281603;-0,029981187;0,026633032;-0,037031565;0,015568948;0,015231905;0,010328135;-0,039016973;-0,013049173;-0,021339348;-0,02792303;-0,01701022;-0,021346953;0,040311933;-0,0008325473;-0,01804778;-0,029739672;-0,0015094271;-0,03123003;0,02688791;-0,0051584844;-0,007812737;-0,00838413;-0,03286908;-0,026907569;-0,013638751;0,016299063;0,0077795563;-0,02727454;-0,0023065927;-0,031478435;-0,012126044;-0,008523236;-0,023950767;0,03738184;-0,012018255;0,009996049;0,00010666345;-0,01681932;0,038006365;0,024339452;-0,002401151;-0,01684904;-0,018597154;0,03243694;-0,038046524;0,00033895147;0,008021621;-0,024636105;-0,03230106;-0,042098574;0,026650062;-0,00288051;0,007201863;0,018213453;0,020246485;-0,037451904;-0,02843434;-0,0062586935;0,007919373;0,015962658;-0,03679826;-0,0066297087;-0,023473233;-0,038319346;-0,030766211;-0,027569082;-0,014447726;-0,00488289;-0,0044787736;-0,0037825757;-0,01332011;-0,041809637;-0,0011530046;-0,039111007;-0,005796319;0,04067841;0,03012294;0,035758983;-0,028393794;0,027417783;0,018528864;-0,038157552;-0,002456573;-0,037730068;-0,007953036;-0,023573404;-0,021966172;-0,01903603;-0,014381001;0,044177193;0,043329723;0,003156845;0,0061211027;-0,020705543;0,001157932;-0,010460601;0,029765828;-0,027360538;-0,03972852;0,00835248;-0,007195044;-0,03695279;0,0095187295;0,008157939;0,0284685;-0,019129194;0,041100662;-0,007539604;0,0073331688;0,017945834;0,020679152;-0,015792886;0,03787097;0,010120148;0,014287682;0,020853914;-0,013109595;-0,027253268;0,016169023;0,031078555;-0,027669255;0,023242433;-0,016079538;0,042835873;0,005385883;-0,0031180605;-0,02244142;-0,0046501746;-0,016222503;0,033163868;0,021637186;-0,042109832;-0,029832112;-0,014941444;-0,009973525;-0,012219094;0,012826952;-0,011949111;0,034058254;-0,035978336;0,041509286;-0,0007883797;-0,040071845;0,033347387;-0,03879461;0,034185335;0,037421625;-0,040948343;-0,039126307;-0,041995928;-0,015067182;0,028410995;-0,028319303;-0,03049682;-0,002347018;0,0051101972;0,025908945;0,0062189805;0,002910441;0,008997617;0,029994706;0,015908875;-0,01861584;-0,026859783;0,029226616;0,024508089;-0,023692237;0,035732735;-0,028656794;-0,015442587;0,017641293;0,027965376;0,027207064;-0,043192968;-0,028929755;-0,020286992;0,031826306;0,024081482;0,025575597;0,015270998;0,026191575;-0,029094724;0,037460048;0,0058676056;0,020092063;-0,00923254;0,010428284;-0,03288149;0,014090499;0,03127382;-0,0334514;0,017283577;0,00082383037;0,0049661268;0,026192656;0,017159386;-0,026966546;0,028875308;0,04111937;-0,028946923;-0,000495883;0,00041677535;-0,029140951;0,016912743;0,009800789;-0,019281488;0,019394668;-0,033192;0,04185548;0,021567633;-0,04117763;0,040063895;-0,030247938;-0,009961451;0,032650825;-0,022074362;-0,013148802;-0,0030312533;0,009847758;-0,0232365;0,03815994;-0,02486991;-0,023667293;0,009232912;-0,030086529;-0,019192627;0,04345998;-0,015278353;-0,035030242;-0,017702702;-0,027132178;-0,032612342;-0,021724086;0,004550593;0,044148788;0,023229208;-0,021828165;0,030862624;-0,0064423536;0,035699856;-0,014044932;-0,030205784;0,012643169;0,023852382;0,004921278;-0,016754514;-0,005447299;0,041261956;-0,030255236;-0,020562122;-0,004161513;-0,043815855;0,02397276;0,042328622;-0,041150626;-0,011312159;0,0023645635;-0,03930449;-0,017463319;-0,0373325;-0,013413072;0,043456305;0,0043096947;0,04387698;-0,039895628;-0,029171403;0,020906437;0,028136311;0,042838544;-0,020903535;-0,009308125;0,024183864;-0,005811093;-0,030187545;0,038575847;0,022092663;-0,0045603216;-0,040120136;0,03821387;0,0044415174;-0,0019686;-0,0038171003;-0,024935365;0,033011574;0,042319864;-0,025340559;0,024231514;-0,042221777;-0,0040324656;-0,023781326;-0,01212184;-0,0433343;-0,01919928;0,026847465;-0,005355871;0,012643797;-0,00914821;0,021439373;-0,037091393;0,03486186;-0,027401308;0,006708945;-0,010641417;0,011428555;-0,018126238;-0,015053515;-0,010180247;0,017182047;0,019724755;0,030573716;0,026456028;0,018452795;0,02629167;0,025719924;-0,041545708;0,034753833;0,022504203;0,017524382;0,002364976;0,0062171915;0,023305072;0,042790692;0,013487424;0,0012238135;0,0007832162;-0,026319237;-0,019654226;-0,04267953;-0,025610099;-0,038901772;0,0054683816;-0,020250145;-0,025517622;-0,012115842;0,027377931;0,020373402;-0,04275604;-0,026437877;-0,04340446;0,030985212;-0,020739216;0,03902395;-0,018678444;-0,031552248;-0,00085654954;0,0031694807;0,00871842;0,021372635;-0,013722968;-0,03945911;0,022147248;-0,008141726;0,039655313;-0,04116098;0,04020524;-0,03013836;-0,02897866;0,0040462166;0,015282728;-0,03199656;0,043313242;0,0022701616;0,020395089;-0,015245145;-0,01107505;0,009679155;0,037126753;-0,010127548;-0,03454131;-0,021258285;-0,025111156;-0,018130494;-0,006953537;-0,031284504;0,037176494;-0,009495293;-0,004915091;0,017489802;-0,0146306325;-0,034459103;-0,0072336346;-0,04341498;0,0012889316;0,022875184;-0,010663883;-0,008089489;-0,033614762;0,006635551;0,010232653;-0,023819696;-0,008594937;0,013431156;-0,0025290397;-0,0076628122;0,010059039;-0,023586152;-0,038120724;-0,019912578;0,021087686;-0,024274884;0,032126203;0,009517034;-0,041539792;0,007758877;-0,024135074;-0,03706943;0,0060471017;0,01510393;-0,031444598;-0,016083026;-0,02520351;0,037653897;0,033489402;-0,03527357;0,03441812;-0,0082351295;-0,01604035;-0,027307225;0,024840532;0,01594449;-0,040890325;-0,025525292;-0,042510238;0,02408019;-0,037679814;-0,017186198;0,024859725;0,04093059;0,033377673;-0,037807938;0,011899408;-0,015484428;-0,04392971;-0,032074444;-0,019400656;-0,005533745;0,010287483;-0,030725632;0,044179697;-0,016032731;0,018240519;-0,0405041;-0,008050065;0,018747242;-0,038339045;-0,011631759;0,009307285;-0,034150485;-0,03826418;-0,04213728;0,021472936;0,019868774;0,038327146;-0,0026641034;-0,017827433;0,0034313826;0,038031746;-0,0286734;0,041396927;0,040649664;-0,022911899;0,03154129;-0,02080233;0,00536297;-0,029825326;-0,011269126;0,0030905763;0,004528731;0,043736823;0,017255109;0,013821357;-0,00019653584;-0,0026750837;-0,033415955;-0,028412463;-0,034303777;-0,039284665;0,021508886;0,03593249;-0,00721638;-0,041592825;-0,028888157;-0,007579026;-0,013526408;0,018164363;-0,020527855;-0,019755978;0,032128636;0,020838482;-0,043790463;-0,010725432;0,04277642;-0,0070507177;-0,035402674;0,043798897
-0,0096120145;0,0069168364;0,028688503;-0,029534722;-0,010535809;0,016857682;-0,042283013;0,039958894;0,038784828;-0,021611366;-0,020649357;-0,009105829;0,03285794;0,024653452;-0,00665294;-0,039463203;0,009033033;0,006933299;0,02100625;-0,047842044;-0,036116917;0,04289347;0,036227617;-0,0069619366;0,055631593;0,018519785;0,023458717;0,016283482;0,05094759;0,0021721032;0,059957117;0,01368271;0,05957132;-0,021964971;-0,03131216;-0,036141273;0,039518993;-0,0027942355;-0,021699218;0,01851038;0,036783397;0,008225836;0,055791322;0,043502703;0,01924252;0,013982047;0,022475824;0,03279913;0,005984423;-0,036956966;-0,017490387;-0,00084458373;-0,026088793;0,032869063;0,05144377;0,03598555;0,0071407976;-0,0022778881;-0,04530968;-0,042218026;0,019509295;-0,017919574;-0,0035145888;0,038305335;0,017671503;0,042187314;0,055655412;0,008311744;0,0035958157;0,028266108;-0,0039891847;0,037485883;0,037842896;-0,00016145455;0,015804674;0,038500898;0,025949024;0,033865158;-0,003135878;0,04979671;0,020233039;0,009529563;0,044337064;0,01924591;-0,025360659;-0,034886945;-0,039776944;0,044274226;-0,004002578;0,042010106;-0,005265706;0,010104956;-0,025940478;-0,03560585;-0,044535745;0,021895353;-0,013380042;0,050858516;0,010444141;0,041959103;-0,022537619;-0,0064688865;-0,030636951;-0,02070521;-0,032897037;0,010586655;-0,015715918;-0,008258423;0,023339499;0,018089052;0,037146155;-0,014551443;-0,022877514;0,04860907;0,008075682;0,041914295;-0,00581121;0,044593833;-0,02817361;0,038304314;-0,038806424;-0,0044523864;0,04315065;-0,015037817;0,027659189;0,039195128;0,00025171452;-0,026686288;0,0020781285;0,039634585;0,016295204;0,018596997;-0,040564522;0,044653688;-0,00555647;0,037454505;-0,03930175;0,027022658;-0,0340449;-0,032448668;0,03073514;-0,0015616448;0,0048138034;0,03508843;0,029509239;0,007254707;0,015852813;-0,010314514;-0,03791127;0,009707576;-0,008958055;-0,03871855;0,00945314;0,020123748;-0,023663035;0,025798416;0,038147252;0,0051561967;0,026658652;-0,021543121;-0,032678246;-0,008361527;-0,009245698;-0,033966765;-0,01147807;0,019756196;-0,028273685;-0,028381707;0,005163511;0,03925542;0,03187504;-0,03987505;-0,021348558;-0,057150804;-0,0070966943;0,045072187;0,020284573;0,030412901;-0,012291319;0,035797622;0,050506767;0,0553452;-0,028269896;-0,027049195;-0,016776012;0,04025121;0,008227803;-0,0232356;0,033932947;0,01083755;0,038351916;0,040437464;-0,02041529;0,03715281;0,026262326;-0,012563069;-0,0010401288;0,043372583;-0,019746765;-0,029858299;-0,0060881884;-0,0033607935;-0,004968668;-0,005545328;0,034166098;-0,016504332;-0,036446113;-0,008092535;0,028836716;-0,037204415;0,03716379;0,028116237;0,032324508;0,021410989;-0,015574025;0,011031919;-0,04125173;-0,029350653;0,02898323;-0,02454899;0,012708973;-0,009225786;0,015180316;0,013267946;-0,0095591685;-0,044876736;0,008105523;-0,011473182;0,0076297065;-0,039504014;0,035204142;-0,013447423;0,022472998;-0,034695048;0,009421294;-0,04421661;0,03411692;0,024384558;0,043003198;0,034475476;-0,0017865916;-0,04481064;-0,0019119526;0,0037394613;-0,030216044;-0,034525298;-0,0014799936;-0,018558767;0,05026168;0,07481382;0,023731174;0,038080916;0,05054849;-0,024952456;0,039296545;-0,008799591;-0,026155027;0,061384305;0,02528954;0,01348496;0,02355424;-0,041832823;-0,0109700905;-0,037047595;-0,009987746;-0,034532435;-0,0051036547;0,03997008;0,01442797;-0,038537417;-0,027849475;-0,027035102;-0,030286059;0,021389186;-0,020392882;-0,032245073;0,008820938;0,022293724;0,028332893;-0,04008019;-0,0323299;0,0028525756;-0,03095307;-0,03623117;-0,006760586;-0,018379958;-0,030088244;0,047672313;0,051187523;-0,024518842;-0,037057832;0,028402152;-0,014376392;0,03652485;-0,03875648;0,017846132;-0,042098057;0,036197938;0,017617544;0,016621709;-0,030119533;0,041849796;0,0017693028;0,041283887;-0,011083552;-0,023701273;-0,0045233318;0,049267855;-0,0057871044;0,004655825;0,03330719;-0,022081085;0,014344348;0,022709617;-0,0011018111;0,036068153;-0,016693247;-0,013770583;-0,028525481;0,024867099;0,040185664;0,03106212;0,061772253;0,020213779;-0,023827188;-0,02170927;0,016129045;0,040275495;0,03766692;-0,0078797955;0,0126336375;0,0008347459;0,014011861;0,05379851;0,002266623;-0,037265077;-0,0044167265;-0,005919909;0,009065551;-0,015618009;0,024348475;-0,0011726529;-0,014390307;-0,020915153;0,022328392;0,053901136;0,022054164;-0,039012842;-0,003652283;-0,023640618;0,03490247;-0,003133153;-0,0452167;-0,014438131;0,03478337;0,0018727089;-0,030613154;-0,042924967;0,0235753;0,012328773;0,03091896;0,030332036;-0,040314723;0,009801971;0,040231068;0,05991062;0,029105214;-0,0146076325;0,0127124805;0,04187532;0,0041592806;0,038332906;-0,014184149;-0,03365076;-0,025496805;-0,008592645;-0,0073453123;-0,005985886;0,020475566;0,00077166496;0,05561754;-0,04769475;0,045086995;0,009568344;-0,01901701;0,023612097;-0,011221551;0,034322225;-0,027185425;-0,034664687;0,01487414;0,013184231;-0,030877762;-0,0012222464;0,014404145;-0,013076001;-0,0011372895;-0,049532246;-0,0016218573;-0,021116568;0,04119004;0,018905474;-0,044060845;-0,015404655;0,028819568;0,014696664;0,059305582;0,0070963106;0,0021245307;-0,037429076;0,039014682;-0,008622473;-0,011429402;0,033433814;-0,03293192;-0,010440314;0,03564884;0,01748981;-0,0007119612;0,036790144;-0,05341573;0,017569214;0,04853444;-0,035498783;-0,0070940936;-0,0086767925;-0,014027133;-0,033974197;-0,022686187;0,0110863615;0,037797473;0,01998065;0,005221576;-0,013661669;0,004807328;0,0058232322;0,009675118;-0,027115252;-0,04959493;-0,00074820826;0,0055962405;0,04246018;0,034272216;0,0003774657;0,0037710627;0,033073362;-0,015586306;-0,008019205;0,002656305;-0,03562277;0,03497711;-0,047683973;-0,0005303609;0,027169557;-0,044158224;0,032328755;0,0203992;0,016661946;-0,041307367;-0,034304727;-0,023652138;-0,029971981;-0,00825702;-0,012356751;-0,021327365;-0,048686646;0,027461566;0,011132767;0,035455905;-0,031443495;-0,0004638279;0,013789774;0,0028858227;-0,020137131;-0,04997001;0,020561;0,033427298;0,053974807;0,031558175;-0,0066210167;0,03693786;0,035441946;0,020143759;0,03541466;-0,035935245;-0,00024157079;-0,019287731;-0,010557057;-0,026726361;0,0044786218;-0,042268626;-0,04654148;-0,03747015;0,022573035;-0,023143252;0,0044567552;-0,051471032;0,04118123;-0,047795173;-0,021170782;0,020902455;0,03528063;0,03158815;0,033306897;0,023724474;0,0428731;0,03187682;0,007826751;0,020876506;0,04990115;0,029882258;0,04227175
-0,0031596506;-0,0073158126;0,012887126;0,038250957;0,037167314;0,0034951414;-0,033123963;0,037574224;-0,0010690917;-0,009480808;0,04875871;0,036506068;-0,010917159;0,043910634;0,035565663;-0,0068720668;0,020863857;6,1750085e-05;0,015129115;-0,01813447;0,020190565;-0,008913543;0,015817484;0,001198914;0,024604976;-0,030858153;0,04261423;0,0029758771;0,015141595;-0,021211063;0,017742844;-0,04450627;0,035814814;-0,030960124;-0,0019531364;0,0035699783;-0,020542633;0,015635785;0,01459611;-0,020445162;0,016857924;0,057379857;-0,037212998;0,059689697;0,027075225;0,016952854;0,0027792444;-0,014248142;0,021711042;0,07625193;0,009275156;0,032888692;-0,018151596;0,012393791;-0,032462724;-0,022273844;-0,027138714;-0,0316431;0,038234152;-0,024211725;-0,030283695;-0,0011324432;-0,009541845;-0,044649485;0,019749247;-0,047132004;-0,02760863;0,02982353;0,024453072;-0,012897665;-0,039800305;-0,03248571;-0,040730935;0,028405504;-0,02170092;-0,009905879;0,018096993;-0,04101669;-0,025284322;0,009387783;0,028178243;-0,029088294;0,024085162;0,021342922;0,023671655;0,005427957;0,0032062994;-0,0004291498;0,01619784;-0,030874547;-0,0017876071;-0,023770962;-0,03298781;-0,023486728;0,021617426;-0,030598024;0,032365296;-0,039258458;0,005415893;0,0009838118;0,0101416595;0,024850179;0,020091075;-0,0074554477;0,014382262;0,0010222952;-0,035404757;0,018406684;-0,0034527243;-0,040940445;0,036251925;-0,024490641;0,004640322;-0,042169303;-0,03603504;0,0011134938;0,04334189;-0,030968828;0,018007526;-0,020802835;0,027855547;-0,0031543635;-0,027220564;-0,04254598;-0,019654056;-0,04289632;0,04856957;0,028999567;-0,032810267;-0,02271164;-0,037978612;-0,011554213;0,029934943;-0,015787616;0,022209695;-0,008945464;0,013685325;-0,02858603;-0,028955452;0,017646031;0,020627586;0,027861679;0,031288214;-0,030361192;0,011231163;-0,028089914;-0,029339723;0,033121206;-0,013320328;-0,010813971;-0,007359485;-0,035838712;0,04472583;0,022058494;0,0048160665;0,0045054234;0,018591205;0,016281184;0,030590951;0,070098065;-0,033385787;-0,042609222;-0,029953774;0,0055392;-0,0051180683;-0,005947621;0,06314376;0,0019884983;0,03594861;-0,0408604;-0,012892105;0,0066783824;-0,019656679;-0,037877616;0,014728395;-0,03110385;-0,036061883;0,012964339;0,034359664;0,0151782315;0,015644338;-0,037040584;0,049356304;0,036702987;0,03282317;-0,04086851;-0,051262263;-0,025017904;0,026663993;-0,012419996;-0,016619928;0,026524069;0,014377273;0,018969519;-0,040870238;-0,009794837;0,0062870802;0,004967193;-0,01656373;-0,0071808114;0,0401498;0,034334272;-0,013001683;-0,013787481;0,02660659;-0,03566715;-0,04443057;0,04304004;-0,039356843;0,0042235972;-0,020198226;-0,017503766;-0,04208805;0,006556513;0,052174237;-0,03278586;-0,02625455;0,007746276;0,034367677;-0,037916195;0,021078244;-0,009572768;0,044397198;-0,023907764;-0,0075344127;0,035696212;0,0149054695;-0,017986838;-0,0101684965;-0,016965127;0,026518295;0,028669557;0,004893356;0,04272198;0,01052183;0,03681339;0,052480806;0,02600421;-0,026404979;0,042058;0,0325895;-0,0067874542;-0,0046045315;0,017438244;-0,012511188;0,03686314;0,03171774;-0,0019051848;-0,020612668;0,011185034;0,0059114276;0,03848572;-0,049676783;-0,009864749;-0,036072914;-0,028672747;-0,016567416;-0,022569405;0,01998621;0,024363354;-0,017029889;-0,0099678;-0,025706723;0,053026818;0,03119075;-0,01851682;0,011802852;-0,04232659;-0,03256621;-0,035000447;0,034085475;-0,034535185;-0,024500566;0,038331106;0,0091500515;-0,007203826;0,008242152;0,040213104;0,009812426;-0,0044956966;0,015204348;-0,028855825;0,0033153468;0,016119692;-0,027551586;0,02637464;-0,0026592228;-0,020856434;-0,016388346;-0,019031221;-0,005078363;0,032332513;-0,027110161;-0,040938925;-0,036952477;-0,014015256;-0,02195593;-0,008081142;-0,021444626;-0,04981842;0,022240276;0,009407882;-0,034434468;-0,036221523;-0,017794758;-0,03426893;-0,018463723;-0,0065742536;0,039137553;0,036800966;-0,03697538;-0,0069539947;0,013209855;-0,039472867;-0,0347601;0,007698986;-0,009824319;-0,05367473;-0,012643762;-0,019935148;0,02029033;-0,0009655644;0,012681597;0,018125044;0,009215542;0,0080041755;-0,0048805443;-0,010742401;-0,03968086;-0,030426124;0,009147572;0,026008759;0,047661003;-0,0049807616;-0,04017357;0,017283015;-0,0065089413;0,0025193861;-0,007075584;-0,023624172;-0,0011166963;-0,0059559657;0,00016486345;0,03771691;-0,03462037;-0,012696984;0,048561376;0,01342217;0,0034507944;-0,039593525;0,016998263;-0,016931698;0,046481863;-0,031500794;0,0100514125;-0,012548294;0,019783001;-0,013738173;-0,023942787;0,019522142;0,027103234;0,023395754;0,01207117;0,0038805823;-0,021791145;0,030551556;-0,004385982;0,0385909;-0,0075713126;-0,012142479;0,004385174;0,036065042;0,0075787855;-0,025706362;0,0045179087;-0,044156015;-0,017605267;0,006071263;0,037439756;-0,010478228;-0,018625956;0,039318714;-0,0043429295;0,036788397;-0,021079592;-0,0065768044;0,00039421715;-0,039927617;-0,0011119863;0,0118112;0,028505558;-0,013186554;-0,022625687;0,03278809;-0,012881169;-0,038175005;-0,014298784;-0,02604989;0,033817515;0,012770313;-0,02710766;0,046265896;-0,017032798;0,00535112;0,03819902;0,04461547;0,029373426;0,0010526716;0,0003224592;-0,022541761;0,0045272657;0,043313198;-0,002454117;0,00042955054;0,041615136;-0,018361913;-0,027076982;-0,03152058;-0,004361386;-0,028144954;-0,0345319;0,0053494973;-0,027495785;-0,037021782;-0,022060987;-0,0126274945;0,039960418;-0,027922267;0,029582622;-0,041468058;-0,019147916;0,03502334;0,009682903;-0,027685998;0,020975659;0,051636335;0,0072129243;0,012269812;-0,0010750805;0,043897144;0,021365117;0,007343622;0,028888542;0,03232353;-0,022685863;-0,042697914;-0,018240307;0,0044774353;0,0060191443;0,02744258;0,0330438;-0,0119024245;-0,011571747;0,0006319881;0,0352674;-0,01378424;0,009750297;0,010405846;0,029612696;0,004521351;0,012700652;-0,006753442;0,013977056;0,04932537;0,05237932;-0,0062263305;0,016840225;-0,013139382;-0,0415468;0,02223291;-0,041523658;0,008651244;-0,0038431538;0,00795376;-0,018906124;-0,0010075148;0,032666977;-0,028495267;-0,0009452345;0,035940234;0,020845689;-0,051978037;0,011671251;0,04175601;0,042675402;0,027143652;0,005951777;-0,0027514168;-0,0042808806;0,0042426228;-0,00078369194;-0,040831782;0,013382332;-0,017579911;0,023527304;-0,039573893;0,055157773;0,032096945;-0,022622697;0,011928311;0,01374517;-0,019609785;-0,017723247;-0,01237238;-0,0051040193;0,01456058;-0,010986059;0,011983144;0,030008778;-0,004850487;-0,016301736;-0,0075407736
0,037497967;0,027702425;0,03800034;-0,007354453;0,038533412;0,018692272;-0,034748774;-0,010599339;-0,035550535;0,0015704543;-0,05067445;0,0066781323;0,015765974;0,025261857;-0,0329357;-0,031435255;0,050238524;-0,010432559;0,014870272;0,05009002;-0,017089523;-0,028178954;-0,03435678;-0,009162954;0,0028179523;0,02179478;0,0218869;-0,038259145;0,051699936;0,016071796;-0,023623582;0,030971307;-0,0033599131;0,017719047;0,019260086;-0,04194503;0,015468529;-0,022281045;-0,0047087152;-0,029499125;0,007099489;0,04396534;0,0006939772;-0,0046463488;-0,026809111;0,009734826;0,0077748443;0,025442746;-0,008840902;0,018034868;-0,011429505;-0,04526842;-0,032805473;-0,026711501;-0,0009750351;-0,0387524;0,008421408;-0,020015566;-0,012716039;-0,03867357;0,0011234772;-0,00684528;0,008564131;0,04084235;0,0034613942;0,019432215;0,05308432;-0,023140598;-0,004129675;-0,029324962;-0,011417093;-0,025271324;0,0021130545;0,04157359;0,021746868;-0,022960579;0,03205372;0,038305856;0,023360647;-0,02273411;-0,023411533;0,042323;0,039634187;-0,02793804;0,012291588;0,012021119;0,009942794;-0,017739022;0,010449423;-0,02580996;0,028259829;0,024662908;0,042603098;0,020215167;-0,0028453525;0,026676562;-0,033007048;-0,012794082;-0,035967253;0,031121463;0,013682343;0,014610358;-0,01969341;0,020215478;0,037154198;-0,00080545584;-0,034078613;-0,022329636;-0,044048604;0,038165048;0,022611108;-0,020088097;-0,0041681547;-0,040082525;-0,033092976;0,025759025;0,00082733;-0,004270383;0,0092406515;0,002060576;0,028846517;0,011167603;-0,025309008;0,009834996;-0,038064472;-0,00032573985;0,021326607;0,005414915;0,001478143;-0,0038518358;0,036171265;-0,0041242824;-0,035398733;-0,00848614;-0,018580303;0,009649336;-0,029034076;0,009335163;-0,00479597;-0,018382622;0,033896282;-0,032549046;-0,046485353;0,038395893;-0,012148991;-0,023166243;0,04130459;0,0056322585;-0,006807917;0,0029329024;-0,030080823;-0,022993185;0,0352622;0,017172601;-0,017063837;0,015324168;0,01153497;-0,006485752;0,019074332;-0,0077268793;-0,029846394;-0,006644195;0,0072068963;-0,040531024;0,03606632;-0,033556677;-0,015321954;-0,02946142;0,006953008;-0,015947856;-0,042423278;-0,049762636;0,058222342;-0,0055494774;-0,03203265;-0,038368497;0,028200934;-0,021052567;-0,0429899;-0,03295911;-0,017160336;-0,038103104;-0,029062005;0,017482484;-0,03979342;-0,0110157905;0,014613127;0,020863911;0,011510058;-0,04277923;-0,0125685;-0,013238805;-0,018657174;0,048242733;-0,017899578;-0,008895791;-0,031916056;0,03455773;0,027988333;0,033732288;-0,033352356;-0,011136687;0,054170832;-0,026952546;-0,05175085;-0,007753571;-0,03789672;-0,029506652;-0,009431489;0,0028354358;0,028909564;0,04190648;0,008842925;0,009599014;-0,027385842;0,020505358;0,018656924;0,009248803;0,025853563;0,026797784;0,005450091;-0,03996713;-0,016420392;-0,023267364;0,004267819;0,022537723;-0,028414275;0,03532824;0,000518134;-0,037230086;0,023491783;-0,005350692;-0,0022373751;-0,035084724;-0,030156486;-0,012985249;0,02724285;0,05085072;0,03614383;0,027844936;-0,036124304;0,039674092;-0,02539483;-0,00551543;-0,018149192;-0,03850471;0,00033913637;0,04469017;0,022858799;0,017623393;-0,029203929;0,048592158;-0,024296993;0,026204621;0,008314875;-0,012818757;-0,03802334;0,03647907;0,0021812695;-0,0385804;0,014511253;0,008371594;0,03129112;0,0023178682;-0,025656363;0,01936352;-0,0043718726;-0,03816034;-0,019247318;-0,0053589717;0,036316868;0,0239641;-0,016095767;0,0036164618;0,034036256;0,03954479;-0,024125181;-0,014483653;0,034245428;-0,0414266;0,03359648;0,038747303;-0,00086451386;-0,012065132;-0,017071355;-0,050610345;-0,037664138;-0,034354754;0,024543261;-0,016105909;0,04014959;0,041536964;0,018238978;0,018835789;0,04738145;4,6422592e-05;0,04346325;-0,006925598;0,021843493;0,004667127;0,018578824;0,028904635;0,030535802;0,017927313;0,057020087;0,030249335;0,04086547;0,031606667;0,04373031;-0,009064698;-0,035432786;-0,04639449;-0,024854608;0,013373003;-0,029614223;-0,019518547;0,029581638;-0,018323855;-0,031018011;-0,026934074;-0,008825842;-0,03783711;0,010923868;0,003704678;0,03010172;-0,024767159;-0,023778472;-0,0026333758;-0,010114894;0,011757797;0,050581194;-0,044801675;-0,03998975;0,038662344;0,03625517;-0,023148894;-0,010494676;-0,04625641;-0,006495347;0,0438193;0,03503127;-0,0059394585;0,021532467;-0,02954504;0,02551003;0,019905603;0,033707444;-0,02882012;0,002738711;-0,0238193;0,012783571;0,022649638;-0,041997943;0,019617725;-0,0071190186;0,03857974;0,04439577;-0,039513003;-0,007821545;0,04110086;0,018651986;0,023222027;0,04340252;-0,02168253;0,03544594;-0,03263535;-0,035281837;-0,008440127;0,043545194;-0,0068413145;-0,029727004;0,026743406;0,03322362;0,018436387;-0,013911634;0,041507345;-0,011157793;-0,023554493;0,0066403006;-0,03130601;0,031643514;-0,010581859;-0,0025301003;-0,017900439;-0,02472995;-0,034672566;-0,03789838;0,010071993;0,046623327;-0,016989622;0,023317054;-0,043679334;0,026863351;-0,011691491;0,0408574;0,006950436;0,017976977;0,031720173;0,01647343;0,04502088;-0,0033766248;-0,031502273;0,04024534;0,01656269;-0,0033456713;-0,010964806;-0,006769405;-0,0037256223;-0,0026376494;-0,009684625;0,0047437334;-0,0059846053;0,019064086;0,040801797;-0,03459164;-0,037595488;0,0052614855;-0,010542646;0,025507588;0,0011184054;0,023175765;0,03590191;0,028179891;-0,041932352;-0,039004806;-0,021577101;0,042595148;0,031115972;0,024369273;0,0039005843;0,008751177;0,014715058;-0,020189814;0,030409228;0,003723915;0,01895599;-0,021639977;-0,023516562;-0,014033852;0,03868095;0,016638154;0,014613247;-0,029540112;0,04399692;-0,02163426;-0,02518277;-0,03971156;-0,026347116;0,018291732;-0,02691179;0,011949994;-0,04028001;0,006948436;0,0005140028;0,018666876;0,05738893;0,0190135;0,026345925;0,00097253564;-0,03655837;-0,04262111;0,04086922;-0,035172228;0,038823534;-0,0110661965;0,0017666988;0,014751066;0,026985437;0,03602612;-0,009702325;-0,02341328;0,035219837;0,030653317;0,008697568;0,0078073237;0,040989682;0,03083298;0,039417017;0,008225648;-0,024316404;-0,042342916;0,036438275;-0,027302848;0,033821195;0,023809008;0,030734861;-0,0028070142;0,0008294888;-0,032437466;0,0311779;-0,022964872;-0,006411052;0,011527577;-0,033127345;0,026673302;-0,02401924;-0,022493754;-0,008678338;-0,0320899;-0,007262617;-0,015787935;0,045683194;0,017780568;-0,013051565;-0,0030947886;-0,012917644;0,050925646;-0,003924098;0,01784025;-0,024058277;0,047629565;0,031816475
0,040683996;-0,034494963;-0,004589703;0,030934315;0,035498556;-0,013271567;0,03439536;-0,0064502903;0,0047546537;0,02486971;0,003282378;0,015513125;-0,035842985;0,018724713;-0,038738728;-0,038129058;0,033283412;0,021138592;-0,038034327;0,041624755;-0,02400405;0,00044257485;0,015177933;-0,027730951;-0,018895853;-0,014514981;-0,008081527;-0,005874417;0,029476212;-0,042767733;-0,004630766;-0,033549797;-0,044157613;-0,017583845;-0,021733293;0,020237027;0,017201262;0,0076439446;-0,03053206;0,007883947;-0,035720035;-0,03434592;-0,024513902;0,007110376;0,04050518;0,02479568;-0,019603854;0,038431965;-0,005212139;-0,0039116843;-0,041689638;0,035772976;0,00026729112;0,0005638038;0,008109375;0,02508654;-0,013142786;-0,0011296949;0,0340817;0,02951478;-0,036643337;0,012921723;0,022527402;-0,01380306;-0,011516475;0,017951285;-0,00047866916;0,021152232;-0,037833743;0,023387065;-0,014223965;0,020701239;-0,015150286;0,016998949;-0,025255373;-0,036634687;0,01475504;-0,036589492;0,003375536;0,014076799;0,020576196;-0,011782983;0,030335408;-0,012824338;0,029768165;-0,012820794;0,0055539333;-0,026823306;0,007979828;0,005179566;-0,018256834;-0,044003677;0,0034960988;-0,031360585;0,03826494;-0,0031258564;0,030368801;-0,040717117;-0,007429532;0,027599003;-0,03421751;0,005117767;0,0018877047;-0,02141176;0,02345476;-0,04313042;0,03374983;0,03351718;-0,016463075;-0,021249566;0,021816783;-0,039935637;0,028601812;0,010305038;0,030122856;0,031387173;-0,033681203;0,002757424;0,018500865;-0,031284887;0,009095583;0,025678206;0,0276359;0,01778516;-0,03737048;-0,025502602;0,031857673;0,009436242;0,04139602;0,010798018;-0,0031747767;-0,030486321;0,011172765;0,036988303;0,00061464956;0,023623079;-0,00044326918;-0,021130137;-0,015699651;0,015094831;0,018772213;-0,006650127;0,019480746;-0,019859672;-0,042847;0,008195021;-7,726226e-05;-0,023086192;0,04310235;-0,04423852;-0,043922067;0,028600238;0,024043605;-0,007867076;0,042757362;0,02438178;-0,0008362452;0,03484845;0,015053503;0,032628816;-0,0051730853;-0,023150492;-0,020881275;-0,0019056366;0,043496367;-0,0020018967;-0,04070308;-0,0025837943;-0,020689681;-0,01055981;-0,02694438;-0,0021854262;-0,041292258;0,03833851;-0,011749948;-0,021256654;0,028145323;-0,03011949;0,036490653;0,018808609;0,036240302;0,022047859;-0,011260737;-0,006698733;-0,015121241;-0,01366748;-0,009600131;0,018167574;-0,033164598;-0,021167137;0,0048043;-0,027198924;-0,011810681;0,021849707;0,009997345;-0,00091420766;-0,043876152;0,021278923;0,03834415;-0,04411978;0,04181937;-0,019708248;0,018142287;-0,023696758;-0,0032994696;-0,015578843;0,0055669146;-0,0003308599;-0,038569693;0,037196875;-0,00093471876;-0,02882786;-0,035146784;-0,032765027;-0,017106172;-0,042488307;-0,039805636;-0,043820277;-0,040275007;0,028422544;0,033571422;0,042735897;-0,038460024;-0,006185218;0,017618908;-0,012609763;-0,0025011196;0,037409347;0,008622132;-0,01372717;-0,040328156;0,03267671;-0,042735174;-0,026903614;0,039540157;-0,032877885;0,006948061;0,013834173;-0,023354234;-0,039129835;0,025313739;-0,01772301;-0,014436628;0,0013483095;-0,021521935;0,02048328;0,03606584;-0,013769598;-0,03739735;-0,028197898;0,010935793;0,0014190332;0,042025015;0,029019091;0,027848594;-0,006031819;-0,038079385;-0,038590275;0,0032318037;-0,014487423;0,015125576;-0,024745597;0,038748078;0,034180973;0,00032367336;0,03463986;0,027661897;0,012282122;0,0059718844;-0,0011017016;0,017145552;0,033494454;0,010038142;-0,027071565;0,015627693;-0,0046953647;0,024338966;-0,0156853;-0,031954113;-0,0106805805;-0,016103592;-0,001144232;-0,02862479;0,02864453;0,0035027377;-0,018173147;-0,0066032214;0,013602008;-0,009754174;-0,021041565;-0,038693454;-0,012240876;-0,0445516;0,042809024;0,0037163065;-0,004192174;0,0045382218;0,006831402;-0,030368881;0,02246313;-0,030517137;0,019488884;-0,031395208;-0,02855674;0,02850492;0,024864838;8,0186546e-05;-0,011489202;0,04289324;-0,04274868;0,039092958;0,026178436;0,02970489;-0,04210977;-0,022285525;0,04064275;-0,024629256;-7,2297225e-05;-0,043604646;0,0036447747;0,024158332;-0,033803925;0,014907431;-0,011608212;0,008918909;0,009078594;-0,012870177;-0,013054113;-0,032732584;-0,0058753756;-0,04173155;-0,029272445;-0,004483514;0,031835385;-0,008100237;-0,036256757;0,003769914;-0,019869043;0,021062298;-0,014394358;-0,0074398625;-0,008481638;-0,010763974;-0,012952934;-0,024964819;-0,028889379;-0,031194016;-0,025562022;-0,0054656514;0,032717615;-0,024812154;-0,018978976;0,021247061;0,017325424;0,018526735;-0,031122105;0,0020855507;0,02959649;0,018111309;-0,02263292;0,0061314898;-0,008000672;-0,010315699;-0,033485908;0,043145154;0,03051376;0,01967413;-0,008872617;-0,018018387;-0,035284158;-0,0031320502;-0,03978935;0,014559386;0,028209439;-0,029263547;0,0359839;-0,025317093;-0,0072608287;-0,009805667;0,024719032;-0,009372652;0,007140413;0,025350453;-0,016027777;0,032091524;-0,019633055;0,04209185;0,004905446;-0,04211258;0,035197165;0,009103057;0,03390975;0,006824769;-0,033914093;0,004482747;-0,03888414;0,03695166;-0,014757062;0,035507422;0,024339192;0,014674252;-0,038328294;0,04053293;-0,006275389;-0,027543714;0,01178197;-0,036066532;0,027628211;0,035709698;-0,018122185;0,041520845;-0,016342228;0,017009709;0,04082318;0,041996486;0,02995653;0,016038898;-0,018880513;-0,041079264;-0,018649925;0,013302214;-0,008849407;0,01731266;-0,030024782;0,009853959;-0,035325427;-0,012251806;0,018467028;-0,011168282;0,0007867708;-0,01082814;-0,009735816;-0,00045626154;0,029709075;0,023936924;0,01761467;-0,029547049;-0,020595944;0,036029313;0,0046489853;-0,0017703326;-0,02576038;0,027338307;0,013062599;-0,004101033;-0,018983163;-0,031935472;0,02580611;-0,03138002;0,008120329;-0,014013952;0,0402473;0,001103777;0,0027192452;0,022708599;-0,018395673;0,017798508;0,008793236;0,0008763704;-0,005775073;0,0018674536;-0,035704583;-0,025968472;-0,039915107;-0,03866623;0,0101759005;0,01323749;-0,004757102;-0,03275202;-0,0023267576;-0,03930642;-0,022413196;0,043479744;-0,019317435;-0,02720534;-0,032148425;0,04315123;-0,008257833;0,04086982;0,018468646;0,022245059;0,028064294;-0,017344715;-0,040646963;-0,03856046;-0,03743725;-0,013297823;-0,01898272;0,011439073;-0,03463815;0,025776418;-0,0053681117;-0,018236779;-0,018276472;0,0004787633;0,011022165;0,037951775;-0,00079185603;0,03224102;-0,035476025;-0,035140198;0,015608552;0,008834329;-0,040635776;0,040632788;-0,02653178;0,035120416;-0,037628666;-0,026304448;0,008081819;-0,030995505;0,019294016
-0,0007611524;0,008402502;0,0032882153;-0,039966345;0,014578906;-0,012514887;-0,031697;-0,017445834;0,02611887;0,044115588;0,0018111271;0,00084428734;0,0026481724;-0,038292393;0,009706988;-0,01802005;0,042249843;0,013841299;-0,012426916;0,028423619;0,006588035;-0,025452035;0,011011197;-0,025630137;0,039190017;0,009379157;0,005074101;-0,026114307;0,0419591;0,025815202;0,02938592;-0,03470778;0,0279858;0,0030808703;0,03506605;-0,035710417;0,0043780506;0,0058568106;-0,0063347523;0,042612948;0,0017489042;-0,00850181;-1,068194e-05;0,030016383;-0,011714992;-0,023781104;-0,005115484;-0,012743888;-0,012124495;-0,029406935;-0,04044406;-0,023130119;-0,026362443;0,019122766;-0,032829203;-0,033165757;0,031754058;0,02631816;0,008399808;-0,04015098;0,0076377853;-0,024315016;0,014607348;-0,026740678;-0,039783757;0,016693927;0,0316271;-0,039842602;-0,032961834;-0,01975993;0,019249957;-0,005065372;0,039280254;-0,015107289;-0,008414986;0,026692066;-0,032147698;-0,035513546;0,019783737;-0,019524194;0,032489955;-0,01456146;0,027007755;0,026668334;0,0045577902;0,008739721;-0,04333918;-0,032852374;0,012162853;0,0031968674;-0,022227455;0,006285519;0,04317597;-0,032959178;-0,0113111595;-0,028564438;-0,0057425136;-0,0064962795;-0,01445182;-0,022969529;0,040929735;0,008387894;0,009924386;0,024596898;-0,03982185;-0,026244404;-0,025892098;-0,0005108939;-0,009253379;0,015101469;0,027037814;0,001070568;-0,023820182;0,034699943;-0,0010959494;0,019345045;-0,028960655;-0,004276188;-0,019849293;-0,042590167;0,011682836;0,013321913;-0,0129005695;-0,04169727;0,0167967;0,018436037;0,028031724;-0,014294502;-0,025145018;-0,038852792;-0,032406148;-0,0042699696;-0,015428455;-0,024573198;-0,0074664718;0,00923689;-0,023178175;-0,008682709;0,043397564;0,01833781;0,005652451;0,03532866;-0,006185967;-0,014376937;-0,032712273;-0,00039242848;-0,012182204;0,019590769;-0,029877316;-0,03147941;-0,0059909155;0,040569715;0,039061863;0,039476667;0,04049442;0,04344935;0,040437512;0,02799995;0,029539479;-0,02456804;0,0262348;0,014018011;-0,018255921;0,012168355;0,0059779393;0,024570737;-0,04229224;-0,042723715;-0,023977403;0,013732425;0,035604917;0,019067623;0,014034597;-0,031539973;0,022647249;0,03314806;0,032037295;-0,029224325;-0,025967117;-0,029474707;-0,0061029377;-0,03903888;-0,019169606;-0,037324514;-0,03899722;0,030415893;0,007946224;-0,019054912;-0,030745035;0,029905038;-0,0042676106;0,028005896;-0,027919253;0,029204432;0,0023755552;-0,012869916;-0,013558506;0,017828915;0,011613683;-0,008060005;-0,03959149;0,0079710875;-0,025657034;-0,032513652;-0,04274024;-0,0021521603;-0,04061385;0,012322958;0,025288831;0,006364616;0,030011866;0,0008139322;0,010108315;-0,0373487;-0,03597464;0,013820208;0,033344712;-0,039067086;0,030932577;0,012254789;-0,03791962;-0,009614389;-0,014648959;0,006330398;-0,021765027;-0,03749274;-0,03944669;0,024888441;-0,01391863;0,0059986245;0,0062840115;0,027295645;0,022876427;-0,013192169;-0,03188356;0,0089382315;-0,04416827;-0,044426005;0,002241383;-0,017668255;-0,023846276;0,043020498;-0,030669589;0,03754601;0,029579392;-0,029005775;-0,020474313;0,01816312;-0,012580253;0,018188963;-0,01933963;-0,036846012;0,028431443;9,121417e-05;0,0078892;-0,0068996516;-0,03517969;0,01379393;-0,042235475;-0,0048651276;-0,039192382;0,028390694;-0,005574364;0,03088719;-0,041713454;0,019023566;0,019375786;0,03655185;-0,021147404;-0,027085584;0,018160306;0,020612689;0,03272506;0,0050643594;-0,035595752;-0,025462458;-0,012728329;0,0373602;0,031071702;-0,032965235;0,009292154;-0,03395082;-0,0018110926;-0,0009214891;-0,012610356;0,016299516;-0,04286847;-0,037579868;-0,028584382;0,011885894;-0,0010698265;-0,0007938182;0,006241185;-0,026456535;0,014429179;0,04250154;0,03172585;-0,0130597325;0,031998523;0,042203188;-0,032892976;0,0062931366;-0,02005905;-0,025242317;0,009990034;-0,04409918;-0,012294669;0,0083679445;-0,029961046;0,00091499905;-0,03308492;0,008397175;-0,013650722;0,01363624;0,028288135;-0,027044553;-0,022590753;-0,035622396;-0,03377643;0,036355942;0,023492193;-0,036885098;0,006555988;0,0005116155;0,04290394;0,013760095;-0,016810633;-0,017798709;0,005133642;0,013844635;0,010929506;-0,013931003;0,04080938;-0,03600991;0,042515676;0,026674751;-0,034255486;0,007764369;-0,038264934;-0,034446213;-0,016991457;-0,005282502;0,01058695;-0,0429402;0,04198341;-0,0015709719;0,037730757;0,012634705;-0,039434064;-0,028684359;0,03410493;-0,032919846;0,03321781;-0,0023914012;0,007504017;-0,026601452;0,04155881;-0,009917211;0,0040533887;0,042830247;-0,02791475;0,0059642894;0,0064365133;0,03726906;-0,006021882;-0,021534387;0,029229246;0,0087715555;0,013624904;-0,043263137;0,024975171;0,030171711;-0,007548352;-0,011510136;0,043053966;0,004566483;0,004733222;0,04028213;-0,040445164;0,0039199586;-0,002653639;0,028492313;-0,039036743;0,04086958;-0,002991105;-0,026620716;0,024717819;-0,013594434;-0,03889753;-0,018538259;0,020131912;-0,042791698;0,010337934;0,01855298;-0,03234617;-0,007136319;-0,037722915;0,043394987;-0,001724277;-0,042607076;0,011412848;-0,039224327;-0,018556679;-0,039077643;0,007805853;0,025869131;0,042487722;0,0024758568;-0,037001155;-0,041329946;-0,043895263;-0,022902662;-0,026062489;0,021418568;-0,0026541678;0,021735914;0,030754361;0,016565274;-0,020814277;0,01760659;0,012433218;0,0398421;-0,0283687;0,013672742;-0,019599538;0,002034663;0,020972466;-0,02362032;0,013641519;0,0005525628;-0,0045498987;0,008700183;0,010451317;-0,043028507;0,019589458;0,024574006;-0,02871791;0,042649128;-0,0029448804;-0,023615556;-0,01640564;0,021973453;-0,0063340217;0,006707818;-0,039409913;0,010398105;-0,025254505;-0,02444489;0,010619206;0,03522495;-0,028152507;-0,013018452;0,019813143;-0,012176164;0,020787694;-0,029334452;0,009347939;-0,041782305;-0,040046204;-0,024259415;0,009630803;-0,018244982;0,028646125;-0,021143138;0,009098792;0,041726828;0,043115336;-0,038501043;-0,016045487;0,03811758;0,03707688;-0,03202989;-0,021087218;0,03972137;-0,018632233;-0,01962771;-0,007648322;0,00091788167;0,021559907;0,02084622;-0,019728389;-0,029843448;-0,012060132;0,0019748372;0,0031684944;0,007712049;0,037861835;-0,011316894;0,01859565;-0,02848346;0,014609003;0,024514941;-0,003580591;0,03192822;0,022812605;0,02492732;0,032062773;-0,010096065;-0,017422745;0,019849716;-0,016981846;-0,011558604;-0,021570686;0,024106195;-0,0028060602;-0,03277503;0,027507443;0,0051803016;0,030048456;-0,03304355;0,0052409237;-0,017732536
