0;1;2;3;4;5;6;7;8;9;10;11;12;13;14;15;16;17;18;19;20;21;22;23;24;25;26;27;28;29;30;31;32;33;34;35;36;37;38;39;40;41;42;43;44;45;46;47;48;49;50;51;52;53;54;55;56;57;58;59;60;61;62;63;64;65;66;67;68;69;70;71;72;73;74;75;76;77;78;79;80;81;82;83;84;85;86;87;88;89;90;91;92;93;94;95;96;97;98;99;100;101;102;103;104;105;106;107;108;109;110;111;112;113;114;115;116;117;118;119;120;121;122;123;124;125;126;127;128;129;130;131;132;133;134;135;136;137;138;139;140;141;142;143;144;145;146;147;148;149;150;151;152;153;154;155;156;157;158;159;160;161;162;163;164;165;166;167;168;169;170;171;172;173;174;175;176;177;178;179;180;181;182;183;184;185;186;187;188;189;190;191;192;193;194;195;196;197;198;199;200;201;202;203;204;205;206;207;208;209;210;211;212;213;214;215;216;217;218;219;220;221;222;223;224;225;226;227;228;229;230;231;232;233;234;235;236;237;238;239;240;241;242;243;244;245;246;247;248;249;250;251;252;253;254;255;256;257;258;259;260;261;262;263;264;265;266;267;268;269;270;271;272;273;274;275;276;277;278;279;280;281;282;283;284;285;286;287;288;289;290;291;292;293;294;295;296;297;298;299;300;301;302;303;304;305;306;307;308;309;310;311;312;313;314;315;316;317;318;319;320;321;322;323;324;325;326;327;328;329;330;331;332;333;334;335;336;337;338;339;340;341;342;343;344;345;346;347;348;349;350;351;352;353;354;355;356;357;358;359;360;361;362;363;364;365;366;367;368;369;370;371;372;373;374;375;376;377;378;379;380;381;382;383;384;385;386;387;388;389;390;391;392;393;394;395;396;397;398;399;400;401;402;403;404;405;406;407;408;409;410;411;412;413;414;415;416;417;418;419;420;421;422;423;424;425;426;427;428;429;430;431;432;433;434;435;436;437;438;439;440;441;442;443;444;445;446;447;448;449;450;451;452;453;454;455;456;457;458;459;460;461;462;463;464;465;466;467;468;469;470;471;472;473;474;475;476;477;478;479;480;481;482;483;484;485;486;487;488;489;490;491;492;493;494;495;496;497;498;499;500;501;502;503;504;505;506;507;508;509;510;511
-0,01381562;0,09265403;0,09114976;0,052464347;-0,10143031;0,050996996;-0,0029398864;-0,03749889;0,10560916;-0,017358119;0,13141397;-0,06868375;0,09700054;0,0019671738;-0,02737575;-0,065289244;0,0446035;0,010838131;-0,05416723;0,04313336;-0,008299402;-0,014498239;-0,027614916;-0,015643831;0,0067652618;-0,006855823;0,0729136;0,0480006;-0,030099407;-0,063669056;0,0017309956;0,008636737;0,09621805;0,040171415;-0,11647187;0,028950935;-0,009738357;-0,05052279;-0,09270997;-0,028991923;-0,025769293;-0,019600911;-0,09133158;0,050317433;-0,019482655;-0,08625603;0,14304464;-0,017953392;-0,027002312;-0,028841605;0,0354386;0,039641432;-0,062237836;-0,07015678;0,07597162;0,03143152;0,057378188;-0,061323393;-0,07545281;-0,005126008;0,08467737;0,11851866;-0,00019231591;0,1073113;0,01263733;-0,02569611;-0,029084878;-0,034969155;0,023812328;0,017035153;-0,0396766;0,006309861;0,04815729;-0,019596025;0,1273063;0,04984655;-0,12754281;-0,00081463595;0,03971628;-0,085161954;-0,0183962;0,033508923;-0,06452038;-0,021530407;-0,02525277;-0,0634377;-0,021669842;-0,066352695;0,13333249;-0,022045158;-0,070955075;0,05850106;-0,025581427;0,0062136524;-0,04305594;-0,004538918;-0,008445559;-0,03968281;0,023509245;-0,052459978;-0,067891136;-0,03900529;0,023002034;0,03406668;-0,056152206;0,04257126;-0,06922493;0,037969843;-0,02070842;-0,11203733;0,08704953;-0,069363736;0,019445058;0,008406017;-0,02945717;-0,034652676;0,008649958;0,030437358;-0,008244794;0,11002486;-0,056205466;0,04257361;-0,019106863;0,09476691;0,0349321;-0,06788039;0,008251645;-0,04344542;-0,019096337;0,0291672;-0,0030262212;-0,02869834;-0,10309865;0,0048577194;0,054284878;0,05197128;0,026433103;0,12612984;0,01839577;-0,06318424;-0,037179824;0,014578429;-0,004931808;-0,022120627;0,0047219675;0,1014833;0,029219724;-0,02698652;-0,05935354;-0,085932255;-0,12954089;0,033494946;0,03600554;0,06977218;-0,008134989;-0,029963449;-0,066830315;-0,063609764;0,0055693123;0,005876759;0,043381453;0,006772127;-0,05381352;-0,03124824;0,05069176;-0,0064855586;-0,06184934;0,13179268;-0,095611036;0,021511808;-0,04383396;-0,14390871;-0,09449369;-0,02151995;-0,043669514;0,15209879;0,015434216;-0,061727535;0,037462573;0,07027319;-0,07042401;0,068808496;-0,039499633;-0,0453982;-0,009649062;-0,055492237;0,009026582;-0,0074512023;0,049888022;0,013553646;-0,035118513;0,03280124;0,05026101;-0,0346241;-0,036683124;-0,021269217;0,054876667;0,024928702;0,029133385;0,07399261;0,056592885;0,012159138;-0,08208403;-0,08204529;-0,022473648;-0,10814108;-0,025791474;0,02210616;-0,014790851;0,008725802;-0,02730105;-0,09639849;0,03943739;-0,016507022;0,031706948;0,047740605;0,00935823;0,03560881;-0,056205586;-0,004973443;0,04300606;-0,03974626;-0,00047575092;-0,031126799;0,073309734;-0,08896083;0,055841208;-0,042880524;-0,026869135;0,022015736;-0,042450387;0,013449468;-0,009400825;0,0025006374;-0,042045098;0,09476207;0,026045667;-0,050851766;-0,04291457;0,004921792;-0,021612579;0,04221575;0,027810296;-0,04872113;-0,030750297;-0,054177657;-0,0058161216;0,011222737;0,024573127;0,011362618;0,014451314;-0,046307087;-0,043876667;-0,089144796;0,014453597;0,108645774;-0,025277674;-0,004332567;0,02104519;-0,011521741;-0,055963375;0,08420444;-0,088940635;-0,009062173;0,015084057;-0,05272518;0,17186128;0,043714613;-0,0017383632;0,038432322;0,013640811;0,008129986;0,07673878;-0,08846215;-0,029466534;-0,04074689;-0,021494856;0,044162724;0,051448002;-0,030593893;0,04456443;0,013011624;-0,040895935;-0,10618733;-0,04847464;-0,055515483;0,007677819;0,078784615;-0,0041905036;0,056265067;-0,10026149;-0,03180557;-0,0292648;-0,06277477;0,001745099;0,11671431;0,042695988;-0,04136167;-0,021900795;-0,07865343;0,073262274;0,013775356;0,041064054;0,10918778;0,019088859;0,068397574;0,035317183;0,0053450675;0,06280242;0,027801806;-0,01351487;0,017496482;-0,02814028;-0,06884741;-0,04778603;-0,13540906;-0,015599359;-0,018572168;-0,035888262;0,0342313;-0,00955555;0,00755378;0,0026972329;0,043038666;-0,02156829;0,127681;-0,049899645;-0,005036333;0,071846396;-0,01607496;0,03765708;0,049989033;-0,008595442;0,018479213;0,07447132;-0,03614854;0,043284234;-0,039937247;0,013537798;0,058015104;-0,005932313;-0,022358567;0,03437144;0,067323655;-0,04340753;-0,028790034;0,0016574066;-0,008142318;0,0005902522;-0,033922058;0,029044308;0,08597351;0,056422237;-0,11187701;-0,013890136;0,028072845;0,092292525;0,018171243;0,0596837;0,021293787;-0,027337607;-0,011142249;-0,03952803;-0,08622026;0,020568527;0,04265975;0,021369753;-0,00019146584;-0,004850352;0,054612298;-0,080241404;0,024202157;-0,1356018;0,032678925;-0,076537706;0,028914558;-0,016648736;0,010616636;0,011359079;0,03507195;-0,013199564;-0,033239532;-0,004948344;0,007414503;-0,025063982;-0,107412614;0,03197075;-0,06693127;0,026307495;-0,103580736;-0,09784303;-0,03019275;0,20379478;-0,075009815;0,103785396;0,034605186;-0,030787919;-0,0041137305;-0,038361415;-0,030934915;-0,09905468;-0,09213777;-0,05390169;-0,14885528;-0,06134084;0,01893878;0,042674378;-0,080068514;0,012172809;0,03629282;-0,08351821;0,048816774;-0,044919435;-0,014570932;0,040455166;-0,02949089;-0,035563953;-0,054831415;0,062009674;-0,0451094;-0,044712834;0,00922929;0,00523756;0,12107087;0,07501061;-0,037225455;0,10421283;0,15849933;0,0012594933;0,04027639;0,08000111;-0,057693284;-0,012289598;-0,043202143;0,10914402;-0,022933755;-0,104633294;-0,062581435;-0,0077767842;0,14114155;0,0318885;0,01470642;-0,06380368;0,03272692;0,026868898;0,01168617;-0,025916977;-0,05722848;0,056018356;0,028487463;-0,020214364;-0,017130077;0,044208158;0,077897206;0,037757453;0,04241537;-0,008091469;0,08694705;-0,033720408;0,09747542;-0,01263338;0,0021180003;-0,025026817;0,02308832;-0,08451851;-0,008624029;0,058321726;0,016036713;-0,046991114;-0,0155572165;0,05512089;0,002148047;0,029923696;-0,017664818;0,07569598;0,13819657;-0,04918112;-0,044714533;0,072731525;-0,050442595;-0,05462086;0,012111035;0,061327096;-0,024867287;0,0056635668;-0,017049117;0,11102001;-0,06817123;-0,07076826;0,023853295;-0,017123941;-0,008291678;-0,009583756;-0,017722048;-0,019890552;0,007771809;0,0055830004;0,009886143;0,019212663;-0,07023961;-0,057790592;0,04681877;0,02910226;-0,0015755009;-0,013193866;-0,0588174;0,014678828;0,010431224;-0,12273941;0,012895148;-0,045563605;0,073911995
0,0013075788;-0,023560677;-0,07892363;0,016988937;0,13207728;0,111626066;-0,03799527;0,020925246;-0,086279534;-0,020905593;-0,114062816;-0,023773964;-0,017842337;-0,02338546;0,0036535275;0,044611696;-0,01682246;0,020599633;-0,0049746227;0,036884006;0,030026468;0,040562;0,0012337753;0,04521792;0,010507044;0,04723676;-0,09948013;-0,034034904;-0,018820757;0,04765613;0,0064336825;-0,0060854843;-0,11949045;0,006595794;0,06960877;-0,06929631;-0,02145282;0,056221053;-0,046871446;0,001311758;0,040998623;-0,011205806;-0,025724333;-0,109820016;-0,025418075;0,09375357;-0,006125667;-0,039317276;-0,005151266;-0,02981894;-0,022336863;0,024687242;0,048951972;-0,027578741;-0,015201221;-0,13395701;-0,047514375;-0,05046339;0,03581695;0,03608945;-0,020864101;-0,08340583;0,010539144;-0,14909226;-0,05803193;-0,03618978;-0,04718298;0,06974461;0,036912095;-0,03379285;0,088679835;-0,034342106;0,0412229;0,066543385;-0,068762064;-0,042641472;-0,004618336;-0,02831632;0,020692453;0,009154382;-0,001928432;0,034751844;-0,076658465;0,02218793;-0,057483636;0,03184246;-0,03695772;0,10579694;-0,057541084;-0,031577133;-0,060613606;-0,10422829;-0,052613366;-0,0363838;-0,017046982;-0,0034552044;-0,04338322;0,026245141;0,0047173467;-0,07059284;-0,09916563;0,12568423;-0,050304793;-0,018273823;0,08591268;-0,03381807;0,09107738;-0,03869214;0,00590835;0,097975045;-0,07574244;-0,014549235;-0,018816141;-0,0006794117;-0,095747426;-0,06660617;-0,03830302;0,085634865;0,0075883386;-0,130321;-0,077815354;-0,026643442;-0,047502816;-0,014745449;0,024460701;0,03085538;0,014682615;0,01878142;0,03062849;-0,020894516;-0,033855263;-0,041240633;0,16617516;-0,08489586;-0,05096539;-0,033726294;-0,019406375;-0,027559057;-0,048294913;-0,01994833;0,08465926;-0,025125721;0,00020826462;-0,0016135984;0,074348465;-0,11101375;0,014663846;0,057427052;-0,020341609;0,06544115;-0,063977025;-0,070284076;0,011281236;-0,01888705;0,08651801;-0,04174043;0,025393732;0,15658772;-0,025005147;0,024693225;-0,062066093;-0,04190828;-0,04613159;-0,0174818;0,031056255;0,070282616;-0,047786467;-0,025984958;0,042173404;0,040031165;0,10307879;0,11781809;0,015086434;-0,041747708;0,010879568;-0,052248705;-0,02614438;0,058466535;-0,042317603;-0,12319685;0,05647941;-0,040843483;-0,103213154;0,18130697;0,06968575;-0,026766002;-0,04596134;0,10209841;0,0342799;-0,058112603;0,004667795;0,0057388786;-0,11199077;-0,005687521;0,0736891;0,023384403;0,082194045;0,026427925;0,02645736;0,046707045;-0,03768002;-0,047929052;0,0056755;-0,01943999;-0,012667789;0,02934189;0,12889592;0,014003593;-0,029963357;0,0012168837;0,029217748;0,15548518;-0,00064318295;-0,024149982;0,0130808735;-0,09647292;-0,021328436;-0,026603721;0,1553805;-0,0012900846;0,024575753;0,12939678;-0,07456415;-0,0011417639;-0,047618195;0,004767342;-0,05937353;-0,03657858;-0,022572054;0,12872574;-0,0071652243;0,029547334;-0,05468682;0,028591637;0,04384322;-0,0060980786;-0,026928863;0,117432;0,007062859;-0,0034106255;0,09198647;-0,03902217;-0,08466297;-0,014530222;0,04222232;0,040553864;-0,0004636732;0,046451315;0,010693036;-0,020604998;-0,08487013;0,025162522;-0,08123354;-0,066545054;0,033918194;-0,09327528;0,09544397;-0,049153086;-0,023209425;0,08610891;-0,10439651;-0,09306324;-0,00087508536;0,061788708;-0,17425911;0,0386703;-0,08580767;-0,017563682;-0,033790253;-0,052846886;0,0199106;-0,006364078;0,025469702;0,041036937;0,04757506;-0,015453751;-0,036557406;-0,018834518;0,038261153;-0,04388379;0,009904838;-0,021362016;-0,01782918;0,09155743;0,011424329;-0,06305742;-0,033520807;0,019775312;-0,13253158;0,012695011;0,036372203;-0,02523397;0,03792043;-0,011023533;0,0071700024;-0,03218446;-0,105540186;0,026682124;-0,010900964;-0,08663395;-0,09431965;0,10378688;-0,059598535;-0,17115061;-0,05048237;-0,018013358;-0,025044348;-0,00042429598;-0,110500306;0,031301912;-0,02226321;-0,036742587;-0,008147091;0,029036267;-0,04040716;0,017396191;-0,03092999;0,039751105;-0,022481596;-0,01510881;-0,028616356;0,039909348;-0,08327891;-0,15749732;-0,023648731;-0,1408473;-0,039060716;-0,037537515;-0,019301787;0,009571095;0,014501256;0,10012201;-0,03592575;-0,02185936;-0,0035710656;0,025634252;-0,09408119;-0,021423612;-0,02696544;-0,08787557;-0,039608765;0,052085873;-0,08917232;-0,060434304;0,022350097;0,011494207;-0,017786799;-0,005915174;0,020353751;0,02957992;0,043870486;-0,09984526;0,022579174;0,06293642;-0,010556061;0,010858082;-0,006646092;-0,0127920285;0,11043941;0,07351149;0,08099164;-0,093688585;0,1090712;0,04513306;0,101108804;0,04407119;-0,0019813639;-0,046062022;-0,008615062;-0,08676831;-0,047877077;-0,019061731;0,101929784;0,005694106;0,042525876;-0,019070705;0,03646;-0,028567025;-0,07412687;-0,039507423;0,05184576;0,09651949;-0,027531032;-0,07707226;-0,0224903;0,078020714;0,022182908;0,0936903;0,036437485;0,17610234;0,009026263;0,011802843;-0,085949816;0,059189156;-0,099094026;-0,06651104;-0,0068050404;-0,025293207;-0,014741618;0,10228413;-0,05740235;-0,097305834;0,02299402;0,13655844;0,037025176;0,02731172;0,03794809;0,013236249;-0,041526534;-0,07980384;0,011896062;0,0956655;0,07272009;-0,116226636;-0,011710762;-0,05963252;0,03595204;-0,06735344;-0,05684561;0,06601864;0,01004083;-0,058271565;-0,019975046;0,029466784;0,037337225;-0,01950792;0,00782462;-0,0038295896;-0,030496469;0,038751766;0,0115239825;-0,015142276;0,04231614;-0,009671587;0,012817138;-0,036931198;0,0132012945;-0,07947385;-0,037966765;-0,13243575;-0,017372264;0,028950192;0,102073595;0,020207444;-0,08722774;-0,032123186;-0,04137752;0,013109927;-0,031847995;0,04927227;0,06509279;0,11553161;-0,03864776;-0,057278696;0,042806655;-0,007820371;-0,034606677;-0,074663304;-0,089943066;-0,09957572;0,0415788;0,05526945;0,1248526;0,05081212;0,1455113;-0,013264837;-0,09169062;0,038462527;-0,049329575;-0,017765803;-0,011027562;-0,03824973;-0,02989818;0,048035014;0,013312639;-0,017430844;0,062254783;-0,11026527;-0,068019465;0,028361969;0,14716879;-0,060064614;-0,033123046;0,13007338;-0,040613785;0,0010152607;0,010190559;0,05143449;0,064259395;-0,041263714;-0,10828676;-0,002284045;0,000931008;-0,039638277;-0,060625274;-0,0021466417;-0,007015364;-0,030287791;-0,03991969;0,17678364;-0,08869797;-0,0730654;-0,037405808;-0,00073065195;-0,007666968;-0,07040242;0,021832636;-0,02806077;-0,0027781765;-0,021972768;-0,09479472;-0,05460522
-0,043552116;-0,032321252;-0,031756055;-0,012045322;0,049312737;0,00059668085;-0,02501087;0,019250104;0,103790745;0,001423432;0,06408989;-0,04293053;-0,008305334;-0,010447327;0,014206943;-0,09222519;0,06880538;-0,04248028;-0,021671457;-0,019281924;0,042778324;0,023958648;-0,015683662;0,0070008994;-0,029452382;0,030055678;0,018989656;0,013854671;-0,025510358;0,07194076;-0,0006552215;0,032375634;-0,044309217;-0,047866926;-0,16732414;0,034490775;0,0096988445;-0,10262463;-0,12840387;-0,07210758;-0,007320848;-0,044529207;-0,09604797;-0,04588344;0,044043448;0,09515541;0,043657176;0,050770015;-0,0426897;0,0069821817;0,02104834;-0,015414465;0,014756692;0,05923356;-0,014836669;-0,041336186;0,03978711;0,008934793;0,041028727;0,045401316;0,0056791524;-0,05026847;-0,0033314426;0,064043224;0,090828955;0,033384375;-0,0044544563;0,08498198;-0,012161412;-0,031943865;0,1451063;-0,008010376;0,04054112;0,02462085;-0,0034927472;0,06436786;0,017292304;-0,021392453;-0,059041776;0,067824416;0,0349782;0,031864464;0,081763566;0,020911159;-0,008951441;0,058626425;0,095139556;-0,08415325;0,015615906;0,0036367285;0,012126868;-0,06183954;-0,054608688;-0,022305638;-0,061757665;-0,032302245;0,050788574;-0,13533828;-0,021350197;-0,005620382;-0,007442857;0,019145392;-0,06399964;0,020711452;-0,03930397;0,016817814;-0,06403279;-0,03390494;0,0049561583;-0,07058553;0,047083084;-0,021888265;0,022721566;0,100016996;0,068667755;-0,02950859;0,0039826953;0,08188417;-0,035335623;-0,035729606;0,17469256;-0,082196414;-0,009947492;-0,02344603;-0,016498614;0,0416141;-0,04313327;-0,011655499;0,07681146;-0,012151063;-0,015818076;-0,023682432;0,12185719;0,0931606;0,034244064;0,061853934;0,068177216;-0,05779005;-0,06404529;0,027033797;0,10282322;0,0076208115;-0,06573419;0,05015462;0,016737226;-0,079710476;-0,03285296;0,024971917;-0,10889473;-0,06641721;-0,060791943;-0,045514088;0,1108518;-0,14992294;-0,051577136;-0,034915894;0,116153106;-0,000843713;0,009588576;-0,03651063;-0,016953038;0,02042458;0,021131001;0,03238142;-0,0012687411;-0,0051583922;-0,044751067;-0,058192868;0,028232366;-0,04026473;-0,09976394;-0,016956704;-0,0842737;-0,04549906;0,07904469;0,10597987;0,009035856;0,0029676447;-0,02171239;0,0904738;0,013600469;-0,015057204;-0,0916355;0,13645327;-0,0055079795;0,0006844996;-0,029983692;-0,070887044;0,08117811;-0,06919817;0,01834823;-0,016696392;-0,07243049;0,017319346;-0,07420611;0,039117973;-0,0023402688;0,0052886233;-0,022357352;-0,04097345;-0,017471986;-0,029542424;0,17268042;-0,08633524;-0,0097932955;0,06999038;0,14531462;0,010711675;-0,018847937;0,04224316;0,013892337;-0,061878543;-0,05181651;0,026208412;-0,03773266;-0,008480348;0,01714957;0,0034462449;-0,0055547184;-0,020639597;0,016341949;0,011470538;0,01353493;-0,10820279;-0,05891628;-0,06476671;0,0052508926;0,008211083;-0,041420948;-0,06028584;0,028566554;0,03789854;-0,038443398;0,020342326;0,0068038045;-0,0011496131;-0,0046422156;0,000981016;0,0018909799;0,0012019011;-0,05467945;-0,031664845;0,046889953;0,058212046;0,038442392;-0,0916885;-0,01285897;0,012912202;0,032276753;0,019924102;0,071860656;0,085388616;0,07263632;0,10061116;-0,03783188;-0,027484816;-0,07114643;-0,047650285;-0,023259487;0,01741937;0,043294232;-0,0739906;-0,07043903;0,095751956;-0,072988324;-0,037787236;0,014514951;0,06150996;0,0015904047;-0,03530929;0,07052588;0,020197006;-0,03996949;-0,030143004;0,05290899;0,04148252;0,028786449;0,09711264;-0,036787402;-0,0016345066;-0,07084306;-0,008155924;-0,018263783;-0,086634435;0,0022348291;-0,02202047;-0,0023398355;-0,07077407;-0,02538807;-0,062107366;-0,12911381;-0,02769177;0,041559692;-0,0774678;-0,013649895;-0,024866777;0,03959645;0,034594364;0,043000665;-0,040244684;0,0071299593;-0,08318248;-0,008878882;0,13538998;-0,07811596;0,07137535;-0,05405591;0,000708481;0,088489205;0,04612292;-0,009286623;0,03458377;-0,08439817;-0,025181372;0,02765958;-0,13397343;-0,018058695;-0,028959168;-0,051145196;0,0021861792;0,055500355;-0,04305778;0,023230309;0,0009599392;-0,038850103;0,039495293;-0,021674752;-0,014908029;0,034574326;-0,030542424;0,033919428;0,023209643;-0,0042494964;0,034978926;0,081497826;-0,034455158;-0,05216349;0,0051953327;0,06119937;-0,076502346;-0,016018746;0,075008914;0,05342572;-0,036375657;-0,014414868;-0,011255117;-0,07203669;0,022617262;0,046715997;0,01996915;-0,062452395;0,0031580746;-5,351101e-05;0,047766507;-0,0061447285;0,0025715153;-0,013769783;-0,023225198;0,12350913;0,031093284;-0,0077483705;-0,033546083;0,084739074;-0,0075934883;0,026892262;0,0039271857;-0,02940823;0,033269774;0,04421304;-0,02304305;-0,0050014844;0,0047074677;0,15808798;0,027709968;0,003353506;0,014320288;0,069405645;-0,041406643;0,10465983;0,019055996;0,00047861022;0,014220282;0,0058301976;0,039560333;-0,06555509;0,100370884;0,04493999;-0,09548849;-0,039068997;0,039418634;-0,048663985;-0,017292991;-0,0014849165;0,13155067;-0,025235064;0,014156383;0,016194994;-0,049871214;0,014848187;0,006722759;-0,034018707;-0,025520725;0,062316783;0,03472883;0,07805036;-0,032888692;0,1141174;0,040327664;0,01597592;0,047357615;0,07572313;0,04413657;0,05952128;0,07564365;0,07662848;-0,0307799;-0,033206396;0,016693452;-0,040427607;-0,035579905;-0,029180875;-0,03386704;0,046477795;-0,032978117;-0,015575387;0,02141173;-0,061171494;-0,0649987;0,016024595;0,02768411;0,039004203;0,026821084;-0,016752092;0,005370724;-0,06935723;0,06803387;0,094770245;-0,09135767;0,14908662;-0,07657036;-0,022019628;0,013305521;0,010107841;0,005098938;-0,047889713;0,040724847;-0,029146895;0,06954787;-0,010106361;-0,04306419;-0,06655513;-0,043639507;-0,057249863;0,016976569;0,04500085;-0,041006073;0,011569955;-0,07018779;-0,059802037;0,017689653;-0,015602317;-6,226576e-05;0,023514396;-0,035847947;0,0751056;0,047374435;0,11403473;0,03985653;0,005404832;0,021850513;0,08719945;-0,08237839;-0,037142336;0,0037106143;0,035211895;-0,06834126;0,053299934;0,10017349;0,032907084;-0,0041234787;-0,031934086;-0,04612445;-0,029052278;-0,07304775;0,032579947;0,0075406665;-0,013573785;0,053198237;-0,07111045;0,09265333;0,061130013;0,022748435;0,015768759;0,042831108;-0,047927603;0,036800463;-0,0021343934;-0,007365468;-0,022975728;0,03778192;-0,021428103;-0,012666333;0,010406455;-0,029338637;0,01459761;-0,003841957;-0,00556626;0,03917158;0,09037143;0,0028692032;-0,0632913;-0,06959941
-0,040510863;-0,027594712;0,01987274;-0,044386633;0,015070779;-0,011283698;0,02997001;0,049455434;-0,03317864;0,01886622;0,10310554;-0,067753464;0,044952862;0,018069247;-0,032127354;-0,05994928;-0,07176156;-0,017648388;-0,031947814;-0,006446416;0,020688156;0,050695155;0,009835367;-0,013674964;-0,04146169;0,033321362;-0,034600083;-0,0075361617;0,004501371;-0,08926995;-0,012129453;-0,022788594;-0,13759694;-0,026274139;-0,030306539;0,11922289;0,043931168;-0,061373096;-0,021825224;-0,006181624;-0,045657597;0,033300977;0,036718;-0,08357862;-0,027022058;0,038308498;0,05555964;-0,01485039;0,012282051;0,016578157;-0,029357204;0,008621606;0,05493221;0,03958365;-0,0056486316;0,019664302;-0,028630152;-0,025596885;0,09784415;-0,012269402;0,08166988;-0,06784339;-0,03997245;-0,044421237;-0,01073789;0,015939416;-0,06452074;0,050913315;0,015091751;0,008353594;-0,045680616;-0,029969163;-0,005891298;0,0033765298;0,020475095;-0,072612375;0,032272886;-0,027130267;-0,057934146;-0,012083049;0,036272816;0,028027667;-0,086465865;-0,023799183;-0,052561596;0,0042812303;-0,053769216;0,04681789;0,0051711267;0,07407065;-0,07550045;0,009803499;0,10018237;-0,03819552;0,0023655954;-0,009671804;0,018667107;-0,105153054;-0,00057976105;0,056025047;-0,02403621;0,038456798;0,09928061;0,068060264;-0,028040852;0,020420447;0,010926844;-0,020275312;-0,028118301;-0,022497065;-0,05038271;0,0483372;0,0050013205;-0,039003085;-0,039399587;0,032873057;0,009882148;-0,09101475;0,008901801;0,03960048;0,082715295;0,0828567;0,0014657179;-0,090194605;0,03347795;0,067387804;-0,033176158;0,036654588;0,1117856;-0,054631386;-0,02937204;-0,025274837;0,09186328;-0,043698687;-0,014901764;0,054016687;-0,058399163;0,0024369936;0,052278854;0,054256305;0,102860875;-0,063439265;-0,020493366;-0,036556832;-0,030848118;0,14649026;-0,03670976;-0,038181067;0,027020937;-0,03175502;0,027986683;0,012329614;-0,030614689;-0,0039952165;-0,03420025;0,0032891827;-0,043570213;-0,03634198;0,024514634;-0,03446769;-0,0023518435;0,024348123;-0,068149485;0,030162279;-0,035510607;0,008380995;0,18030204;-0,0093944585;0,07604794;-0,031265497;0,042855337;0,13942169;-0,028030064;-0,11277307;-0,026108535;0,041598763;0,0044014393;0,02001622;0,047097463;0,005520466;0,0043350444;-0,08455575;-0,10105008;0,06740097;0,04171521;-0,06772217;0,04362058;-0,047920756;0,093922876;0,057019092;-0,005277239;-0,03768263;0,07813568;0,036909293;-0,08471903;-0,021675333;0,011030219;-0,016202433;-0,037728537;-0,013679677;0,045220036;-0,032993384;-0,0147451;0,014085435;-0,021751186;0,050478023;-0,004260139;-0,028822577;0,0053361286;0,041780412;0,012615489;0,07746846;0,022879403;-0,004778743;0,0437065;-0,06584349;0,004887966;0,013845598;0,14373288;-0,034381907;-0,02591382;-0,053382542;0,00047630048;-0,059617978;-0,019060818;0,0626487;-0,09737971;-0,019311344;-0,051319215;-0,049279317;-0,0821902;-0,005535751;-0,09582165;0,04219025;-0,09582242;-0,062492844;0,017971758;-0,036909457;-0,0234076;0,032813676;0,026115948;-0,011277833;0,08113154;-0,065801814;-0,096230544;-0,09593485;-0,041100845;-0,005774542;-0,039425965;0,026214197;0,054826573;0,050878186;-0,06455224;-0,055096313;-0,011690126;-0,031344064;-0,019802898;-0,07271336;-0,038209103;0,14485343;-0,07661719;0,070832856;0,11219214;0,09141367;-0,061139334;0,007277605;-0,039934017;0,07206229;0,03906284;0,011161763;0,052001253;0,060610265;-0,023631094;-0,022930775;0,061471023;-0,039412864;-0,023329003;0,017297385;-0,029838884;0,085348375;-0,044415813;-0,019332908;-0,017489966;0,020803947;0,06427672;0,03584576;-0,018767113;-0,040578805;-0,084970415;0,050563995;0,013043301;-0,01395029;-0,0035979892;0,047488872;0,042293303;-0,01876117;-0,0920218;0,025356123;-0,06460817;0,0025869205;0,063943386;0,0833981;0,072294906;-0,041154616;-0,05944651;-0,019642;-0,022228258;0,0046833623;-0,056831934;-0,013074675;0,037163515;-0,059338104;0,025052339;-0,078862436;0,027481217;-0,074812606;-0,04298415;0,00093088485;0,021563856;0,009039809;0,070466615;0,020989839;-0,027867328;-0,08591836;-0,0052866605;-0,005624324;-0,017836554;-0,026063567;-0,06980207;0,00815443;-0,027847422;-0,049417425;-0,015902026;-0,0132573955;-0,04161102;0,026509346;-0,01019894;-0,009141882;-0,03997221;-0,04230189;-0,04788639;-0,071591035;0,06936898;0,09852728;0,03295507;-0,011460474;-0,055221293;0,0431533;-0,05743533;-0,0008286278;0,01123797;-0,01694771;-0,029963808;-0,038219642;-0,01206734;0,055420198;0,01491316;-0,023415975;-0,035979785;-0,017831303;-0,05124492;0,02467176;-0,054527465;-0,1059636;0,04433792;-0,033370465;0,012567282;0,13186668;0,023885872;0,05667245;-0,027013691;-0,07200959;0,13520573;0,025473155;-0,07673511;-0,004592683;0,025650188;0,01902861;0,114979245;0,017123306;-0,016575664;-0,043969143;0,036149807;-0,007222297;0,0019801322;0,04434188;-0,030156188;0,085081;0,051023483;0,06657323;-0,07586772;-0,014314928;-0,06644172;0,056114722;0,103475444;-0,042745855;-0,015865019;0,006222827;0,031136869;-0,03814141;0,02182374;0,090498306;0,07120499;0,054631412;0,05466066;0,041110627;-0,00086604396;0,059171766;0,10265868;-0,06693292;0,09020956;-0,07078264;0,14334503;-0,014039552;0,014535068;0,0084171295;0,054051466;-0,01704498;0,06964574;0,03623648;-0,029734146;0,047702346;0,077871755;-0,055638727;0,00091822486;-0,045198046;-0,07256173;-0,070618145;-0,0364576;-0,02657192;-0,06483349;-0,040880024;0,025328718;0,070019834;0,019845115;0,11468616;-0,08592056;0,04061604;0,0893023;0,0059301932;-0,0007102401;0,01589943;-0,09221146;-0,04567161;-0,050605908;-0,030211603;0,040870667;-0,07638503;0,011415987;-0,01726368;-0,013510266;-0,0031696942;-0,0049597374;-0,0630253;0,09042769;-0,0652297;-0,024052152;0,048866477;0,015858969;0,033316165;0,01738071;-0,030752199;-0,09846686;0,036254127;0,031063184;0,012765196;-0,0063522803;0,038670864;0,0038110584;0,007863323;0,021008266;-0,031728707;-0,02589575;0,021071821;-0,037169322;-0,08525346;-0,108160205;0,10799942;0,15325388;0,034912862;-0,014992131;-0,018609384;0,015168214;0,1578158;-0,0036331767;0,039035015;0,064486906;0,02094052;-0,030286761;-0,09163544;0,018294571;-0,021564513;0,014721646;0,018576432;-0,009898676;-0,058765367;0,022291914;-0,01692162;-0,021797733;-0,030323407;0,04895172;-0,09539785;0,02906661;0,04332992;0,08683514;0,116779946;0,03786762;0,08169895;-0,094074845;-0,010792739;-0,031578097;-0,09869251
-0,0016510503;0,02489304;-0,011577359;-0,044353165;0,044101715;-0,010989232;0,03511843;-0,047253385;-0,06658227;0,0020853875;-0,12359262;0,0658967;-0,06016781;0,010021911;-0,0021283189;0,10012567;-0,027566023;0,03515915;0,102379344;0,043907784;0,022347469;0,04692614;0,01518104;0,021168478;-0,0022825429;-0,066204704;0,04840175;0,0021258835;-0,00089946424;0,06665445;-0,03394371;-0,034894243;0,03378222;-0,036418226;0,06876345;-0,018923292;-0,014328678;0,05379588;0,14282325;0,047443613;-0,022477468;0,06521075;0,06640119;0,04304825;-0,011772044;-0,04439928;-0,11523161;0,06144414;0,029559815;-0,039628975;-0,025450295;-0,045221847;0,013729808;0,09350163;-0,02407764;-0,025436463;-0,07863933;0,01872162;0,02718855;-0,0048794225;-0,07587593;-0,06277961;-0,028970756;-0,036849454;-0,044442687;0,008626635;-0,03792902;0,014852018;-0,015171441;-0,03530738;-0,05174784;0,09652843;-0,10177647;-0,102259375;-0,10985934;-0,009692621;0,022767315;0,026382152;-0,057716414;-0,04333288;0,015897956;-0,013885005;0,10406215;0,037364792;0,09956984;-0,04283915;-0,09060454;-0,06924396;-0,028586952;0,007597161;0,054189373;0,012342865;0,02464685;0,04061625;-0,031687927;-0,004730233;0,0926653;0,10519606;0,019473856;0,0028186967;-0,015653621;-0,065526076;-0,120630026;0,0145767275;0,067295365;0,055601697;-0,046098955;-0,018754689;0,028787125;0,0874275;-0,0048106923;0,095551096;-0,012927645;0,018696196;0,020183548;0,05075224;-0,015315535;-0,022464614;0,039358273;-0,13454673;-0,034317024;-0,030310972;0,052520275;-0,023379035;-0,04194503;0,027648162;-0,02575526;0,015534771;-0,059837732;-0,026868595;-0,018975936;-0,015141759;-0,08319554;0,09956291;0,0370947;-0,04285428;0,03577624;-0,037977803;0,0634395;0,029238217;-0,09820747;0,04739938;0,06729185;0,004860128;0,031574365;-0,082091615;-0,09265921;-0,013212461;0,06697016;0,023622883;0,04070549;-0,017014893;-0,04829971;0,026754651;0,04643743;0,023025373;0,045065183;-0,104172125;-0,012737314;0,015403501;-0,061154455;-0,011045349;0,029074114;-0,027391035;-0,039723266;-0,07631291;-0,100574404;-0,0040048934;-0,013671052;-0,0074735614;-0,064379886;-0,06634519;0,025322948;-0,023637356;-0,032259453;-0,105103254;-0,031710804;0,03899668;-0,015034558;0,08499191;-0,018394638;0,07220945;0,021360895;-0,001759142;-0,034676287;-0,04436596;-0,059675943;-0,14766262;-0,13862579;-0,025456568;0,046779685;-0,040710665;0,028952735;-0,024541823;0,015014358;-0,029966304;-0,10484227;0,011741494;-0,029738061;-0,07020106;-0,04013409;-0,09454685;-0,024167743;-0,017740222;0,015374273;0,017669355;-0,0013419521;0,03604364;0,0122249685;0,014166911;-0,028944016;-0,09472296;-0,0049062604;0,16958335;0,05729277;0,025045093;-0,05230113;-0,016628265;-0,067574464;0,018372908;-0,040377777;0,017021859;0,013407051;0,08080172;0,029274799;0,00019153893;0,00251389;-0,011909905;0,09742795;0,034826156;0,082072474;-0,008871425;0,121994;0,022099664;0,054483548;0,032493405;-0,031280186;-0,107155085;0,02328872;-0,037444197;-0,015245517;-0,0140933;0,056958303;0,15830086;-0,085196756;0,06456227;-0,018001702;-0,019890808;0,009547524;-0,030064307;-0,02420066;0,02414834;0,014698197;0,1130049;0,08017038;0,05389671;-0,009875403;0,007264622;0,038017575;-0,08460338;0,17112012;-0,03179783;0,01655256;-0,05802744;0,16029379;-0,08223038;-0,12529491;-0,026371952;-0,056075864;-0,03843978;0,012557557;-0,0642645;0,02196997;-0,0017005791;-0,006645588;0,0047310377;-0,012034658;-0,031218337;0,04824203;0,0053296057;0,044588003;-0,005732848;0,096309565;-0,07080951;0,007981048;0,02129564;-0,038053587;0,0052332394;0,10904733;-0,021318369;0,01911122;0,0021561598;0,035208397;-0,045320295;0,049487192;0,04988339;0,10819931;0,038506035;0,057934716;0,15749303;0,039349023;-0,090459004;-0,042356756;0,021406574;-0,08648495;-0,05668235;-0,018512217;0,041378144;0,00285706;0,03925088;0,010646089;-0,080697075;-0,08900526;0,025633793;-0,041167315;0,16606534;0,00012015003;-0,03233014;-0,011770145;0,017327812;-0,090490036;0,010406902;0,03785247;-0,032834187;-0,032604806;0,033447623;0,07802161;0,0024314402;-0,06298364;-0,02711293;-0,005791784;-0,05936983;-0,021848274;0,032980748;0,033402536;-0,03538659;0,0001251764;-0,039741363;-0,08855281;0,08492544;0,073126204;0,03266541;-0,07731553;0,00787109;-0,101926066;0,03516696;0,13726881;-0,0066563166;-0,081559926;0,027861293;-0,041603047;-0,027288169;-0,09851621;-0,018156465;-0,012133587;-0,007243207;-0,044722386;-0,008403272;-0,038146883;-0,038450893;0,020938229;-0,054732934;-0,07425458;0,055173945;-0,031506862;-0,022697052;0,030394318;0,024863608;0,007922709;0,07176428;0,09956968;-0,027572673;-0,048126243;-0,016081223;0,0065495535;-0,010595496;0,02154125;0,033225577;-0,023781933;0,08589228;-0,045746036;-0,03963548;0,07060805;0,058384564;0,047123395;-0,049012255;0,05884595;-0,006745475;-0,02543291;-0,069314435;0,10374385;0,029062096;-0,085174285;0,03382294;-0,06991942;0,053525552;0,028060053;-0,0009792274;-0,03948296;-0,01662586;0,09779491;0,11689907;-0,048584223;-0,07201366;-0,13328256;-0,0032620034;-0,069882974;0,048967976;-0,029223403;0,09046583;-0,06551971;-0,0860935;-0,04086689;0,024867494;-0,0053780875;-0,036968425;0,0355805;0,09341572;0,011036387;-0,016097704;-0,012083154;-0,041457325;-0,07090367;0,024388157;0,019406455;0,048023276;0,05087281;0,0011139258;-0,006395272;-0,0052606687;0,041848328;-0,06445867;0,0030723072;0,038259417;-0,060654636;-0,004692015;0,09472635;0,07445241;-0,1008314;-0,0252247;0,040509637;0,036453485;0,069455415;-0,02030026;0,0019458054;-0,04178623;-0,018086651;0,005758966;-0,0048344284;-0,045686126;0,020614138;-0,09209474;-0,023055375;-0,0949917;-0,0068092085;0,019647289;0,033827946;-0,062390663;0,043892257;0,0149584375;0,017052427;-0,034554504;-0,027978513;0,0007365758;-0,07014426;0,031127838;-0,11632789;0,034484394;-0,03500762;-0,015137809;0,026358524;0,07171895;-0,030343734;0,025231475;-0,013612075;-0,11491617;0,023907267;-0,051919952;-0,070858106;-0,025396105;-0,042654373;-0,01914812;-0,037509922;-0,11137915;-0,03965142;0,0048241075;-0,06145784;-0,049898498;0,12249729;-0,037417904;0,0022263296;-0,046375208;0,034411706;-0,009146107;0,034021374;0,0048004896;-0,0030686492;-0,012670933;-0,037084673;-0,096146576;0,0383659;0,07892066;0,026250295;-0,0034654352;-0,07035322;0,09425004;0,011423759;0,056547526;0,155265;0,0367558;0,16475612;0,071844645
0,03767809;0,011998332;0,050297294;0,025394239;-0,071916245;-0,026671274;0,018259386;0,04035487;-0,009299885;0,04113226;0,1043295;-0,03321003;-0,035312925;-0,0020660902;-0,022218173;0,019955281;-0,07841614;0,043452434;0,042106513;0,03952676;0,016496839;-0,022722961;0,0076078125;0,046011508;-0,013305733;-0,059044078;0,08995363;-0,014864614;0,059472524;-0,0073064417;-0,027770357;0,039488733;0,073227674;0,07826487;0,003861619;-0,0021748033;-0,04021355;0,012776937;0,020793999;-0,03998339;0,036533184;0,034883775;0,06503291;0,06419797;-0,032672774;-0,0045151594;0,04506432;-0,055761673;0,030772842;0,04118082;-0,018116409;-0,03513937;-0,011612714;0,027252903;-0,0042299847;0,044135448;0,05873192;-0,045522377;0,008692388;0,026127784;0,0435912;0,10327877;-0,017322382;0,063259736;0,051636234;0,013631456;0,019263385;-0,092534065;-0,03471268;0,0027891267;-0,036516376;-0,06266524;0,0028896024;0,08718893;-0,019559246;-0,011158848;-0,014314741;-0,018334746;0,044128817;-0,044759143;-0,073807545;-0,039337486;-0,075977705;-0,036897887;0,02413363;-0,003806422;0,032322135;0,06611093;0,032842524;-0,015099766;-0,01674034;0,07145105;0,02860185;-0,009145053;0,012340068;-0,00297453;-0,075210616;0,026502397;-0,027675025;-0,052281972;0,003714711;-0,047952447;0,015489216;-0,022088047;0,008283959;-0,02088354;-0,036699887;-0,043841716;-0,031203901;0,05911083;-0,0016432622;0,020952938;0,0027059584;-0,011922509;0,009289464;0,04950244;0,036217634;-0,05459471;-0,015320338;-0,06441606;-0,05354957;0,13125667;-0,033270378;0,019639548;0,022957945;-0,061722122;0,010963467;0,009275934;-0,029157856;-0,025387034;-0,0029935664;0,0028293547;-0,03848232;0,015507818;0,021335533;0,019900238;-0,09350454;0,06291858;0,07736722;-0,08194337;-0,06251619;-0,012491107;-0,0595668;-0,10469361;0,034008503;0,13101687;-0,03515515;0,015404761;0,045773894;0,09663667;0,09154249;0,10004105;-0,060859893;0,074746765;-0,04060636;0,031633027;-0,08499361;-0,014574682;0,017205076;-0,026892416;-0,05197869;0,009751115;0,058084626;-0,037556306;-0,021438893;-0,06224531;0,09737195;0,007189596;-0,06317725;-0,038801197;0,009636812;-0,09468856;-0,067035235;0,11397885;-0,04386433;0,0119848745;0,026560547;0,0069909464;0,0043482147;-0,06989131;-0,052986998;-0,010076236;0,039366778;-0,09080842;-0,031999078;0,009672648;0,083722025;-0,041583102;0,020788372;0,05812672;0,036141552;0,04200393;0,024395274;-0,019554276;0,08141748;-0,045056153;0,024487717;0,041574266;-0,05083736;0,003388004;-0,010896219;-0,0033109002;-0,06561477;-0,009833393;0,024196565;-0,08276647;-0,085662566;0,0031992053;0,06700253;0,02422779;0,017867846;0,04293044;0,047082182;0,013388166;-0,022023972;0,04265938;-0,07299784;-0,027624285;0,027235579;-0,011270607;0,027339494;0,008041671;0,01916864;0,003952189;0,050155565;0,05562454;-0,009719696;-0,0041157426;0,0034055319;-0,046286296;-0,0666042;0,046755236;0,055857576;-0,01831033;0,01786213;0,02323045;-0,039730888;-0,006326922;-0,016889244;-0,00097610086;-0,022515154;-0,01909153;-0,0040326947;-0,054456703;-0,09121441;-0,0107705565;0,016217766;-0,055830155;0,036634367;-0,017459402;-0,013840781;0,005156428;-0,084635235;-0,0642998;0,016961837;0,1008789;-0,0648144;0,02445839;0,032537594;0,13187166;-0,075107925;0,09736448;0,11051684;-0,00032235667;-0,0021012807;0,06845516;0,03128805;-0,024483854;-0,017735446;-0,0077071255;-0,05610257;0,05947893;0,0011629299;0,0722759;-0,07440657;-0,04203325;-0,028875992;-0,0007609937;0,055142395;0,013311915;0,03900946;-0,021658318;-0,00026128252;0,054170083;-0,010750856;0,018996734;-0,04247601;0,03210321;-0,029637933;0,0901828;0,10660942;0,08030631;-0,04467657;0,045815524;0,008554398;0,050330136;-0,0362272;-0,03206066;-0,06728701;-0,066905744;0,046627797;0,12486365;0,06872139;0,027843805;0,09949236;-0,0263415;0,10203684;0,012118524;-0,04027662;0,030744143;-0,040611833;-0,0028145893;0,0915811;-0,06082451;0,11086439;0,08226164;-0,034883212;-0,01372409;0,033379853;-0,016329493;0,02604924;-0,01845216;-0,010888245;-0,029336542;0,006386184;0,031151304;-0,015089176;-0,034774575;0,08634525;0,012579012;0,017175544;0,09973712;0,022503113;-0,023415986;0,0023684585;0,03637116;0,074846946;0,039930142;-0,08673883;0,05119189;-0,022876816;-0,078843586;-0,05776524;-0,11847553;0,042213023;-0,0068783807;-0,03199301;-0,022595013;-0,06315424;-0,038429633;0,0588776;0,008574003;0,09908559;-0,008377464;-0,016508747;0,011425625;-0,037911408;0,004464053;-0,047424857;-0,04897823;-0,01524054;0,015611617;0,016420305;-0,009392581;-0,06041955;-0,023557905;-0,018532012;0,03743444;-0,02398797;0,04155739;-0,020354504;-0,055148564;-0,06010787;0,06782176;-0,031486977;-0,016319588;0,04396937;-0,03901682;-0,042627797;0,043064486;-0,04658364;0,0009534135;-0,015011152;0,02606794;0,022766722;-0,0010938639;0,025602706;0,028590724;0,022559177;-0,0627346;-0,022101201;-0,023965124;-0,021376245;-0,119559504;-0,0051456974;-0,022777526;0,042371884;-0,019069843;0,0028456093;-0,04074929;0,038797118;0,005978556;-0,022877367;0,023023946;0,029910479;0,019379422;0,04113632;0,072135516;0,06838782;-0,03883177;-0,095035546;-0,07354995;-0,01554755;-0,07315719;-0,061079193;0,0575468;0,11041539;-0,002001161;0,04378958;-0,061023124;-0,037844278;-0,034888368;0,013554405;0,0521887;-0,0559512;-0,039339837;0,05475421;-0,0018154077;-0,023423979;0,014392915;-0,02753941;-0,07532115;-0,011161755;0,075031295;-0,01868;-0,06951801;-0,08832552;-0,038330775;-0,07479904;0,024557129;-0,027843632;-0,02479052;-0,10122352;-0,018609537;0,010771215;0,047353387;0,027229542;0,025143415;0,050951146;-0,04605337;0,037898075;0,00785124;-0,027096666;0,069566704;-0,023703141;0,04438303;0,011328778;0,053287018;0,07071439;0,047786776;-0,015420208;0,061928;0,024349496;-0,045325674;0,024728576;0,031878956;-0,009530016;-0,036138143;0,09268529;-0,034558695;0,061903607;-0,04507692;-0,01543925;-0,025560029;0,0439303;0,07637393;-0,0120236855;-0,021267986;0,07573472;0,017766826;0,033827666;0,0071525583;0,032170996;0,075624764;0,006972282;-0,03063133;0,087486364;0,021056768;-0,014992299;-0,067931786;0,051057514;-0,0205621;0,0081343455;-0,026981015;-0,05390214;-0,013254393;0,008178212;-0,035845503;0,038331036;-0,08002603;-0,04402018;-0,02096782;-0,027827583;-0,0012522268;-0,03540686;0,014901473;0,04410269;-0,088326104;-0,12305403;0,04026764;-0,043589707;0,035729084
-0,008143429;-0,02799299;-0,0021054624;-0,04362188;-0,070156224;0,008099365;0,003589453;-0,049504437;0,029410576;-0,022152795;-0,09535544;-0,06329258;0,11620602;0,0043574553;-0,012269575;-0,021892823;0,0801541;-0,006221775;0,009398857;0,016359704;-0,018414302;-0,002423973;0,00935876;0,03509968;0,020152956;0,06759795;0,023353584;-0,061034378;0,11526531;0,11052472;0,0096358685;-0,031245526;0,20705196;0,06134476;-0,011267851;-8,2056096e-05;0,020971704;0,04308089;-0,045987576;-0,00880799;-0,00514291;-0,0556717;-0,080085985;0,14710262;0,0005303725;0,16137807;-0,006559637;0,061167978;-0,017213827;0,039405297;-0,041317042;0,035173852;-0,059880443;0,07099412;0,011650344;-0,029677667;-0,03546526;0,054616623;-0,018035712;0,05150381;-0,10312459;0,0629841;0,038029;-0,05000186;-0,03023789;0,011823473;-0,0501337;-0,06263546;0,006880822;0,03342968;-0,026753487;-0,060314387;-0,01078385;-0,050235882;-0,03949467;0,115763724;-0,05958549;0,0063821017;0,0331949;0,12726444;-0,085338935;-0,0029196474;0,089089416;0,041256;-0,028429156;-0,07212451;-0,043538276;-0,004528097;-0,047689855;0,068815105;0,055290435;0,092831664;-0,12544215;0,06932301;-0,012494105;-0,041130472;-0,045769423;0,022352368;-0,0019564866;-0,0023223823;-0,100333326;-0,09530159;-0,021222271;-0,062855564;0,06328618;-0,037881907;-0,089914136;-0,020184983;0,043537833;-0,1159458;0,043372538;0,029547457;0,013821081;-0,04542628;-0,013370982;-0,12203967;-0,018458892;-0,036969967;0,043183245;-0,08378111;0,0046955077;-0,059569005;-0,045317397;0,024891574;-0,039189145;0,07606724;0,030363513;0,015996017;0,085121244;0,037708916;-0,017156519;-0,00070346566;0,05551785;0,18489845;-0,04149998;0,07183031;0,042163756;-0,0016772171;-0,048762746;0,0025003375;-0,07849387;0,034426853;-0,10781494;-0,0797019;0,0030477124;-0,010002925;0,013339744;-0,013243353;-0,09393271;0,10824212;0,058417674;0,040864553;-0,055768315;-0,16460313;0,0656225;0,019219218;0,060598798;-0,07148785;0,0076249363;-0,044648044;-0,049363557;0,031161081;-0,037743203;-0,018521106;-0,051017486;0,020199455;-0,08363619;0,008652633;0,03011194;-0,022136275;0,042122748;-0,00066487904;0,09489613;0,036120623;0,0028106465;0,0026105947;0,017809931;-0,0364387;0,014562536;0,061334573;-0,07372161;0,05535199;0,056659747;-0,020354586;-0,101680845;-0,057732467;-0,055023793;-0,11020181;0,0010485707;0,061263148;-0,006350406;0,021703333;0,021324433;-0,014533578;0,10329392;-0,041457396;-0,054701563;0,03909472;0,029902022;0,083057545;0,031349603;0,062736586;0,09358178;-0,08295286;0,026330661;0,059248753;0,12799874;-0,00087451766;-0,082754225;-0,016722942;0,036946736;0,037320375;-0,04855741;-0,03366542;-0,046905044;-0,005085698;-0,044025004;0,02373185;-0,13009322;0,032274734;-0,023702314;-0,0394447;0,14202502;-0,040194526;0,030222453;0,02750455;0,002132955;0,015513334;-0,066395886;-0,03880563;0,09781816;-0,03060466;0,07568083;0,001771334;0,07634638;0,020306254;-0,025031865;-0,082750306;-0,017840523;0,010705976;0,014089211;0,03256853;-0,11798754;-0,040991638;0,07019965;-0,052827187;-0,023462245;0,034470778;-0,0033605224;0,00769655;-0,040625975;-0,10010069;0,05843616;0,19048892;0,0007597533;-0,07579985;-0,07580628;-0,07697215;0,00872195;-0,045682643;0,13127986;-0,011360991;-0,031275854;0,005000972;0,019000638;0,038230777;-0,07840385;-0,07839684;0,13660732;-0,038226034;0,015147767;-0,08418134;-0,04273492;-0,010838853;0,04323964;0,0409654;0,033815205;0,047500357;-0,08101599;-0,034949634;0,061254438;-0,015779784;-0,012462217;-0,018947968;0,06454084;0,044755794;0,040893376;0,047121875;-0,024229081;0,0028441122;-0,1206842;0,013086756;0,036563706;-0,09497236;-0,0050322623;-0,057705507;0,10100787;-0,01623213;-0,011289679;-0,11394508;-0,04758791;-0,005305916;-0,010300301;0,044671286;0,07363622;0,052002564;-0,049521796;-0,021545047;0,08429028;-0,005742295;0,016454358;0,04626682;0,024865767;0,059130516;0,07084091;0,04040629;0,08998699;0,005127602;0,038151015;0,03990377;-0,013128209;-0,041724388;0,11479933;0,070258535;-0,017149147;-0,037152138;0,09996925;-0,0061433497;0,06024975;0,02191386;0,033850554;-0,07027034;-0,035597026;-0,02423324;0,030285986;0,040769614;-0,061437123;0,035646636;-0,086191185;-0,08286138;0,023831557;0,09571284;-0,014766919;-0,07646768;-0,095483586;0,020173168;0,055215336;0,016558992;-0,06877441;-0,042682342;0,032007698;-0,09867698;0,027112866;-0,08492123;-0,0075314385;-0,0042876005;-0,007755892;-0,044179413;0,059678983;0,012944933;0,029584698;0,07400802;0,019487994;0,0057089115;0,007821771;0,0047769635;0,023118567;-0,099482946;0,021686641;0,007150136;0,053888023;0,07627453;-0,052964136;-0,036643334;7,2069284e-05;0,029939393;0,022573188;0,048258588;-0,0020896995;0,0041812975;-0,011139634;-0,007939553;0,010050457;0,0001527123;-0,10216117;0,054908723;0,10284382;-0,018193098;0,007258555;-0,09550108;-0,01918157;0,0037379467;0,04570462;-0,08751477;-0,057534613;0,0364784;-0,0063227923;0,1315872;-0,008289343;0,0017315657;0,000572881;-0,095319435;0,013290134;-0,109936506;-0,01656107;-0,0077114007;0,07568117;-0,030747302;-0,10243129;0,06415755;-0,13897347;-0,0359095;-0,14323555;0,010855516;-0,026493045;-0,032779433;-0,0376027;0,031363267;0,05367023;-0,018592522;-0,022817722;-0,07781737;-0,036256637;0,033461057;-0,0002120188;-0,07815649;-0,02642491;0,11514531;-0,0298337;0,022866571;0,032095272;0,07528328;-0,024590181;0,03320508;-0,009024989;0,025341472;0,0884854;-0,061350644;-0,10568793;-0,12007513;-0,00039269973;0,0026988853;-0,023070958;0,031282652;0,01606356;-0,053905435;0,028288325;0,06488412;-0,017866332;0,04427981;0,092606746;-0,07407559;-0,0062404093;-0,006574293;0,02397998;-0,04931083;-0,033508725;-0,03384991;-0,055461723;0,007983615;-0,008535382;0,017786128;-0,003909762;-0,024003312;0,049385253;0,028721903;0,024168247;-0,020598458;0,013797162;-0,021648359;0,12489294;-0,058476694;0,031217106;-0,013327221;-0,02627141;-0,08667844;0,115774214;-0,0008607659;-0,08076608;-0,02050016;-0,02038707;0,022260759;0,016013287;-0,014220311;0,015754595;0,033815134;-0,033529706;0,042810544;0,016017007;-0,05336299;-0,03548244;-0,039846357;-0,031810593;-0,018847095;-0,014176515;0,07274305;0,0052481894;0,029307323;0,006469179;-0,07683807;0,079061665;0,055753533;0,0146434195;0,042118046;-0,0116872005;-0,0824659;0,021999132;-0,006819647;-0,05772431;-0,004206794;0,106235;0,008683111
0,03350839;-0,033008628;-0,110567324;0,067070834;0,07931162;0,013297236;0,059757326;0,03373617;0,03686542;0,031405706;-0,02071373;0,13144216;-0,06683479;-0,031687908;-0,0059959;-0,07416255;0,044878222;-0,041393027;0,00906999;0,019682147;0,027740564;-0,0008545926;0,0115636755;0,019637678;-0,0075113326;0,019896204;-0,115392074;0,005548397;-0,0037592275;-0,019331463;-0,020480763;0,039244752;-0,12017359;-0,044980142;0,12321856;-0,05700471;-0,012807488;-0,08548786;0,06787047;0,081780374;-0,005014935;0,011918978;-0,053851355;-0,045596365;-0,0028541614;-0,11993489;0,0430911;-0,001440426;0,011574741;0,02352645;0,022762548;-0,00805336;0,08706643;-0,05223787;0,03233882;0,07480512;-0,030137504;0,00023280492;-0,09857408;-0,10170033;-0,069999635;-0,04630546;0,045529567;-0,08415684;-0,0505922;-0,036033276;0,09274604;0,033231497;-0,036116708;-0,03878295;-0,012510402;0,007886415;0,14127088;0,021452496;0,028050601;-0,010773199;0,12918219;-0,009859414;0,0058357725;-0,106429875;0,13182709;-0,0425383;-0,05738009;0,030904423;-0,020816432;0,036616247;0,014592415;-0,06290996;-0,025571242;-0,015521405;0,039358035;-0,08122352;0,020610034;0,073511824;0,04594681;0,039035756;-0,03579735;0,03573987;-0,0066877464;0,10634616;0,11485593;-0,03517921;0,08689956;-0,026737928;-0,05862432;-0,028763048;0,08100494;-0,038732894;0,02831031;-0,05045498;-0,11067901;0,032569673;-0,041204873;-0,028608168;0,052636944;0,013329822;-0,03919317;0,026552705;-0,027309598;0,16235155;-0,055813298;-0,001410255;0,023433799;0,015793473;0,020555707;-0,087543644;-0,0090785725;-0,03748959;-0,03539728;0,06994424;0,021475065;0,043393683;-0,0011994634;-0,14468189;0,01016502;-0,063577086;-0,02832525;0,0016709133;-0,07670386;0,14510274;0,0046226284;0,061429754;0,0075151105;0,08583253;0,02282277;-0,07606417;0,10728537;0,035302393;0,07495079;-0,08815993;0,00071713695;-0,08142662;-0,010056469;0,11072738;0,015687171;0,0019807783;-0,08206;0,16514726;0,011299781;-0,0051738024;0,040981725;-0,035474177;0,060111895;-0,04274166;0,0022006892;0,04669477;0,03618219;0,048242427;-0,11120119;-0,04040025;-0,03261927;-0,038031414;0,09534599;-0,048053745;-0,0006486795;-0,08617004;0,013512808;0,026683288;0,032512926;-0,030120322;0,08262827;0,022579927;-0,025973374;0,036001388;0,010576812;-0,009713859;0,026847309;0,17102166;-0,06437429;-0,07687135;-0,020499757;0,02699126;-0,14291273;-0,006191145;-0,013228886;0,030729378;0,004949481;-0,019760972;-0,037170965;0,032266885;-0,035605203;0,03439125;-0,030616969;0,048181184;0,018808877;-0,07676643;-0,009560873;-0,036227982;-0,034555905;0,0059393602;-0,023738934;-0,06395695;0,03675159;-0,05759029;-0,025286892;0,06473148;0,07871185;-0,030674871;-0,08071483;-0,02187917;-0,037626073;0,034426156;-0,07066895;0,15176821;0,04384644;-0,046072505;0,08583236;0,024022473;-0,045454524;0,053574894;-0,031084359;0,035655342;-0,038307462;-0,016631547;-0,09662182;-0,048824113;0,011033567;0,041189745;-0,011744903;0,01450735;0,0020969347;-0,020061985;0,041478753;-0,04538821;0,056907393;0,017720502;-0,037538644;-0,037834685;0,017715562;-0,033155873;0,110138476;0,026605785;0,033819318;-0,12742914;-0,017950691;-0,077467546;-0,003728996;0,10053138;0,017849516;-0,12560281;-0,00829977;-0,04791718;-0,016374607;-0,11553048;0,06385828;-0,049420413;0,02195669;0,07126275;-0,13838689;0,04053448;0,046608847;0,04684022;0,017444896;0,008303359;0,05165067;0,017447114;0,033559274;-0,0473685;-0,048514675;0,022686549;0,037341382;-0,018384801;0,045083646;-0,056121934;-0,04146805;0,10393491;-0,030643713;-0,044985496;0,14783686;0,022878041;-0,037377443;-0,032065768;0,01962445;0,14448652;-0,04898714;-0,056769673;-0,013483628;-0,0057872897;0,12740193;0,122157045;-0,06768023;-0,1070021;-0,048051804;-0,07053432;-0,07073163;-0,05388152;0,011986086;-0,019521605;-0,051904537;-0,050872024;0,0045876736;-0,040806;0,03425746;-0,006590979;-0,10873987;-0,07485256;-0,05666619;-0,039201986;0,017042981;0,03388431;0,025441283;0,01542585;0,006872285;-0,004115905;-0,025710883;0,003139396;-0,020087684;-0,042141385;0,029602392;0,025623241;-0,018480921;-0,03865067;0,014404084;0,010396679;-0,10448096;-0,04794275;0,0027559348;-0,021044306;0,07896164;-0,08366471;-0,038460117;-0,12179214;0,058251034;0,17042801;0,15253267;-0,0197837;-0,037252955;-0,02718371;0,14581563;-0,024805406;-0,021951072;0,03211155;-0,09000228;-0,006401505;-0,0050734114;-0,0022972042;0,07314782;0,015594876;-0,011796455;0,005376092;-0,015766952;-0,0069926837;0,023355523;0,076443166;0,024274338;0,01414204;-0,01410898;0,076934114;0,024991471;-0,07084065;-0,0758357;0,06972796;0,040690687;0,01612148;0,060748376;0,014671801;0,036159623;-0,04191544;0,021242943;-0,00067405566;-0,060968135;-0,05110007;-0,022916373;-0,10552615;0,13324916;-0,1101833;0,0058101113;-0,0218972;0,0129126655;-0,022727272;0,03876804;0,035789113;-0,048082553;0,08024054;0,10050141;0,07641568;0,0037623134;-0,02486943;-0,043022558;-0,005074276;0,024090191;-0,096480906;-0,06722708;0,08695271;0,0055092266;-0,0072394796;0,02429336;-0,043504722;-0,014337042;-0,08736645;0,06715989;0,035180748;0,032729473;0,0199589;0,050237745;0,025681501;-0,108775206;0,0038165897;0,038398888;-0,0013955247;0,009775709;0,15422529;0,06898299;-0,023627913;-0,01941391;0,08167107;0,0010010606;0,011160326;0,0011721405;0,039062336;-0,06315607;-0,02611939;-0,0027694635;-0,09080249;0,07161565;0,015706832;-0,03337169;-0,021277301;0,03512473;0,12833579;-0,042547602;0,032887496;-0,042504314;-0,027051529;-0,000101092395;-0,006551261;-0,037317406;-0,05806405;-0,008118909;0,01630373;-0,008069799;-0,0412303;0,07791874;-0,061489493;-0,058459625;-0,04835551;0,002500748;0,044272482;0,07789756;-0,053241577;-0,024924094;-0,015876463;0,062155496;0,03632146;0,034657493;0,03327187;0,043340676;8,786497e-05;-0,03792722;-0,042176604;-0,14716072;0,017160093;-0,01254411;0,00592905;-0,036563177;0,076246664;-0,08804361;-0,035250485;0,056589656;0,06541411;-0,0064663272;-0,040160503;0,006073814;-0,014321934;0,09883326;0,010209421;-0,051353376;-0,036532003;0,081457414;0,0028934104;0,091019906;0,011522896;0,022581808;-0,039275408;-0,010268637;-0,05023855;0,029174741;-0,011641391;-0,0010169353;-0,039505366;-0,059139077;0,012985046;0,02763901;0,029732566;0,07036543;0,06688086;-0,0071126847;0,02687681;0,011164196;-0,04164805;0,014022065;-0,07250185
-0,004602426;-0,041364826;0,06451172;-0,070221804;0,08633245;-0,076919444;-0,042972118;-0,04881626;-0,0044768527;-0,011620769;0,025056513;-0,07110521;-0,0048108017;-0,02927318;-0,0077876067;0,0862973;-0,019644491;0,04360981;-0,02153214;-0,018411055;0,01809634;-0,0031737057;0,038322344;-0,0012909131;0,04093812;-0,05867184;-0,006592625;0,021298656;0,01958479;-0,042952877;0,03041452;-0,0010052172;0,023599155;-0,0016982894;0,05191823;0,048221778;-0,007645965;0,024802893;0,08265362;0,032060284;-0,028730055;-0,0070558107;0,11116673;-0,036725704;-0,032762382;0,07449173;-0,023928953;-0,0002304046;0,021546226;-0,03265413;-0,01045899;-0,019954836;-0,023629794;-0,0681047;-0,027448159;0,008422012;-0,020245278;-0,0029621336;0,062150203;0,07885287;0,045588598;-0,065430984;0,037206337;0,10509771;-0,035792645;0,042825926;0,06778385;-0,040516075;-0,043310445;-0,008609021;-0,039749388;-0,036118925;-0,07824416;0,010746637;-0,030092098;-0,031789623;-0,03361379;-0,03930736;0,051528014;0,0425007;-0,091147944;0,0036539922;-0,03068911;0,039173942;-0,028188815;-0,022893382;-0,0020048788;0,059438173;-0,033870112;-0,013684674;0,07963973;0,021891933;0,021031793;-0,10273636;-0,018280286;0,033044804;0,06847094;0,00829143;-0,014131216;-0,06382464;0,057113834;0,040916324;-0,11876158;0,041644003;0,033395946;0,01069031;0,03071417;0,028218538;-0,010925428;0,040079392;8,6351385e-05;-0,084712654;-0,006009486;0,06307432;0,015909886;0,053208396;0,04267228;0,07179639;0,023687234;0,034350578;0,07480591;0,04190873;0,00036309965;0,067516364;0,008076609;-0,008386002;0,019150104;-0,021920929;-0,031097207;-0,057763886;-0,01844165;0,009141746;0,08767163;0,0676022;-0,02502171;0,07299845;-0,040850896;-0,06406972;-0,037232585;0,016892027;-0,040624976;-0,09709445;0,055051472;0,020749021;-0,010540694;0,0005217141;-0,0026310363;-0,02548277;0,0044364645;-0,034954593;0,0001965886;0,06352688;0,020954872;0,026407272;0,013639075;-0,03613188;-0,045610085;-0,071880236;0,020501979;-0,029143985;0,02603363;0,04306366;0,05423297;-0,041110113;-0,029440835;0,033882327;0,009490446;-0,015174871;0,011087088;0,035273697;-0,0013603002;0,035200194;-0,027168231;0,06877421;-0,04960128;0,017795468;-0,011916745;-0,029470826;-0,052202888;0,056206092;0,027426254;0,017650822;0,060392797;-0,054757424;-0,0007252202;0,09423776;0,08637161;0,026233375;-0,060346194;-0,014478263;-0,029300751;-0,026859567;0,041328035;0,0236533;-0,052443787;0,037089147;-0,013860565;-0,04148178;0,022436604;-0,011000561;0,0069335257;0,014090452;0,06197312;0,11252735;-0,009186382;0,031979226;-0,09140269;0,021169757;0,11980687;0,03368961;-0,00064178876;-0,01207114;0,03413196;-0,081150815;-0,03551553;0,020779146;0,021702146;-0,0055309767;0,112558216;-0,033490725;-0,0026635956;-0,04772788;-0,028432226;-0,006958687;-0,0909478;-0,006490024;0,030012112;0,02752792;0,01650685;-0,01963601;-0,03754395;-0,036765587;0,074558325;0,02734697;0,02694911;-0,06448305;-0,010994559;0,019090548;0,04153568;0,009484848;0,0062650875;0,023142416;0,06683306;0,060564566;0,06700904;0,09153449;0,030283256;0,05609561;-0,038291957;0,029268557;-0,0046537104;-0,03716411;0,066213764;-0,03701557;-0,06421232;0,037109293;0,09132351;-0,02062377;0,023185115;0,018400593;-0,1068941;-0,041850176;-0,002172651;0,12725922;0,0035369338;0,089254126;0,06424809;-0,015407051;0,050800163;-0,0004288187;-0,024705816;0,09319758;-0,03862425;-0,025338449;-0,10584325;0,00091386575;0,035371814;0,0067530046;0,096858725;-0,043416455;-0,025307298;0,025775602;-0,10822799;0,061348602;-0,031090936;-0,10484798;-0,01500954;-0,02515306;-0,0047197207;-0,065499194;0,11558151;0,036509417;-0,03943271;0,011171288;-0,01064367;-0,028500684;0,023538513;-0,038067076;-0,06601724;-0,096252754;0,060262244;0,032548886;-0,039350573;-0,040012028;0,04038637;0,008424517;0,0031794643;-0,0056002587;0,020474775;-0,036437336;-0,017569853;0,110012844;-0,045980163;-0,058081426;0,031138794;0,11804196;0,019273061;-0,043849204;0,030904638;0,0066395677;-0,07132975;0,017249305;-0,071551174;0,073554955;-0,024853092;-0,010620869;-0,044366963;0,04502947;0,05988031;-0,009325374;0,031156749;0,05807078;0,042841956;-0,024253104;0,042457394;-0,047856566;-0,0004656048;0,011495841;0,11898133;0,048874635;0,050879996;0,043800328;0,07572326;0,01396804;-0,03913066;-0,04192359;-0,04884542;0,025626365;-0,01917322;0,003808648;-0,06828213;0,00516991;0,117851086;0,08779667;-0,008973513;-0,055959903;-0,0148769235;0,009367131;-0,014024052;-0,0018175291;-0,022525022;-0,005074195;-0,026206145;-0,015152827;-0,06728136;0,04287411;0,018606268;-0,061077744;-0,03460566;-0,048867352;0,032263655;-0,035177324;0,004066534;-0,024449395;-0,0587388;0,005458571;-0,030517321;-0,053369425;-0,002666402;-0,013050026;0,05380063;-0,020241367;-0,0059884842;0,029192874;-0,077936426;0,06754813;-0,041609135;-0,048316114;-0,0019151936;0,056639675;0,01620819;0,042736776;-0,095366396;-0,055818453;-0,09335465;-0,049136676;0,015266638;-0,06279341;0,008053138;0,0091555845;-0,0054638456;0,120135106;-0,034636136;-0,002537062;0,025470655;-0,03573942;-0,086007744;0,02268352;0,06160898;0,03410344;0,059947293;-0,014974933;0,0017939069;-0,07360322;-0,063500926;0,014577327;-0,0029059637;-0,039308038;-0,053501446;0,0016589768;-0,029849852;0,024789162;0,007030275;-0,067514315;-0,028030414;0,040797;-0,06867853;-0,06063587;-0,03491946;0,0122455135;-0,048249062;0,074398324;0,03247792;0,07685894;-0,047701243;-0,050196804;0,0087108975;-0,0350006;-0,0021415127;0,024449755;-0,023957172;0,015599937;-0,011856118;-0,022403734;0,03820085;0,07920886;0,027080216;0,04408641;-0,053976014;-0,023335125;0,04087225;-0,052081093;-0,083321005;-0,018979572;-0,06528634;0,011410309;0,035306845;-0,00607679;-0,048520286;0,057430442;-0,042651113;-0,007675525;0,043926824;-0,025378782;-0,0319893;0,0047564213;-0,0460968;-0,0052957423;0,019544238;0,004419567;-0,00088690186;-0,06863476;0,0026354354;-0,05541649;-0,018340565;0,05460325;0,059853118;-0,021696135;-0,08593411;-0,040170603;0,0036803216;-0,012203541;-0,034463637;0,016499748;-0,024492905;0,012590518;-0,01980852;0,04434172;-0,11395763;0,06312613;-0,09655225;0,069960244;0,023946427;0,036599584;0,069825694;-0,03547106;-0,0049008727;0,022356318;0,021807024;0,07110326;-0,06406033;-0,027185295;0,0149024315;-0,023787715;-0,05923718;-0,07203422;0,037199657;-0,046025712;0,018676883;0,013906054;-0,025829848;0,11191854
-0,015478806;0,05938106;0,022062622;-0,07258164;0,019026447;-0,017579183;-0,03370221;0,03415484;-0,038525246;-0,03476136;0,013271406;0,08193947;-0,0892128;-0,035305247;-0,03527266;-0,0050864;0,031146992;0,034329034;0,023642413;-0,005069965;0,034028508;0,0040265466;0,03947165;-0,054155894;0,033997048;-0,06002274;-0,106833346;0,043352395;-0,019337429;-0,05882175;0,0059857233;-0,00284394;-0,09348997;-0,011108108;0,037364274;0,007811007;-0,0040944945;0,031181373;0,12058682;0,04361379;-0,012400497;-0,006309173;-0,020483723;0,005391268;0,024445157;-0,15025733;0,0069487323;0,039696988;-0,034962032;0,016937807;0,0049256305;-2,993875e-05;-0,050664704;0,010907233;-0,023769984;0,020573396;-0,05269561;-0,036178075;0,039323695;-0,08432005;0,069042906;0,06488597;-0,010513638;-0,038567837;-0,054269068;0,005921838;0,10254101;0,029628832;0,032202568;0,002949928;-0,08112148;-0,030515801;-0,016216138;0,0077861496;-0,060909484;-0,076249264;0,03300248;-0,026249975;-0,00061384815;-0,06733769;0,074529245;0,034170207;0,03792184;-0,0026436045;0,12031777;0,06081662;0,027675219;0,058734078;-0,055082396;0,028354052;0,014417455;0,009353457;0,06738093;-0,033985686;0,0651641;-0,016859604;-0,06397203;0,12479089;0,041033763;0,003447355;0,13734119;-0,035230707;0,05776806;-0,030506378;0,014197089;-0,018805766;-0,030269422;0,005726195;0,040653426;0,093818925;-0,07897172;-0,0034757897;0,008403877;-0,04777085;0,0054195635;0,0031512834;0,0025511207;-0,012063232;-0,013805724;0,06950351;-0,09794365;-0,0516712;0,064762324;-0,03934099;-0,032892283;-0,024534727;0,0071616536;-0,04344357;-0,044275373;0,07519961;0,0041257953;0,017744388;-0,13632536;-0,15923636;-0,0736176;-0,05454601;0,040682897;-0,015556877;0,025164047;0,106985904;-0,07217289;0,05115084;0,0772826;0,09200365;0,01533861;-0,02215383;0,027141556;0,03332288;0,08140889;-0,04403539;0,02075079;-0,06747739;-0,062560685;0,06134312;-0,0066711004;0,032909073;0,004710181;0,021764295;0,015481551;0,004603876;0,019096714;-0,040878635;0,003052561;-0,019761141;-0,026680091;-0,040554732;-0,07662763;-0,06203078;0,0368728;-0,031565532;0,09140249;0,066757135;0,0845702;0,0026673325;-0,025213202;-0,0564179;0,028280852;0,053710844;0,025443103;0,006172065;0,043273382;-0,06141983;0,060617827;-0,08445003;-0,018968793;0,06942229;-0,009857439;0,075149074;-0,0070289266;0,025183845;0,02476622;-0,01423086;0,03984563;0,03338031;0,011671705;0,01505302;-0,07724618;0,03441225;0,025846165;-0,0059119873;-0,0030024112;-0,060124926;-0,015058193;0,02712744;-0,026349813;0,016368642;-0,0931581;0,03966385;0,057212934;-0,033516735;0,019759938;-0,03172984;0,014953786;0,044272;6,994273e-05;0,024525022;0,04357284;0,036354184;-0,09253701;0,031864025;-0,027005224;-0,037760444;-0,028215628;-0,005214354;-0,085426405;0,04112019;0,07036476;-0,036527846;0,117483035;-0,009228999;0,09131466;0,004058163;-0,06511737;0,027273651;-0,007048002;-0,06453458;-0,0037976955;-0,021587184;-0,024093816;0,041955523;0,03378822;-0,039098118;-0,08479115;-0,021349456;-0,047391087;0,08560201;-0,016984316;-0,044317383;0,006328384;-0,0062463474;-0,00052717555;-0,0067814444;0,080492094;-0,05735875;0,04070966;0,040452506;-0,034890115;0,067994975;-0,0048754583;-0,11974186;0,06199509;-0,05394752;-0,023871608;-0,12420614;0,17802314;0,007873297;-0,06992283;0,039718453;0,018547589;-0,025409164;0,072846144;0,06054001;-0,049388144;-0,011791218;0,015304416;0,04174589;-0,021673873;-0,05461534;-0,052219506;-0,0036854434;-0,052366503;-0,011253089;0,058473267;0,06365878;-0,062198915;0,039496556;0,039255794;0,013773449;0,041534394;-0,05493614;-0,022016434;0,068430826;0,008274077;0,06203475;0,02105229;-0,04670232;0,036338698;-0,031539205;0,09146726;0,14489804;0,022766419;-0,013013458;0,015937427;0,021750432;0,005091749;-0,06549638;0,010202905;-0,010522418;-0,023836965;-0,00051181106;0,038807012;-0,064735316;0,068773724;-0,009716147;-0,049586724;0,09179111;-0,009833016;0,0029252693;0,010309888;0,006753032;-0,054242373;0,0001795359;0,04430877;0,07586286;-0,013190593;-0,024365785;-0,012340581;0,029627016;-0,09826256;-0,03285539;0,03272466;-0,08142276;-0,017913248;0,030824399;-0,0059556323;0,04652755;0,014759314;-0,0006761187;0,022788744;0,00093091023;-0,0029543606;0,058237225;-0,033246633;0,06776822;-0,05701115;-0,038441535;0,07920027;0,0028677208;0,07212575;0,007648866;-0,023083245;0,09940134;-0,02335614;0,056761585;0,021289641;0,030116633;-0,04037908;-0,0045118397;-0,07130324;-0,0017396545;-0,006410615;0,0588502;-0,03560004;-0,0019473451;-0,008642769;0,0406936;-0,006638981;-0,02897734;-0,041726597;-0,049662363;0,024106843;0,0032661953;-0,113235384;0,015565931;0,04355433;-0,014522953;0,0002823901;-0,0065919138;-0,06634308;-0,015035686;-0,048116677;0,019071221;0,04455937;-0,014416495;0,054280702;-0,013230751;-0,07359183;-0,02520677;-0,035705987;0,039722033;0,06989751;0,025455406;-0,030774523;-0,079912186;0,08813534;0,00750478;-0,050078537;-0,020754697;0,032223117;0,05728784;0,045577098;-0,03228065;0,032194175;0,04157344;-0,06090746;0,0028801435;-0,04908374;0,011468918;-0,04123635;0,022152156;0,08602651;-0,042260345;-0,08100621;0,056549706;0,023321366;-0,016005607;0,0029838334;-0,02825834;-0,059472196;-0,023808869;0,022636544;0,006441258;-0,024694923;0,023051566;0,009840634;-0,028578607;0,053500105;-0,032844543;0,014116624;0,0038341654;0,07466965;0,026051702;-0,04187325;-0,06380014;0,0337734;-0,049280778;0,03947181;0,114040874;-0,07178581;0,014520163;0,0279789;-0,04454602;0,08690695;-0,02958851;0,02113279;-0,04360904;0,007309765;-0,06766237;-0,019841617;0,019984009;0,061979607;0,06278191;0,028828338;-0,022251716;0,022220392;-0,07539509;-0,04181405;0,072317265;-0,015657347;0,028956162;-0,0054190094;0,0012893486;-0,07183707;0,024376107;-0,09473061;0,025165962;0,048262842;-0,032934826;0,07677591;-0,020736992;-0,06302689;0,09745688;-0,0071747103;-0,047038782;-0,034224868;0,047926024;0,018178036;0,011399695;-0,0673895;-0,021896994;-0,054076545;0,04189373;-0,0055209836;-0,0064864913;0,048315465;0,036618937;-0,040177643;-0,008542108;0,038345315;-0,03191962;0,04337852;0,027560437;0,019852316;0,012339038;-0,0070063514;0,04278081;0,013141635;-0,042279206;0,0249914;-0,009499766;0,009908529;-0,062243752;0,04225353;-0,01942967;-0,003731256;-0,0041299923;0,0416479;0,017210925;0,13798247;0,023377128;0,06577633;0,012695799
